{
    "params": [
        {
            "layer": "Affine",
            "weights": [
                [
                    -0.45775423634740625,
                    -0.021399299362160406,
                    -0.07497202335536696,
                    -0.22106528098004058,
                    0.014031557049412008,
                    0.2739895709188165,
                    -0.12424390467372376,
                    0.33172326310847394,
                    -0.5025516512405005,
                    0.10631060114459995,
                    0.3917232917088354,
                    0.17321294279853344,
                    -0.0597038901440441,
                    -0.0843847849997303,
                    -0.2789549202650293,
                    0.017689773032156096,
                    0.0037873604322719917,
                    -0.325821755029867,
                    0.17402000816407986,
                    -0.4070325058298721,
                    -0.21938751659973824,
                    0.04757813004629657,
                    -0.08083263298954846,
                    -0.06419148401675422,
                    -0.4941909191735996,
                    -0.11328882738950864,
                    -0.30261835855125935,
                    0.15646455115338495,
                    0.03603757938035447,
                    0.13694195006921583,
                    0.27033629726322134,
                    -0.1955320866907378,
                    -0.018842950702913076,
                    0.011865540342268537,
                    -0.32767807900560375,
                    -0.14288699945074695,
                    0.019187980986363852,
                    -0.0374267982659696,
                    -0.022131243152994827,
                    0.12452249459650745,
                    -0.16428165441096076,
                    -0.15305321935625585,
                    -0.2952260374432782,
                    -0.5156867631865065,
                    0.24982564949419248,
                    -0.32285907370593425,
                    0.281335979162116,
                    -0.13143402852167496,
                    -0.09483096080247358,
                    -0.31591310784375115
                ],
                [
                    -0.24694148104460414,
                    0.17726460048223527,
                    0.022225460971293326,
                    -0.27938164039309726,
                    0.1602659680539636,
                    0.048824423157008245,
                    0.050169092971799195,
                    0.1670972860743389,
                    -0.08130829042587627,
                    -0.023187991581718026,
                    -0.08910942882164948,
                    -0.2334552109041525,
                    -0.25496895229762007,
                    -0.15371609217138782,
                    -0.4666630221169215,
                    0.0019098342874904251,
                    0.10432856291419125,
                    -0.14439551402412762,
                    0.2789974168897043,
                    -0.18498591656592786,
                    -0.18794478525469208,
                    -0.08380556120923253,
                    0.3802943170082701,
                    -0.09023690872777133,
                    -0.0028793186119810536,
                    0.12889579956578262,
                    -0.10012421835916209,
                    0.24093064011520499,
                    0.30361613616209077,
                    -0.18204063001033283,
                    -0.010134098876578923,
                    -0.1966502600325278,
                    0.19680432874043396,
                    0.5294983648629498,
                    -0.4650845439818902,
                    0.24740752560917742,
                    0.03024112110050393,
                    -0.17356896464979615,
                    0.09345518123028025,
                    0.1367917284101579,
                    -0.25678146941373614,
                    0.13686303243526168,
                    -0.006672405994262763,
                    0.29416641546356176,
                    -0.20014004273762503,
                    -0.14810045617431042,
                    -0.24673733137694037,
                    0.027304047450780338,
                    0.18986515978286878,
                    0.16931384980867054
                ],
                [
                    -0.20900369736435873,
                    -0.2565765674438978,
                    -0.3619021508829352,
                    -0.21542938838226172,
                    0.2227159153449756,
                    0.18429157447880687,
                    -0.46192425982221114,
                    0.22502066916524227,
                    -0.041135647113346316,
                    0.045884788222584065,
                    0.2758828100421511,
                    -0.25150154671146063,
                    0.014924708596153474,
                    -0.34465179290116094,
                    -0.05911200149033194,
                    0.18278611794951463,
                    0.19213324034303922,
                    -0.1812296757576827,
                    -0.010997829267451797,
                    0.010128067419414648,
                    -0.2902850528669102,
                    -0.4955781060974084,
                    0.005506585487311145,
                    -0.09507808973661065,
                    0.2020874425380191,
                    -0.17367460529722603,
                    -0.0008442384715222453,
                    -0.023027987818803258,
                    0.37779320304126285,
                    -0.05091661844443166,
                    0.32187597744925195,
                    0.025816101638731197,
                    0.12899908580300423,
                    0.3975802900297373,
                    0.21998372837614755,
                    -0.3584612587746384,
                    0.31467652950895764,
                    -0.17387041197897046,
                    0.045034335245766874,
                    -0.12690974655894358,
                    -0.2965648612954044,
                    -0.2978060828006764,
                    -0.14326911246760693,
                    -0.37491185944795813,
                    -0.09085033595694715,
                    -0.169847068448192,
                    -0.008395561972115191,
                    -0.039673585773585866,
                    -0.202126255445648,
                    -0.09953863280659991
                ],
                [
                    -0.5107123290618605,
                    -0.29534231513493464,
                    0.0034340928597407982,
                    -0.18536453289707167,
                    -0.024368468272272726,
                    0.14415734295607222,
                    -0.32655167482721426,
                    0.22048970371205537,
                    -0.02318983562094337,
                    0.03894322027662327,
                    -0.181857398617687,
                    -0.22209455812077275,
                    -0.22943090970546895,
                    -0.42089245880287235,
                    -0.106048761626012,
                    -0.20356277982944013,
                    0.155572354467969,
                    0.05445048348326179,
                    -0.0703522062392722,
                    -0.15828196394113608,
                    -0.011894041925380574,
                    -0.08942443630971185,
                    0.02462398703769533,
                    -0.026552037886788234,
                    -0.2946949349732107,
                    0.04649931979960688,
                    -0.3487595664520649,
                    0.3371265544485293,
                    -0.12125043975070093,
                    0.08263641265804482,
                    0.08319267116768125,
                    -0.12588688130174644,
                    0.43868939307931865,
                    0.21965120084497938,
                    -0.04238360070782533,
                    0.051871008681696446,
                    -0.32452176376407005,
                    -0.002703574459745378,
                    -0.08783695451029612,
                    0.10350354654340847,
                    -0.4340536100105319,
                    0.030044951798322863,
                    0.46925687886524897,
                    -0.3835033950943834,
                    0.22070899422045215,
                    -0.3967340482110512,
                    -0.06581200955803711,
                    0.1514397445479591,
                    0.2556754154437391,
                    0.13143096151155398
                ],
                [
                    0.25280822164147726,
                    0.06217029777435116,
                    0.113287153910516,
                    -0.10773464258865013,
                    0.12353497269210337,
                    0.12131181735317313,
                    0.055387618893986273,
                    0.2544910030782703,
                    0.20317872473684254,
                    -0.18955875650850448,
                    -0.07151523352857209,
                    -0.21498467418664605,
                    0.27595782476291786,
                    0.12307525074132641,
                    -0.23007996467200104,
                    -0.16507171095860504,
                    -0.23976804961098927,
                    -0.08847419768624956,
                    0.1646671882864782,
                    -0.03394589525586532,
                    -0.12732256593970012,
                    -0.16042098805210644,
                    0.3696211293749827,
                    -0.4889448635256056,
                    0.08065743552736133,
                    -0.09037099612931153,
                    0.2008411712994848,
                    -0.06518618185350523,
                    0.2466500260353436,
                    0.1484902801171095,
                    0.31553309774220434,
                    -0.16948507275468602,
                    -0.23566453187467848,
                    -0.13132913136363,
                    -0.264656749613035,
                    0.1585290620688598,
                    0.2994499420594676,
                    0.08313034057159989,
                    -0.12519879869006573,
                    0.04065589911681745,
                    -0.031029026665273678,
                    0.021914698085805793,
                    0.08443790105616601,
                    -0.15610306572207722,
                    -0.07947794611689925,
                    -0.10817276207893044,
                    0.17773433503818095,
                    -0.006671196366293859,
                    -0.1596555261747934,
                    0.17623411835357902
                ],
                [
                    -0.1747629524679078,
                    -0.03770568415491664,
                    -0.17450581827504627,
                    0.0772878476121014,
                    0.07968579722326723,
                    -0.1811273308353734,
                    0.0235034453471543,
                    0.0037945018360165633,
                    -0.1965886904857232,
                    -0.010783408125418061,
                    0.17936850445327807,
                    -0.10532911859588996,
                    -0.3884753985216426,
                    -0.056943522446211016,
                    0.16748243013612765,
                    0.05826169281418837,
                    -0.004851867253688409,
                    0.1587751387475411,
                    0.04946362980836384,
                    0.016951396420368258,
                    -0.45791062101110885,
                    -0.3531249884702915,
                    0.2544786488327668,
                    0.31084823926036764,
                    -0.07301553988742733,
                    -0.31851135971933664,
                    0.2791642075644208,
                    -0.04944558529843602,
                    0.23323737508026948,
                    -0.13809994581064186,
                    0.17194959552083175,
                    -0.19131504127112114,
                    -0.3236307102899504,
                    0.08569535766800537,
                    -0.09427824252573985,
                    -0.1448722985725472,
                    -0.19494270132239694,
                    0.4027673935959611,
                    0.3390126138788024,
                    -0.45579411927333247,
                    -0.11701677508682123,
                    -0.17371610004107133,
                    -0.07674388125189902,
                    -0.16872822777783178,
                    -0.13433421564615458,
                    -0.07133319595547868,
                    0.10723616434018736,
                    0.4016012834490486,
                    -0.04053007984723328,
                    0.2475605727100574
                ],
                [
                    -0.01739633388712129,
                    -0.0841519068359772,
                    -0.10143720105152446,
                    -0.21903085177202528,
                    0.5260139926693647,
                    0.26686194553429043,
                    -0.3304813008692656,
                    0.2354663680649212,
                    0.09374364074251405,
                    -0.008159851726225775,
                    0.2227188635681347,
                    -0.17573009159641925,
                    0.2047873938433509,
                    -0.25246759317025375,
                    0.03261421832252954,
                    -0.01266076764043483,
                    -0.14907687348375906,
                    -0.08581604733525683,
                    0.22936263263479492,
                    -0.40433381208695374,
                    -0.22389974665280798,
                    -0.21158194460496832,
                    0.6178090463468199,
                    -0.11019759688523187,
                    -0.11389698338002682,
                    0.03652221312029945,
                    -0.19359314469421549,
                    0.06381344134502445,
                    0.11820592491818573,
                    0.1895165140778545,
                    -0.021405112350793055,
                    -0.49369114426451477,
                    0.12414850099583546,
                    0.14018087135420648,
                    0.06521348602111135,
                    -0.32611475062170553,
                    0.15235917583860636,
                    0.1828602743284073,
                    0.06099756480407273,
                    0.053127227361066474,
                    -0.3488553040077651,
                    -0.013137064394917325,
                    -0.043539484121239126,
                    -0.31455740818007066,
                    -0.15380656049467684,
                    -0.0983434302758614,
                    0.04598503043538939,
                    -0.14945759944012113,
                    0.07244857414503754,
                    0.20489223038889978
                ],
                [
                    -0.1625837755891603,
                    0.05882391811056936,
                    -0.17378962910837623,
                    0.08132847648958297,
                    0.06258628506164171,
                    0.27665443358805436,
                    -0.41935114163269827,
                    0.2214714552537135,
                    -0.15505499130979342,
                    -0.1379742902889866,
                    0.1268685308430208,
                    -0.4374910170852542,
                    -0.3104978850309985,
                    -0.17064338462920617,
                    0.10263164722192407,
                    -0.2464163715666192,
                    -0.06401924167782747,
                    -0.19522285749919832,
                    0.36975702160148016,
                    -0.21715592061643266,
                    -0.3583200091588039,
                    -0.3407305287676678,
                    0.35329109327094693,
                    -0.019041860375215745,
                    -0.21303771890845732,
                    -0.3161968214051744,
                    -0.48223105057356747,
                    0.24014292620528666,
                    0.2768832446855085,
                    0.5632422441087073,
                    0.3249367865707708,
                    -0.029405792350267846,
                    0.08470734545439976,
                    0.33108059781354315,
                    -0.2853875591341541,
                    0.13213020930974925,
                    0.11363892698587669,
                    -0.44631434358055116,
                    0.21645452663997183,
                    0.42346930299514174,
                    -0.08755487333414254,
                    -0.10141474733951311,
                    -0.23822576179740318,
                    0.070251491827808,
                    -0.18627127166523086,
                    -0.3465526456576759,
                    -0.07127163678962407,
                    0.42263006126244945,
                    0.15768322845912833,
                    0.21972786743583914
                ],
                [
                    -0.33812152867790535,
                    -0.2764297386726236,
                    0.16093432601911412,
                    -0.18215598186255788,
                    0.1408770900563059,
                    0.02464682605973856,
                    -0.030870272830462377,
                    -0.14233000550694863,
                    -0.08400568403158498,
                    0.05758422200462715,
                    0.023085256017898077,
                    0.17120515028516142,
                    0.21386067164954656,
                    -0.03083969302577429,
                    -0.3658881873221536,
                    -0.08335842800823097,
                    -0.15568691253696412,
                    -0.20161335751060439,
                    0.11007339246338789,
                    0.018926888730124467,
                    -0.011611151030909397,
                    -0.05795718885676407,
                    0.2552129080589685,
                    -0.005749106767851423,
                    -0.04331554743246401,
                    -0.022492457884508044,
                    0.02548926720736557,
                    -0.054252233480691,
                    -0.1388902449076869,
                    -0.26937118552488015,
                    0.23948103449744707,
                    -0.29302563388928193,
                    -0.3466701166382795,
                    -0.05716774328604955,
                    -0.06175266392193179,
                    0.06437708548794122,
                    -0.21305070022022166,
                    0.08637087800535462,
                    -0.10861982292432802,
                    -0.3234336853566679,
                    -0.016080826993927568,
                    0.05485242993067922,
                    -0.07111755008512746,
                    -0.0391197122611294,
                    0.371283053584472,
                    -0.12437252317029837,
                    0.05456347962139935,
                    -0.015456192879311667,
                    0.08435589755440996,
                    0.04605894226804028
                ],
                [
                    0.41567122698733827,
                    0.11804369067219585,
                    0.13649554593621688,
                    -0.18472006079972644,
                    -0.04651260269129342,
                    0.04009695684938764,
                    0.012100911272326587,
                    0.3864612557415305,
                    -0.002526338208897304,
                    -0.030131898150945732,
                    -0.4280236723822405,
                    0.1285386560865617,
                    0.5059623222704012,
                    0.227989327925632,
                    0.07898652272440577,
                    0.10464678723844176,
                    -0.0971471948725601,
                    -0.03626270433907327,
                    0.06398273498482251,
                    0.04143941034858421,
                    0.1420156673863574,
                    0.25596735444728885,
                    0.09262543776608627,
                    -0.06804690282129013,
                    -0.006022786363719572,
                    0.053875977799298494,
                    0.25925837869203244,
                    0.08643438716900209,
                    -0.3077346411451577,
                    -0.28596083734354344,
                    -0.2789487041049524,
                    -0.10737489529482758,
                    0.22843880662920776,
                    -0.15069230961278157,
                    0.038045471109446546,
                    -0.3018943445248875,
                    -0.06943634853375603,
                    0.10592150747706011,
                    -0.2733288446045174,
                    0.2215123938185169,
                    0.07090579396097041,
                    0.30898770526143876,
                    0.05378885459918136,
                    -0.27589495715333257,
                    -0.11096841599116247,
                    0.36104940758425413,
                    0.018326961684204845,
                    0.4060884992683736,
                    -0.011674733698345211,
                    -0.01534601985134467
                ],
                [
                    -0.6351708813701229,
                    -0.15872918220028073,
                    -0.3863929987129602,
                    0.23676456349004224,
                    0.3000626447486065,
                    0.05389440281377414,
                    -0.0490910509154644,
                    -0.004067212295342544,
                    0.12730805708814266,
                    0.07572312632602525,
                    0.08588905554526123,
                    0.03594212381580951,
                    -0.40911221689421695,
                    -0.19673050631934338,
                    -0.010373504963325368,
                    0.30887455186533336,
                    -0.1746389799459292,
                    -0.36789500885120924,
                    0.04512462514014571,
                    -0.15777344163729334,
                    -0.27096746971139485,
                    0.16084839003584767,
                    0.08523591567610725,
                    0.21508157811439615,
                    -0.2979924601199191,
                    0.3576837958597282,
                    0.09124167875806931,
                    -0.12248967515059794,
                    -0.0720057478753816,
                    0.15075747727718922,
                    0.08599047699631178,
                    -0.1541771874886187,
                    0.014691688924918674,
                    0.2777786237728118,
                    0.12327652427019709,
                    0.2357474606542232,
                    -0.15203671531537075,
                    -0.04019869077809119,
                    0.310450790339062,
                    0.17998803367692653,
                    -0.4048784670880885,
                    0.35278213384757406,
                    -0.13150467577832248,
                    0.21033526325014887,
                    -0.298346480138512,
                    -0.15097142953469295,
                    0.026434548122111646,
                    0.31011565090225296,
                    0.14293818848408638,
                    -0.08186171546634742
                ],
                [
                    0.22480704286311348,
                    0.08389853592439375,
                    -0.07392029057276144,
                    0.16267512337244586,
                    0.3910020773913131,
                    -0.2348630392541018,
                    -0.09072521915801729,
                    -0.0863118338145695,
                    0.03257896445572329,
                    -0.04527256817921669,
                    0.11589458917346357,
                    -0.24606864536733714,
                    0.0009542975198654814,
                    0.3368727413708267,
                    -0.016574822341997194,
                    0.20979389016255467,
                    -0.13426668118884647,
                    0.030705322469419597,
                    -0.2728361634644541,
                    -0.249872126724238,
                    -0.08158884227076652,
                    0.10178644807686375,
                    0.13503340990128018,
                    -0.105174816159791,
                    0.163674390293016,
                    -0.15329323532649677,
                    0.059442052873727697,
                    0.016417817713652454,
                    -0.003174488198296148,
                    0.12414425711480725,
                    -0.0256000082803468,
                    0.291291937750757,
                    -0.16117389536965596,
                    -0.136483186375052,
                    -0.0007496798345967574,
                    0.10947738196906381,
                    -0.037060688116715125,
                    -0.2282807099660216,
                    0.08849733950732178,
                    -0.23768990728046335,
                    -0.002124481468317688,
                    -0.13858509636824512,
                    -0.09764077482198917,
                    0.12809248016020455,
                    -0.1561985241005752,
                    0.026330149462071805,
                    0.30239194552349485,
                    0.04388420056206616,
                    -0.04659925139445794,
                    -0.025199017863632784
                ],
                [
                    0.04094232226078378,
                    -0.4704128552749271,
                    -0.11673616701844401,
                    -0.08188963777830346,
                    0.02454588640164192,
                    0.12838529246734026,
                    -0.18793066623005794,
                    -0.37579861110763263,
                    -0.10004531932315641,
                    0.07269159297665014,
                    0.08024416687197633,
                    0.14453097113304503,
                    -0.1490236206390831,
                    -0.052753962965548976,
                    0.09502891616932917,
                    0.16579471590025957,
                    0.00023588720633647357,
                    -0.2881803428521742,
                    0.0433747910413349,
                    0.10826477255159117,
                    -0.057850824701196665,
                    -0.24027925815735252,
                    -0.1318241973133133,
                    0.14512160637910884,
                    -0.1311453432855772,
                    -0.05273766864086922,
                    0.18812561460445587,
                    -0.20744446702444738,
                    0.032643431698440015,
                    0.48495370922326886,
                    0.16186450021241627,
                    -0.2684460975541584,
                    -0.0641529190616935,
                    -0.022411673862681558,
                    0.03968959454868191,
                    -0.19940378054608107,
                    -0.323407413197563,
                    -0.2611023135390735,
                    0.1645378679230483,
                    0.23966091274112725,
                    -0.2853297924098062,
                    0.011102039625939964,
                    -0.047822822961485205,
                    0.029614018526445303,
                    -0.1276179799434879,
                    -0.3396695435586717,
                    0.018745754421973102,
                    -0.12422313160642931,
                    0.2966767331129949,
                    0.16886865535406342
                ],
                [
                    -0.13235599486605523,
                    -0.38406320323237153,
                    -0.00046398899217295895,
                    0.16497114103752153,
                    0.08738258303525087,
                    0.4694217065632495,
                    0.007002365770140426,
                    -0.008755193021141151,
                    -0.11677746300887559,
                    0.06231073674484921,
                    0.15830518288129639,
                    -0.2945045113221789,
                    0.22202027316319045,
                    0.00038384393912016166,
                    -0.002600176888508988,
                    -0.27934575515451365,
                    0.12060619102872637,
                    -0.2307694333545043,
                    -0.17025409202366767,
                    -0.4970695705422731,
                    0.04338361563082215,
                    -0.11226569781274556,
                    0.354116595483736,
                    0.1607655475156229,
                    -0.256714649718302,
                    -0.07928692902431014,
                    -0.22358583718502334,
                    0.143592312776186,
                    -0.09040756196784092,
                    0.3335486641313175,
                    0.08492164078028568,
                    0.10374939300604816,
                    0.15544249026210966,
                    0.21054669494433978,
                    -0.12891475155639417,
                    0.4684352883273436,
                    -0.1809425101780797,
                    0.12859060498365005,
                    0.009268037083130036,
                    -0.20369233947987903,
                    -0.11236850697018103,
                    -0.03687907747033055,
                    -0.08452963652993789,
                    -0.3746632155073937,
                    -0.15683641111504182,
                    0.06015854602612768,
                    0.01254958164286541,
                    0.09007677545676238,
                    0.1542567494087828,
                    -0.18278922500321412
                ],
                [
                    -0.04003159065633692,
                    0.08654007144398937,
                    0.12503572833146195,
                    -0.2207639924819088,
                    -0.07112696930352853,
                    -0.015490748725163152,
                    -0.07706392789921163,
                    -0.17996892006794987,
                    -0.0016041515466533095,
                    0.1468937725445343,
                    0.427590445874346,
                    0.052926564643444154,
                    0.04352034409552216,
                    0.1732661926495947,
                    -0.03685480415306909,
                    0.1779397333032218,
                    0.0527427782810307,
                    -0.04448940443546503,
                    -0.15249358574656688,
                    0.13102920019546258,
                    -0.03962894907563365,
                    -0.21194481528094372,
                    0.024692778271567847,
                    -0.26042458367545573,
                    -0.23402141591410244,
                    -0.12705038938779226,
                    0.264261696540655,
                    0.2164034061709079,
                    0.1003060503412171,
                    0.28901090977184424,
                    -0.06252831152425618,
                    0.108564887981251,
                    -0.1949421421562278,
                    -0.1951602302440896,
                    -0.026689708977485876,
                    0.22803191051290078,
                    0.22831360396114073,
                    0.07688371764869822,
                    -0.21909059166824488,
                    0.15581940196043734,
                    -0.042619912883301324,
                    -0.25741218386062537,
                    0.10477856980424448,
                    -0.24773291877610026,
                    0.0586882895336159,
                    0.26895438948341965,
                    0.18163117825207645,
                    -0.2540767895754926,
                    -0.004218894447051354,
                    0.28045328033517986
                ],
                [
                    0.0644787753675822,
                    -0.07843157692935641,
                    -0.18029610860120693,
                    0.07521337508513773,
                    -0.2907367145652149,
                    -0.0629761497266083,
                    0.0412304025020411,
                    0.06236758294568524,
                    0.27700719169001187,
                    -0.019909396179304175,
                    -0.16936974782894612,
                    0.1316256756206219,
                    0.11174256551000344,
                    0.3948388375519997,
                    -0.30890223329248073,
                    -0.14617252696881017,
                    0.17547657590953722,
                    -0.11269678326568067,
                    -0.015984517261423838,
                    0.15313311178651315,
                    0.06749542836459764,
                    0.07593605585541684,
                    0.3712774095309184,
                    0.062143399240001396,
                    0.06716309968043528,
                    0.045255651275538857,
                    0.0481551541249975,
                    0.10828234802624646,
                    -0.07086074483206402,
                    0.035067352214719266,
                    0.20954852752274145,
                    -0.021040051779662974,
                    -0.14134720756603203,
                    -0.05556257934467642,
                    0.4043788279584376,
                    0.07759628542396418,
                    0.07660780722441936,
                    -0.1689080644714905,
                    0.19680870464001365,
                    -0.24942655146561016,
                    0.38241425979626625,
                    -0.2866608176133098,
                    0.037587126898908425,
                    -0.05885390176180802,
                    0.008035817264904212,
                    -0.027572829412529944,
                    -0.08120975690582169,
                    0.4295949450056431,
                    -0.13369610219995032,
                    -0.18063692012339885
                ],
                [
                    -0.020270702101919162,
                    0.2134046810406838,
                    -0.1430971372210608,
                    -0.09096181120642587,
                    -0.034546638170670066,
                    -0.040330488236956105,
                    0.11453213324585965,
                    -0.005342292931190423,
                    0.09282934881693657,
                    -0.05283080048855018,
                    -0.10393899328698568,
                    0.06999467330403195,
                    -0.19549496834994826,
                    0.13176796099788052,
                    -0.16824853840924942,
                    0.23791533890383798,
                    0.21749036377250808,
                    -0.2703618372463673,
                    -0.20030844737328565,
                    0.0238294078325567,
                    0.06323589649332641,
                    -0.4513711642360806,
                    0.23533888343510162,
                    -0.3850873449480741,
                    -0.0035259583659679253,
                    0.10887771492606554,
                    0.05541663571203491,
                    0.05216459314389643,
                    0.16887576391198603,
                    -0.15854683332298103,
                    0.32903609614814106,
                    -0.4339130508985698,
                    0.2133075945333767,
                    0.11486997278304696,
                    -0.10054410935324401,
                    0.4349985135075611,
                    0.07731025033976513,
                    0.0791145454567773,
                    -0.1457256165611316,
                    0.03833331915382379,
                    0.28923802574008534,
                    0.09204862911345942,
                    0.04043525834086739,
                    -0.15577541908040834,
                    0.024321149597450114,
                    -0.30858775174474806,
                    0.02875058149133932,
                    0.05599507944725351,
                    -0.0759165598224485,
                    0.19974966915489611
                ],
                [
                    0.07270710550742956,
                    -0.14469035625749893,
                    0.05261913657503083,
                    0.2179527515507572,
                    0.0682784451524567,
                    0.09994386849044407,
                    -0.15073901106387144,
                    0.16842070274529872,
                    -0.1822746332885172,
                    0.026095147475562346,
                    0.014842882274233155,
                    -0.1865118556856462,
                    0.28917194837117116,
                    0.09333201304492986,
                    0.008373507812025385,
                    -0.13469251695839293,
                    -0.011254490108223094,
                    -0.10440828285943238,
                    -0.033392789113875894,
                    -0.07434734263844209,
                    0.01114616110914285,
                    0.10246636804878956,
                    -0.10242071384809377,
                    0.24826997126245512,
                    0.055377034873578306,
                    0.28044600843269796,
                    0.2472233624198834,
                    -0.026213642226580514,
                    0.07958679046644009,
                    -0.03617848967068,
                    0.019741761692622428,
                    -0.06012917047753022,
                    -0.3498925416065435,
                    -0.18248059151666537,
                    0.10574100431094118,
                    -0.19585007315098266,
                    0.15780349050761378,
                    0.12059755898611613,
                    0.1881635089186319,
                    0.11564982016847275,
                    -0.16943929139867028,
                    -0.4396701848846977,
                    -0.34718492563861997,
                    0.07749470964840657,
                    -0.2427387230138428,
                    -0.10664074818186565,
                    0.07788786474957399,
                    -0.02446235111895614,
                    -0.46169539632813117,
                    0.18453872749559372
                ],
                [
                    0.14508566864177178,
                    0.10993675842919598,
                    0.14246317172548156,
                    0.1704046841012789,
                    -0.0850403501485887,
                    0.08455275407124568,
                    0.2911762079311667,
                    0.09746830065300456,
                    -0.11917929326939121,
                    0.008020389838111217,
                    -0.13456037478421992,
                    -0.04700696003564064,
                    0.14700021263366328,
                    -0.1331551941742914,
                    0.13143282152847202,
                    -0.00765027160943637,
                    0.1135841014440347,
                    0.25694028247369954,
                    0.05101749961213325,
                    -0.38744573870376786,
                    0.027243421268905377,
                    0.30308387897730166,
                    -0.09344993328289761,
                    0.027473050537473093,
                    -0.2169405453493723,
                    0.2543186569424872,
                    0.20841812276966137,
                    -0.07999129495210601,
                    -0.20041446777164937,
                    0.12157526092402468,
                    -0.2699709017176031,
                    -0.08296130017499828,
                    -0.0054779124283271885,
                    -0.3781071135022073,
                    -0.12904363172564465,
                    -0.13139934557483285,
                    -0.007850161475777462,
                    0.348319766957631,
                    -0.23466279120488626,
                    -0.028449555298314732,
                    -0.02641889563061382,
                    -0.08277749516709498,
                    0.05812903470272917,
                    0.1003818435799169,
                    0.21374954423295248,
                    -0.28597809961172393,
                    -0.03518003982194402,
                    -0.25043989425180546,
                    -0.05359326181355365,
                    -0.07256013411359877
                ],
                [
                    -0.201625012431893,
                    -0.23764483641867606,
                    -0.2818527920316246,
                    0.06731858163609644,
                    -0.09780878017261858,
                    -0.037551735485145094,
                    0.14545560359340082,
                    0.13852550826285612,
                    -0.021534104613602015,
                    -0.26595507564750376,
                    0.032021322799566536,
                    0.04372276715540873,
                    0.09277141661610244,
                    0.024564358311889672,
                    -0.11734513382202545,
                    -0.2730468055451577,
                    -0.10977009762315422,
                    -0.17365394501729478,
                    -0.18079678491265366,
                    -0.3212051508430329,
                    0.1579068928142977,
                    0.1961272537751685,
                    0.06286846730020784,
                    0.03512576569946074,
                    0.26086280233189135,
                    0.13937255757971667,
                    0.36409129455524575,
                    -0.2646608987456871,
                    0.021670509813717497,
                    0.18338490928890244,
                    0.17809174929648441,
                    0.30774554889121547,
                    0.14345312070391456,
                    0.1854078615019435,
                    0.11640754110367493,
                    -0.27616917075676767,
                    0.11657968535905983,
                    0.10753573036323891,
                    0.0899755812901587,
                    -0.08806369332862114,
                    0.1371941920939026,
                    0.29613490215511473,
                    -0.24381382100298774,
                    0.13023885462895002,
                    0.032771301529065,
                    -0.13419181267769176,
                    0.0893072635393525,
                    0.08287801234735918,
                    -0.05185450410573265,
                    -0.02780398240435649
                ],
                [
                    -0.24661902032613528,
                    -0.41296981384267484,
                    -0.32372539391437277,
                    0.08368567639820368,
                    0.255068549886967,
                    0.15011236906780714,
                    -0.24421573750542216,
                    -0.05952682956555111,
                    -0.33004998810465586,
                    0.18301180769260317,
                    0.3002587949405306,
                    -0.44388182077795746,
                    0.07475057714423763,
                    -0.33084209109537976,
                    0.3073271896794507,
                    -0.11563048005058697,
                    0.05478722542927834,
                    -0.259140329161862,
                    0.27751038374188863,
                    -0.44347297090454924,
                    0.021011147893216793,
                    -0.2444336010141525,
                    0.22854268171641107,
                    0.03323318078489133,
                    -0.12571173311381353,
                    -0.2077018043595189,
                    -0.5810967155518466,
                    -0.13729788138214213,
                    0.04526358438238664,
                    0.22127192772208923,
                    0.12066449737966932,
                    -0.11538683358216746,
                    -0.17779789605423388,
                    0.47001278901334664,
                    0.13207198916001295,
                    0.1080109674555858,
                    0.026037840665812047,
                    -0.1278670689547247,
                    0.07986737767854916,
                    0.10217046246286564,
                    -0.17162329772774904,
                    -0.17052742514080566,
                    -0.31494143622437276,
                    0.059609559027316725,
                    -0.068176672511319,
                    -0.27796723353938074,
                    -0.16461324777055528,
                    -0.02305680325081047,
                    0.009240571346944245,
                    0.11380281530257715
                ],
                [
                    -0.2684629266752781,
                    -0.13856136950564402,
                    -0.26971766483452253,
                    -0.3560026302399364,
                    0.011731059226118173,
                    0.2817055482734312,
                    -0.5162899086927347,
                    0.26993388955869024,
                    -0.3266528064530298,
                    0.37501914902510486,
                    0.14701004194469383,
                    -0.09494084980251428,
                    -0.29261003399094093,
                    -0.2319300889205959,
                    -0.35895595704857036,
                    -0.3690679617577122,
                    0.10092797111941536,
                    -0.32528177612376563,
                    0.16760174608612158,
                    -0.17882683265729893,
                    -0.03915027570127386,
                    -0.052957677167580514,
                    0.01623330269222666,
                    -0.04038549532398206,
                    -0.12150389617391645,
                    -0.08270622600810473,
                    -0.5414764577824508,
                    0.26144357243566907,
                    0.1069358630333676,
                    -0.005843142866263588,
                    0.3177458416541783,
                    0.040394104593447555,
                    -0.2778478107776433,
                    -0.02613384696437648,
                    0.27709188872014145,
                    0.1832734717583873,
                    0.12459598994952756,
                    -0.17373930797304885,
                    0.2019280847434289,
                    -0.3042785619659104,
                    -0.12621337661341087,
                    -0.012379901583895316,
                    -0.05006124377055109,
                    -0.26477052160165865,
                    0.08842362487555698,
                    0.04832232895649331,
                    -0.08978141982821668,
                    -0.07804810413126692,
                    0.5294089527784267,
                    -0.07730125042945667
                ],
                [
                    -0.2661375784270738,
                    -0.04511351688817965,
                    -0.23129214632099224,
                    -0.1633346455089734,
                    -0.08944794248399382,
                    0.25031274336062326,
                    -0.12146666091217602,
                    0.01608052303329967,
                    -0.009419136631553353,
                    -0.17594137579481298,
                    0.2371323310937373,
                    -0.3050566324332031,
                    -0.2943910529043539,
                    -0.4051794007311327,
                    -0.19165261381334917,
                    -0.07147464283057402,
                    0.0808254239615468,
                    -0.630778103203391,
                    0.009224056325047433,
                    -0.05594860517530541,
                    -0.2705433212601531,
                    -0.058092136452688126,
                    0.11544120259521164,
                    -0.16715183883712237,
                    0.07067553614310688,
                    -0.03210221690995169,
                    -0.4186088522116549,
                    0.07715646602180118,
                    0.31137314094331087,
                    0.3008640270770169,
                    0.0030200211722180644,
                    -0.2678641141937917,
                    -0.07227903090963042,
                    0.2925607047551192,
                    -0.003318436402519913,
                    0.05590442767344556,
                    0.3057568611191077,
                    -0.0026069075398347246,
                    0.10682599217127263,
                    -0.1732246148682607,
                    -0.09404715331635626,
                    0.30071252730696646,
                    -0.04029737883851926,
                    0.2309165264048222,
                    -0.2700697834198679,
                    -0.5053752167730111,
                    0.1783664625078277,
                    0.04720780712650917,
                    0.14007328446356473,
                    -0.031184408303108944
                ],
                [
                    -0.2015422770388543,
                    -0.10006215515876513,
                    -0.2032185737412909,
                    -0.40367882208783845,
                    0.06645484936071597,
                    0.04718832664995594,
                    -0.1009427654261922,
                    0.08881645025730966,
                    -0.06832537541030373,
                    0.22981147999297055,
                    0.25577749150045415,
                    0.18751452008792172,
                    -0.2603682287649593,
                    0.012957287254728868,
                    0.5742662385116162,
                    -0.16729321387365131,
                    0.05402611256159337,
                    -0.12424016972577476,
                    0.4006895945528941,
                    0.04139525990576893,
                    0.06985618485909438,
                    -0.3937000346964458,
                    0.2051634095028773,
                    0.032793196108911654,
                    0.15803195816266685,
                    -0.4880996336354051,
                    -0.13744821634149595,
                    0.04726506503976997,
                    0.055622480541584494,
                    0.3424928109481593,
                    0.11123833128113808,
                    -0.23549339346162132,
                    0.07164409725236606,
                    0.02021403913969473,
                    -0.253579674370465,
                    0.19078365705056738,
                    0.1553677435632228,
                    -0.15610173173511252,
                    0.5808124666612563,
                    -0.05040334222595217,
                    -0.27911623488737175,
                    0.34299722485925693,
                    -0.3853891394051499,
                    0.018335247040315056,
                    0.07535398841284531,
                    -0.025692619637636083,
                    0.0490616551832807,
                    0.12372848844763706,
                    0.5666247913382441,
                    0.13674053318788382
                ],
                [
                    0.03664897305186662,
                    -0.2566812193550824,
                    -0.06369451371020257,
                    0.0182877134616904,
                    0.4247511443790183,
                    0.06339829942274469,
                    -0.34197225354106947,
                    -0.08445751252282235,
                    0.18512474193733777,
                    0.06531462070584966,
                    -0.10037997226635541,
                    -0.2154278267482234,
                    0.05662959024643912,
                    -0.09913055550746272,
                    -0.08659054559353839,
                    0.005583520831924164,
                    -0.009792649585048212,
                    -0.01176076773974917,
                    -0.07291106568958822,
                    0.18374484934257712,
                    -0.20186358104859942,
                    -0.2331468122207215,
                    0.2960433851854199,
                    -0.17691302727872912,
                    0.012365479696959322,
                    0.1850481214188566,
                    -0.14153233928444328,
                    0.34449311257845083,
                    -0.04949381388748168,
                    -0.05074640234224886,
                    0.13563457377635801,
                    -0.22960788546087407,
                    -0.10048221236341154,
                    0.18152895640180866,
                    -0.20869830806051995,
                    -0.1348152966646205,
                    -0.1494459720239413,
                    0.04115897286585494,
                    0.3567500578519349,
                    -0.038249109821336835,
                    -0.3273062626522309,
                    0.28349361142904134,
                    -0.026522280385306705,
                    -0.365788139079508,
                    -0.1175358892562787,
                    -0.03434453999113908,
                    0.3157541519890019,
                    0.3627252273978313,
                    0.1632625595360914,
                    -0.14628335554764338
                ],
                [
                    -0.0540600531010777,
                    -0.2584387251369078,
                    -0.45850097041403715,
                    0.13206499131632454,
                    0.07778479857553089,
                    0.09760030027419475,
                    -0.33007270470454164,
                    0.0598299001158659,
                    -0.11916917747611519,
                    0.3099690738368405,
                    0.16370923481712726,
                    0.07269335477417305,
                    0.03543545822154136,
                    -0.2583506484389803,
                    -0.11206617747047605,
                    -0.19157970694525778,
                    -0.11079261598125692,
                    -0.3000220847521825,
                    0.27698628605241327,
                    -0.11073741775426796,
                    -0.016632215115586477,
                    -0.017442440687336625,
                    0.15552965683159478,
                    -0.07697049539609427,
                    -0.3315390756274714,
                    0.08026215995512935,
                    -0.051635805154986426,
                    0.10133022674220236,
                    0.2931987013682121,
                    0.09526468863719616,
                    0.14739067807820846,
                    -0.20272639132725093,
                    0.048892574323415046,
                    -0.23062471437793408,
                    -0.23198699580440416,
                    -0.023811916134163665,
                    0.1845703655922917,
                    -0.4340628867048131,
                    -0.003458394566437115,
                    -0.19775538728758718,
                    -0.21305909698027586,
                    -0.06534659890390886,
                    0.16331539715202703,
                    0.34266650313545277,
                    -0.17988411803349513,
                    -0.469652413517968,
                    0.043694476042167,
                    -0.019605995049875504,
                    0.17495210456235388,
                    -0.26044257391064723
                ],
                [
                    -0.05741022831428349,
                    -0.04374370433956141,
                    0.04760219817765106,
                    -0.04522824682467581,
                    0.01525538388903096,
                    -0.09881038855879112,
                    0.185657544466501,
                    0.1850854627905084,
                    0.03291571573686603,
                    0.10500285099523085,
                    0.22390307625199557,
                    -0.13959761786829109,
                    -0.09855889931462805,
                    -0.4094462187404328,
                    0.000912826425078362,
                    -0.15313906946557992,
                    -0.11539904418471604,
                    -0.18924197507663007,
                    -0.09002568257893913,
                    -0.09696457895007451,
                    -0.41239107067444636,
                    -0.15533610810577927,
                    -0.34043433668938006,
                    -0.21309362857798458,
                    -0.07334216744837953,
                    -0.007864870492492383,
                    -0.33774756977104303,
                    -0.20560594637287502,
                    0.12056035477979744,
                    0.009702772280521861,
                    -0.08016126325289903,
                    -0.12724080366184554,
                    0.34496156189399485,
                    -0.02583200073486307,
                    -0.004729165749455199,
                    -0.07100392560867208,
                    0.2710132889146275,
                    -0.05924779035685505,
                    0.38186736470732047,
                    -0.12799067473592657,
                    -0.20394119539709274,
                    -0.15357173020850742,
                    -0.5614224809214272,
                    -0.07490272849743275,
                    0.0817689031220305,
                    -0.20129233434930374,
                    0.35220784982865866,
                    0.17901934435861094,
                    0.05757292507384975,
                    0.6885494970590434
                ],
                [
                    -0.5239305163215064,
                    0.04403660630557526,
                    -0.4141651663001928,
                    -0.2910795047628103,
                    0.15608448331660915,
                    0.2928367607467501,
                    -0.23967233155800133,
                    -0.023789717701180466,
                    -0.14155501771217627,
                    0.33908973530135067,
                    0.2660236230033106,
                    -0.3435623264059302,
                    -0.37193181923873464,
                    -0.31384402066903655,
                    0.04322266599174071,
                    -0.24731634640742703,
                    -0.17790689509443428,
                    -0.21900390386339316,
                    0.1946172538264544,
                    -0.2635493072959267,
                    -0.4935411124182336,
                    -0.5614215176775134,
                    0.2600468206158395,
                    0.015413557212285895,
                    0.16854070453243916,
                    -0.18887957573036127,
                    -0.18138421231035273,
                    -0.10768394212310783,
                    0.4920608519968348,
                    0.3226269086847625,
                    0.48039514205933675,
                    -0.4532466241237505,
                    -0.28504848014349776,
                    0.42902716630485455,
                    -0.30153334211836075,
                    0.2779169240594058,
                    -0.1513621515046342,
                    -0.48891789577162054,
                    0.3757368359856611,
                    -0.12126086289565763,
                    -0.2710293829172308,
                    -0.11762166696025472,
                    -0.19118742275151432,
                    -0.40812125501694607,
                    -0.33973224564695864,
                    -0.12915195747418273,
                    0.2039269110979889,
                    0.0015804684512168488,
                    -0.038157867492096,
                    0.16876733076636496
                ],
                [
                    -0.020657226226514194,
                    -0.189310678870112,
                    0.18896651940623327,
                    0.07653925007368838,
                    -0.2950529339827205,
                    0.1509610351682289,
                    -0.14153613068410426,
                    -0.0054877428885547275,
                    0.03296673218700732,
                    -0.1486406239358959,
                    0.010264895323777763,
                    0.012071444473912393,
                    0.1805291601021944,
                    -0.1773306733982341,
                    -0.47990104042787574,
                    -0.24054896145804328,
                    0.04885841637486779,
                    -0.28373120708781857,
                    0.1339144320323772,
                    0.14992014942965584,
                    -0.23203154310025145,
                    -0.06739717171673101,
                    0.187124515934606,
                    -0.10235197468305053,
                    0.17770061275488083,
                    -0.16001994399069375,
                    -0.211001251452875,
                    0.11328199525903072,
                    -0.04139680368183922,
                    0.2393050606910375,
                    -0.12619264731946206,
                    -0.17592245257146807,
                    0.16394273219940383,
                    0.22798172429000088,
                    -0.1043524308541721,
                    0.1988486164090401,
                    0.052940698949146846,
                    -0.11437804276963884,
                    0.08761245994950971,
                    0.2041252495590303,
                    0.15037510866909834,
                    0.17820293222904782,
                    -0.10007615164353555,
                    -0.2999206423759495,
                    0.2150324470802264,
                    -0.17377485297910453,
                    0.18259255715602057,
                    -0.08984138834523867,
                    0.25168034652988114,
                    0.03550604194904798
                ],
                [
                    -0.16422438082666693,
                    -0.011678458017268063,
                    0.4268371208355868,
                    0.0014348516611134908,
                    -0.13599047096090774,
                    -0.42635047563200507,
                    -0.10607078439254422,
                    0.020601254556973665,
                    -0.30593910168506533,
                    -0.13830417859061542,
                    -0.005764685391561631,
                    0.08830870543257133,
                    -0.2193920925378809,
                    0.21867667981047353,
                    -0.10616740488892276,
                    0.08454007359246536,
                    -0.33206173163449654,
                    -0.07666836334041705,
                    0.22604717912978678,
                    0.15231641897367157,
                    -0.2942842695699727,
                    0.3536497156041902,
                    0.03236751515264502,
                    0.15288384462507595,
                    -0.0975491468341541,
                    -0.04889203600693649,
                    -0.14880825763528296,
                    0.18276871729116242,
                    -0.0029163344604617395,
                    0.30248477018360526,
                    0.047656231710796006,
                    -0.08513342203887189,
                    -0.02743582638865798,
                    -0.09184389462395977,
                    -0.12443312127121693,
                    0.23144992895950972,
                    0.11877401162381378,
                    -0.16012554569184204,
                    0.14827208258125515,
                    0.30916206690830694,
                    -0.011971339601616929,
                    -0.19380094024067313,
                    0.17350120685181908,
                    0.1768280520577272,
                    0.02360513721130099,
                    -0.1073438562077459,
                    0.10348243807039771,
                    -0.2819237391246421,
                    0.01672264588442359,
                    -0.038893636721604403
                ]
            ],
            "bias": [
                0.24762930970556593,
                0.04780100120504814,
                0.0681182029308315,
                0.036641107405075854,
                -0.04215128333827143,
                -0.0799247056127813,
                0.22652697840110797,
                -0.026910143532644194,
                0.01858840256135531,
                -0.009092869153397184,
                -0.07297331900023189,
                0.0995992524313128,
                0.012170917026361484,
                0.14477277919661916,
                -6.125071151916311e-05,
                0.02852807221813947,
                -0.013481812120283135,
                0.28175073270619455,
                -0.06408578697941905,
                0.05595217630912095,
                0.19479159425469972,
                0.17262924676520058,
                -0.1541338767051713,
                -0.006349161610857463,
                -0.0005679329886658915,
                0.011078191235410305,
                0.17718207097001062,
                -0.006549574157185084,
                -0.08196847599190482,
                -0.08874471674284758,
                -0.13192770882546703,
                0.17157889574885157,
                0.0006486583188564963,
                -0.11944170046667237,
                0.025721684747588767,
                -0.005626539324528604,
                0.0002666587992199121,
                0.02824491623269787,
                -0.11279107064598327,
                -0.009823491632114325,
                0.2118716900713032,
                -0.008120101793313248,
                0.025419391863363474,
                0.036359892027751306,
                0.005124116904136561,
                0.220655956679493,
                -0.00443369736940702,
                -0.008975404457033728,
                -0.03602219368978174,
                -0.009780670036102473
            ],
            "input_size": 30,
            "output_size": 50,
            "lr_rate": 0.0001
        },
        {
            "layer": "Sigmoid"
        },
        {
            "layer": "Affine",
            "weights": [
                [
                    0.40539237260572314,
                    -0.010114944277548069,
                    -0.4929446909271615,
                    0.03489252660614033,
                    0.08145979553936267,
                    0.02599497945771498,
                    0.2413272441779844,
                    0.1361386921706738,
                    0.42053271086768723,
                    -0.007387919410767198,
                    -0.35063493755173325,
                    0.41341710480351385,
                    0.06862148462174217,
                    0.20567229470889306,
                    0.019869374055395923,
                    -0.514969002379328,
                    0.35721815221008385,
                    0.1468556641899755,
                    0.1606801690856758,
                    0.10384969658155123,
                    -0.13072499787707237,
                    -0.02205117820453088,
                    0.1359156623472109,
                    0.1597130973215288,
                    -0.2358393438220043,
                    -0.1748657432523585,
                    0.2499510068268177,
                    -0.031205854054744433,
                    -0.2612730358102961,
                    -0.013091900509248603,
                    -0.48356594816883075,
                    -0.15009125779609364,
                    -0.17872752794983793,
                    0.1574222401160167,
                    -0.20428207937190984,
                    -0.12301336846585333,
                    -0.11604733953017946,
                    0.2036775331178408,
                    -0.05785243909443225,
                    -0.09238452206045938,
                    0.08383568197467446,
                    -0.33870717482035917,
                    0.2534057802802633,
                    -0.07404487817973868,
                    0.08965298151308658,
                    0.18584446363769674,
                    -0.09119680731685387,
                    0.2391211965440874,
                    0.019626150218489534,
                    0.0019940934129902862
                ],
                [
                    0.2714804996024709,
                    0.21305631982556358,
                    -0.290169392164986,
                    -0.09904839931063265,
                    -0.0627397768008298,
                    0.12305086545322078,
                    0.199231981892334,
                    0.13414446133288851,
                    0.0855451700543509,
                    -0.049889462989510636,
                    0.00144922064242211,
                    -0.13207166179120367,
                    0.15219401412559636,
                    0.12469461102062691,
                    -0.05506399465112189,
                    -0.3179184483066111,
                    0.01999751864905774,
                    -0.1850366841612278,
                    -0.01051674079578015,
                    -0.10672028203558377,
                    0.08351964854980254,
                    0.26717158445863004,
                    0.10484738556678003,
                    0.19354970161332563,
                    -0.22473658586341966,
                    -0.08157468373247001,
                    0.005568409095943307,
                    -0.0901749213172315,
                    -0.1478458273426521,
                    -0.03984379398626973,
                    -0.20935022808868675,
                    -0.22690718272992488,
                    0.32808453029388984,
                    0.04311285411648469,
                    -0.0018916807621561903,
                    -0.1495379620604919,
                    0.1337939052332261,
                    0.1553755346387484,
                    -0.07732277996345106,
                    0.07534469781173589,
                    -0.13040438946961705,
                    -0.28955960520344126,
                    0.07136036998045742,
                    -0.29727442075249244,
                    0.35035502185037826,
                    0.006620030000218149,
                    0.016931259513867678,
                    -0.03741798316860812,
                    -0.13569832151215747,
                    0.04796340947797603
                ],
                [
                    0.07269196125775423,
                    0.07410080557305444,
                    -0.23083975646273652,
                    -0.0002834639055389782,
                    0.033399897795625556,
                    -0.04466698477247027,
                    0.6409649814651481,
                    0.03193815172665194,
                    0.18045311700244096,
                    0.06739664275427742,
                    0.13667489894438567,
                    0.23637368126228744,
                    -0.11537493820329484,
                    0.09267906406858951,
                    0.07786166249510282,
                    -0.005507938384039186,
                    0.038705768937206224,
                    0.3248973570784437,
                    -0.160583037525475,
                    -0.1932171880943604,
                    0.20640732219447225,
                    0.13199966632939591,
                    0.05002573755143852,
                    -0.10583312528651716,
                    -0.04071441418986244,
                    0.14182901310636753,
                    0.25090011268005236,
                    0.032181292845088263,
                    0.07651256384830893,
                    -0.05096279398859979,
                    -0.23634661943387622,
                    0.2678658960184102,
                    0.034963278516965984,
                    0.034480059498447756,
                    -0.22458770826291227,
                    -0.07659397609230055,
                    -0.2231525442974495,
                    0.23099522405960046,
                    -0.16619474457927258,
                    0.06752560848399812,
                    -0.09838233356956246,
                    -0.2578315291860896,
                    0.05268796682237342,
                    -0.22127482256872766,
                    0.01965567067364926,
                    -0.09018550456597259,
                    -0.11939996081717062,
                    0.2392210431039062,
                    0.09278443599523828,
                    0.17634182629251963
                ],
                [
                    0.170134151989704,
                    -0.14705713419027194,
                    -0.18814625900785575,
                    -0.17855589506496936,
                    -0.01641505686623308,
                    -0.17565032006783043,
                    0.4884003106452491,
                    -0.03817912835505501,
                    -0.06992979067513652,
                    0.28233542746284257,
                    -0.02162896150138975,
                    0.022910123678340274,
                    -0.008210954133740555,
                    0.04391073541170597,
                    0.005212530038556239,
                    -0.17218298838986035,
                    0.07439483177579687,
                    0.14066325259695436,
                    0.019695970859608506,
                    -0.11820527731779505,
                    -0.21897560178480377,
                    -0.0698965112780408,
                    0.23558206291311357,
                    0.4615476689924656,
                    -0.2858101679173581,
                    -0.25658217708886566,
                    -0.012662994149600128,
                    -0.07399497465938866,
                    0.07429331583836611,
                    -0.10542695544554238,
                    -0.1813960628179371,
                    -0.32732280009337533,
                    0.0504192078774259,
                    -0.166740444681329,
                    0.025814770199120495,
                    -0.05943685782255074,
                    -0.249450772354255,
                    0.19468178704958683,
                    0.022733354225165734,
                    -0.015563758563089435,
                    -0.19974666073850983,
                    -0.014566851372552349,
                    0.25874193924691274,
                    -0.08642021335380504,
                    0.02669608731609682,
                    -0.014838082956356696,
                    -0.03175592282818878,
                    0.050631160619292924,
                    0.11358573800885842,
                    0.11556252104691915
                ],
                [
                    -0.25469548438354134,
                    0.11735702306368247,
                    0.2558485782606811,
                    0.12099919470796222,
                    -0.24991695209943152,
                    -0.15583863059979375,
                    -0.22278268734636258,
                    -0.11928720760258842,
                    -0.11142600878313529,
                    -0.04238126159071408,
                    0.05564342106093194,
                    -0.08880109695232509,
                    0.17547703894445482,
                    -0.063779536134835,
                    0.15039601970562247,
                    0.11799208769690794,
                    -0.23203711429405613,
                    -0.1351722154262623,
                    -0.00788563833392321,
                    0.19367683511125958,
                    -0.29482009705253936,
                    -0.004113291616811653,
                    -0.05299004501279171,
                    0.16263150587441752,
                    -0.14851393545941471,
                    -0.1748272373369944,
                    0.07642488492797843,
                    0.17823181113024797,
                    0.2718802433140941,
                    0.07430468913019185,
                    0.17002748388810426,
                    -0.3318613849367977,
                    0.11281115606167154,
                    -0.014269269710619934,
                    0.011811173396003134,
                    0.11958109516047406,
                    -0.06795381253649964,
                    -0.19518013905900647,
                    0.36206968316553106,
                    0.04283785869668087,
                    -0.036443729365748315,
                    0.13506897746194896,
                    -0.13877640315723283,
                    0.035600095261688176,
                    0.05632020426474393,
                    0.08447332137304889,
                    0.13972088550995054,
                    -0.032434929427836816,
                    -0.01957553862947231,
                    0.06974439690690779
                ],
                [
                    -0.32941609909146213,
                    -0.11945735261390754,
                    0.19300475824828284,
                    -0.025693369669123816,
                    -0.012751295909154381,
                    -0.03350632811292096,
                    0.014122149287560353,
                    -0.08934745544686915,
                    -0.1666086668104265,
                    -0.35416897292753113,
                    -0.2660138202395493,
                    -0.2817938038536657,
                    0.2144841448681334,
                    -0.004331677201316155,
                    0.08660711298112198,
                    -0.03837933896220316,
                    0.2170670361198658,
                    0.15932115608102992,
                    0.3152716417637194,
                    -0.07517471901474547,
                    0.08753558250020302,
                    0.17468891908554984,
                    -0.011206687431983477,
                    0.1172904564342427,
                    0.11381111698149715,
                    0.091875090016098,
                    -0.125307798324119,
                    -0.2343168872472883,
                    0.023705940748850036,
                    0.03971892237342136,
                    0.40715121899445933,
                    0.2083067879013885,
                    0.07398454360239078,
                    -0.03272545120994629,
                    0.03792382751512461,
                    0.040187428479037834,
                    -0.011681593969605643,
                    -0.49882321933268126,
                    0.09940569051591151,
                    -0.11931764670967951,
                    0.11740591194039098,
                    0.3513147884404069,
                    -0.011653441079108949,
                    0.28037244357499386,
                    -0.13309899984073795,
                    -0.2133123747469418,
                    -0.025560749810019778,
                    -0.04343780510553369,
                    -0.0029428653499346566,
                    0.10992817543506739
                ],
                [
                    0.08111134693316091,
                    0.2845155971853053,
                    -0.29781172078962515,
                    0.0805459306543788,
                    0.12435967336628152,
                    0.06484117944271177,
                    0.4663885349930789,
                    0.11286025334820693,
                    0.2045097871928364,
                    0.2284517476962612,
                    0.16469702410594814,
                    0.4970346715312618,
                    0.09573929685062846,
                    0.3069324829794119,
                    0.10146017859612154,
                    -0.001344560134145421,
                    0.09913476198659785,
                    0.13595502768656517,
                    -0.10088785104222477,
                    -0.023788343718563518,
                    0.1146370958265064,
                    -0.010621324568439245,
                    0.10775689217410726,
                    0.15961239027882929,
                    0.000621294932155488,
                    -0.3872318136137408,
                    0.06840567429296601,
                    -0.24688346506435047,
                    -0.2644404606834253,
                    0.189584576057842,
                    -0.26344232518084265,
                    0.05504427737451778,
                    0.06259516813286702,
                    -0.11007552523403871,
                    -0.11737543203076183,
                    -0.3843615633568967,
                    0.07398663134004953,
                    0.10731132847687828,
                    -0.07036224446825766,
                    0.029355148101066538,
                    0.04793683605170083,
                    -0.2754542598568682,
                    0.047473749776286406,
                    -0.24704008063509594,
                    0.16016592936224924,
                    0.10385437808078835,
                    0.025989085702091613,
                    0.09242631444597514,
                    0.049704781335071654,
                    -0.09970779628766495
                ],
                [
                    -0.4005627838070944,
                    0.1141818381032167,
                    0.18898730592615012,
                    -0.1313981162746933,
                    0.02997054507128116,
                    0.044605406713105915,
                    -0.07393025754872448,
                    0.09634495610050432,
                    -0.1222427754855083,
                    -0.0015364290391036042,
                    -0.0722001914339997,
                    0.004845188319996191,
                    -0.021671735775043586,
                    0.005842271781068038,
                    0.06409871548855765,
                    0.017123186102829462,
                    0.07017894197707637,
                    0.15888282480421773,
                    0.04967154066649478,
                    0.1418139629939917,
                    0.17245155368293041,
                    0.08638598862443508,
                    -0.09162264488605532,
                    -0.17242458541625716,
                    -0.06689016264051412,
                    0.025132524872489785,
                    0.11811572283644052,
                    -0.013771665113813588,
                    -0.28866861449432163,
                    0.1172625999514342,
                    0.23676855410120415,
                    0.15046696459690714,
                    0.015741841127302165,
                    -0.016455216846136506,
                    0.09223938129177145,
                    0.09368266001379856,
                    -0.0032904600594940822,
                    -0.2847608916827548,
                    0.0707063916019721,
                    0.15930453573239603,
                    -0.0008674159889882501,
                    0.23486701235464696,
                    -0.16384320379587752,
                    0.12617733432014377,
                    -0.2754415246025707,
                    -0.13199948660807373,
                    0.05361819916541047,
                    -0.03399677543014796,
                    0.08926152095964483,
                    0.2778682186921974
                ],
                [
                    0.07654474042289149,
                    -0.14305064378188873,
                    -0.35169953852044733,
                    -0.11551811557509105,
                    0.06306109962177649,
                    -0.10352664988159901,
                    0.19876441503782083,
                    -0.0010274358571369898,
                    -0.011680710775572815,
                    -0.03701907860783808,
                    -0.25804182117585195,
                    0.06888807153902844,
                    0.16620445235128692,
                    0.23720219906267673,
                    0.01721378748705789,
                    -0.16174761541641683,
                    0.19182196943962512,
                    -0.18247531321881982,
                    0.1208511789837803,
                    0.0703847209217803,
                    -0.0556112851677314,
                    -0.2039030171460526,
                    0.05157153013010613,
                    0.016033002709933294,
                    0.001994824949176312,
                    0.17429407594136814,
                    0.28385909911201956,
                    -0.279790994339863,
                    0.1577092905095021,
                    0.025078831862425217,
                    -0.09624329065357679,
                    -0.06615657718613593,
                    -0.10357596276069074,
                    -0.06298871208866372,
                    -0.204656278982315,
                    0.08008152587069918,
                    0.12034242704964505,
                    0.09253365066153134,
                    -0.16648892978141128,
                    -0.17449707548903906,
                    -0.19226192381845475,
                    -0.143188987877024,
                    0.08694776307147865,
                    -0.07670534612918518,
                    0.2536403112425614,
                    -0.04671563748191172,
                    -0.07773352379922208,
                    0.08044222243809977,
                    -0.03402914877788527,
                    -0.1718819261805478
                ],
                [
                    -0.1575806222879276,
                    0.08136066916076026,
                    0.18990780117313455,
                    -0.019540202624662596,
                    -0.2172509321324324,
                    0.27256272281364496,
                    -0.008341045115036225,
                    -0.005484300938839954,
                    -0.13148965548503994,
                    0.12082613074352833,
                    0.05664207987818809,
                    -0.14785747357192203,
                    0.14783506934330862,
                    -0.09662637680819952,
                    -0.027776504492568188,
                    -0.08349458122829001,
                    0.1858450610631624,
                    0.06483141857240143,
                    -0.01158847237509591,
                    -0.015693716989804672,
                    0.3463597014970269,
                    -0.04479988205148751,
                    0.06636276808148957,
                    0.1584341761869882,
                    -0.0971677796245947,
                    -0.004326550741360035,
                    -0.04878561389614701,
                    -0.12747884838936682,
                    0.15798406424260358,
                    0.010521050953865626,
                    0.05138443090378316,
                    0.029489010562892083,
                    0.11094125202635499,
                    -0.036600448360693545,
                    -0.07135585016527242,
                    0.15521665666167644,
                    -0.03598224647503044,
                    -0.14508166043190046,
                    -0.04222575132726973,
                    0.05442709541252848,
                    0.07444346329723021,
                    0.04850911285780567,
                    0.14717983334611517,
                    -0.09403199721663623,
                    -0.08914228229313138,
                    0.09755063058489331,
                    0.16648789612933682,
                    -0.27708287836728124,
                    0.08210371369062021,
                    -0.07651208552809252
                ],
                [
                    -0.06436189222055427,
                    0.025575966885921356,
                    0.23259601609476513,
                    -0.1496791313228872,
                    -0.25205641945163326,
                    0.07127855995313473,
                    -0.10529049131120048,
                    0.10421875665243582,
                    0.05900770505981882,
                    -0.04840269333891744,
                    0.32204482500928766,
                    -0.509977690484677,
                    0.06898687230597136,
                    -0.1947016300459744,
                    -0.0552464710855208,
                    -0.11859928385256213,
                    -0.08896994279933787,
                    -0.11287304116372572,
                    0.08209652359716761,
                    0.06352105609057591,
                    -0.05283020392708169,
                    0.22550603583990866,
                    -0.0721261871845918,
                    -0.19461542141390611,
                    0.057003937421907146,
                    0.2403084110240851,
                    0.2698080278483948,
                    0.04580253450331628,
                    0.023286742590838704,
                    0.003651760665159389,
                    0.12261994057750976,
                    0.2806171831651122,
                    -0.10553726755026226,
                    -0.07484275723350296,
                    -0.012991943972326244,
                    0.06324574937806908,
                    0.011523150253201508,
                    -0.20010009222817118,
                    0.17438438702598258,
                    -0.0934931045597082,
                    0.25192296197122765,
                    0.4135836507649715,
                    0.11753433017134285,
                    0.11603933337430468,
                    0.08915244982609057,
                    -0.08202267891870137,
                    -0.028123549707734376,
                    -0.055376264036271154,
                    0.10723491954951442,
                    -0.09892558459523099
                ],
                [
                    0.30248982821815285,
                    0.056000371385067416,
                    0.0670985670883064,
                    -0.0050750743400238205,
                    0.24325560763492013,
                    0.17713517729500558,
                    0.10538846123022765,
                    0.14954218899293692,
                    -0.012853737025765557,
                    0.3469814037033757,
                    0.09791475438408133,
                    0.1820245880413914,
                    -0.24495850745598388,
                    0.12686630752517722,
                    -0.03217063744359825,
                    0.023675802827639463,
                    0.18869488078766605,
                    0.091869238509881,
                    0.06710216441048339,
                    -0.10533814236525144,
                    -0.06396271747657767,
                    -0.04087396134814694,
                    0.2239053944575425,
                    -0.006424386105643147,
                    0.2141974631584579,
                    -0.1967834852225546,
                    0.06923050851474147,
                    -0.05454182427043399,
                    0.11291188669333461,
                    0.1696249065940631,
                    -0.22554963526814328,
                    0.23625568067792477,
                    -0.19061823201774403,
                    0.06808851626828244,
                    0.09129813332132042,
                    -0.2350447864286444,
                    -0.14583736726858237,
                    0.4407334990781292,
                    -0.017197914869070165,
                    0.1543701519623559,
                    -0.21965716777103042,
                    -0.35420540672267764,
                    0.031404280280787025,
                    -0.3017378907823268,
                    0.09322963729935312,
                    0.04971729921024396,
                    -0.20029923472204045,
                    0.18103013994091172,
                    -0.13359132407537622,
                    0.016448085102420996
                ],
                [
                    -0.005770445007956111,
                    0.0285965276423415,
                    -0.019394150832013325,
                    0.03462376455398256,
                    0.11625037020944924,
                    0.09899646136114383,
                    0.28874775392192575,
                    0.05653879064336829,
                    0.25714014662190593,
                    0.1272258866213508,
                    0.08084956797817996,
                    0.16625753846510347,
                    0.03812923381450533,
                    0.09694979353319579,
                    0.15073128223154802,
                    0.2601334067460094,
                    -0.1594258498681066,
                    -0.01355227224669398,
                    0.0700323787616281,
                    0.04060006768182502,
                    -0.13755350606112543,
                    0.033471305444119276,
                    0.03679751970295844,
                    -0.04150197871816499,
                    0.1079025336887275,
                    -0.09265125203294312,
                    0.14004569242115972,
                    -0.051000500299978,
                    -0.2294673849825944,
                    -0.18698647346229263,
                    -0.12177223851748427,
                    0.2551238019090498,
                    0.03673196245952609,
                    -0.10253777216206139,
                    0.006154429945067349,
                    -0.1928640687756523,
                    -0.029930929189204043,
                    0.132296856369915,
                    -0.08914866699120838,
                    -0.1978456546004234,
                    -0.2741255206454566,
                    -0.41229257861316676,
                    -0.05842430830168748,
                    -0.034896039087189676,
                    0.21738198000063813,
                    -0.1593102703534764,
                    0.3018911122040336,
                    0.1584633137407984,
                    -0.1904495103396026,
                    -0.16860653634248302
                ],
                [
                    0.14896534937434885,
                    0.03521696588971365,
                    -0.38821605632326817,
                    0.01074889686444483,
                    0.1171074012871807,
                    0.133743871614999,
                    0.19132470941640362,
                    0.16261767853278883,
                    0.33286357611543793,
                    0.08834825637945296,
                    0.0264316292689144,
                    0.3269117848363094,
                    0.1288353208779359,
                    0.12260754248733213,
                    0.16225441836764493,
                    -0.0012134359466717997,
                    0.12918581234900559,
                    0.11856409904984706,
                    -0.08342629723419456,
                    -0.11313319475993847,
                    -0.27761331549487966,
                    -0.13879448110118112,
                    0.10901544108298054,
                    0.0328739726915132,
                    0.2733779476831909,
                    -0.17428047695025206,
                    0.20596157386607777,
                    -0.3194581482073818,
                    -0.23632624062278326,
                    0.35124340392779985,
                    -0.551317053179715,
                    0.2248558403519664,
                    -0.1587863600469735,
                    0.2855642114789981,
                    -0.10937535282840259,
                    -0.46419299891987753,
                    -0.06741272152172074,
                    0.266081290227296,
                    -0.07972302663867238,
                    0.2002920061010069,
                    -0.18630852369477702,
                    -0.2682883492888887,
                    0.025652221840088658,
                    -0.16602783175086105,
                    0.10472428613143968,
                    0.07649598390542618,
                    -0.15272439920790334,
                    0.25584812051923017,
                    0.0885453669790842,
                    -0.022121866897853042
                ],
                [
                    -0.03025120456709574,
                    0.02483880412511528,
                    0.10651047475978269,
                    0.08409647813137337,
                    -0.07264949526869464,
                    -0.1559013993996268,
                    0.10967269913415428,
                    -0.06192629222415858,
                    0.10090611446730832,
                    -0.2273299677203114,
                    0.0019061798334267003,
                    0.2339521979477739,
                    0.16301192908518347,
                    -0.20752000755860125,
                    0.12563503480276442,
                    -0.1559547405496283,
                    -0.12260539770152944,
                    0.15381534095945876,
                    0.17755192593416677,
                    0.15431406108840007,
                    0.16960596054043925,
                    -0.1642503827948613,
                    -0.0951124765922597,
                    -0.1549750550172148,
                    0.149834326776276,
                    -0.13570768830722138,
                    0.024193643545693845,
                    0.1912588358664106,
                    -0.0915945389382885,
                    0.045120388043160695,
                    0.18040877436723582,
                    0.05963115180799236,
                    0.014971026434870496,
                    -0.0611548571079119,
                    -0.2865554431216817,
                    0.08652168474180034,
                    -0.08509493011329661,
                    0.05821539224745387,
                    -0.18320458805911566,
                    -0.15260947871890893,
                    -0.01569072726180343,
                    -0.3152103401405995,
                    -0.1882192939166106,
                    -0.2700055244581776,
                    0.16870190201586563,
                    0.02420490578750995,
                    0.2260663037972611,
                    0.2076565162405052,
                    -0.036335138757349776,
                    0.07610618450493789
                ],
                [
                    0.18883041175355345,
                    -0.04207070520087348,
                    -0.1236420811105615,
                    0.10692330753372128,
                    0.116671536013462,
                    0.08908619915139893,
                    0.19607932617721305,
                    -0.07372048534025205,
                    0.14412238312289602,
                    0.21114783031799803,
                    0.09400758733141763,
                    0.28285150471598397,
                    -0.1952604345493682,
                    -0.2775975228086717,
                    -0.08126855921312827,
                    0.014396786754683418,
                    0.11057990336332782,
                    -0.10727520690943555,
                    -0.10655009982499429,
                    0.13626685006308123,
                    0.07861837237409709,
                    -0.039983645898800255,
                    0.020321282047259012,
                    -0.2197400221852984,
                    -0.21485926086129278,
                    -0.33769559137547045,
                    -0.0762556597803726,
                    0.0534372379638694,
                    -0.4357645045921371,
                    0.09798837239054684,
                    0.009139648195130355,
                    -0.1312630943755197,
                    -0.09081837566116852,
                    -0.027007731992055306,
                    -0.04166926088977442,
                    -0.1621804077835052,
                    0.0014396785717711766,
                    0.199556029948955,
                    -0.15378872601981597,
                    0.13506958234759173,
                    -0.1159489328381389,
                    -0.12116277716901334,
                    -0.0809788176130724,
                    -0.15181597279025608,
                    0.02486039632858515,
                    -0.3882306397158219,
                    0.06892067289577886,
                    -0.14358679209989003,
                    0.1745937288339244,
                    -0.10736511413061212
                ],
                [
                    -0.24692435847362415,
                    -0.05527727686679389,
                    -0.006359094465195342,
                    -0.010922535615871691,
                    0.11855360591707126,
                    0.028318133807221178,
                    0.07693099096981654,
                    0.12815591025812456,
                    -0.042595443653557365,
                    -0.17406677311194207,
                    0.010382275496791245,
                    -0.024278952535613248,
                    -0.12035238231533288,
                    0.08496290501562946,
                    -0.17283782995030464,
                    -0.4171275053097608,
                    -0.2123241923903836,
                    0.1193162538747284,
                    0.046444939884608405,
                    -0.24295995756647382,
                    -0.013625026508724674,
                    0.2609535947481631,
