[
    {
        "layer": "Affine",
        "weights": [
            [
                0.08365638881690919,
                -0.11437370872384632,
                0.2178993498896387,
                0.13270538040967209,
                0.20786157894478594,
                -0.02741015405624628,
                0.15065737612119304,
                -0.025542216614755853,
                0.12437029848330736,
                0.22705049247333037,
                0.06531177899585551,
                0.10148470199830173,
                0.031396614590043975,
                -0.08969829465611248,
                0.1833874734152667,
                -0.14259404039067772,
                -0.02345144776563462,
                0.1688441327067608,
                0.10405818575326439,
                0.21632711556264775,
                -0.15702887218518785,
                -0.03969100099040091,
                -0.10295867862060057,
                0.297269687386114,
                0.09777790333025557,
                -0.28261190837223826,
                0.06404450329092477,
                0.06712684648680567,
                -0.0001647233988494851,
                -0.0013478434350106731,
                0.030970883439881424,
                -0.1314118365467067,
                -0.12282823726889593,
                0.15478248472479952,
                0.4772977576270037,
                0.3484665029129388,
                -0.1414523493469936,
                0.07227960730698046,
                0.1885614350847041,
                -0.31490047420010575,
                -0.028679012895896253,
                0.24499192331366548,
                0.07436016967914567,
                -0.18342092055961254,
                -0.15792367430519247,
                0.01019355534910023,
                0.09939026303077392,
                0.015435593746776414,
                0.11727467591526074,
                0.2471066650894733
            ],
            [
                0.11177368081542413,
                -0.04148770377491274,
                -0.07151911824461847,
                0.2675148602688031,
                0.09444499556932984,
                -0.2617346922388771,
                0.044545659032847434,
                -0.07837857803871298,
                -0.21432319474862727,
                0.2567018717601961,
                0.2628163126276703,
                0.15899996152390214,
                0.09684373001611274,
                0.1739197873705009,
                -0.22689775043163607,
                0.18000584653686189,
                -0.09334029776418071,
                0.4696502883963126,
                0.14695786719857948,
                0.06606124132633538,
                -0.012034031009511092,
                0.07813131549247798,
                -0.30837137242200907,
                0.12041871658026149,
                0.10789809405407433,
                0.18402773741887288,
                -0.2475984098489697,
                -0.09198565232442653,
                0.15394678720461288,
                -0.1370959625786899,
                -0.16964854933202364,
                -0.08120005090223122,
                0.0347683257061339,
                -0.21113437753512304,
                0.03683433702089206,
                -0.10848959227394832,
                0.1813268940291812,
                0.00032252454240953453,
                -0.11649994292302154,
                -0.11058516397174362,
                -0.04274166970133975,
                -0.33698870006981774,
                -0.30896082501379535,
                0.10655250445272543,
                -0.02427486395034429,
                -0.11818397464921843,
                -0.11463690778775475,
                0.13716568946436777,
                -0.07667881980935617,
                0.12681249173381975
            ],
            [
                0.14922295845735606,
                0.011482632599926292,
                -0.4292146011744505,
                -0.30122203552601823,
                0.3367333349927626,
                0.07790935030324787,
                -0.24469029528400058,
                -0.10645586105430344,
                -0.3464715779093288,
                -0.3451823790841091,
                -0.1915303432467494,
                -0.08955464409281479,
                -0.09109392274026235,
                0.17088220400477977,
                0.038476156142931574,
                0.27559722112664836,
                0.20531189425489133,
                0.11831732782188005,
                -0.09323581984903626,
                -0.12303245833669674,
                -0.04541496806349522,
                0.16352969336315684,
                0.04126565022142648,
                0.008005823967198934,
                0.1475791870735618,
                -0.2212023431977482,
                0.28104857223355734,
                -0.2787758380208603,
                0.1380710427513815,
                -0.10503117651111311,
                -0.13460265526914816,
                0.19378767696995777,
                -0.30199933868522466,
                0.04225526517278457,
                0.0791693642860043,
                -0.13181057667562107,
                -0.09755832641584672,
                -0.27171176891789006,
                -0.3681155953665414,
                0.2758298416670764,
                -0.16176056963051053,
                0.00487280396882848,
                -0.04065549483996659,
                0.08585026424901525,
                -0.10624235483862082,
                0.17601092586397454,
                -0.16729212685066056,
                -0.03561286933851926,
                -0.061482234810221095,
                0.027429229701830114
            ],
            [
                -0.4299357565204848,
                0.12507592226760955,
                -0.053766741742118526,
                -0.23597546969001137,
                0.21630012371082605,
                0.4453170589400193,
                -0.17069593130278335,
                0.3452986907832935,
                -0.033409270659803564,
                -0.10894652778417573,
                0.20923836261371268,
                0.15534088916251862,
                -0.11394699818479279,
                0.31539543329528186,
                0.06929223191968135,
                0.024330036968170918,
                0.05523942087433724,
                0.3049182453210049,
                0.1786201713289772,
                0.09070767018314391,
                -0.23496037295255362,
                -0.08506705600372326,
                -0.20819340184386886,
                -0.17489581724060488,
                -0.2461576476706432,
                -0.13924005048683713,
                0.05941973718312148,
                -0.08333402728173606,
                -0.2714738813263075,
                0.36782254802259584,
                -0.014975281106073724,
                0.04560068903736549,
                -0.17122343247964844,
                0.3223618813911961,
                -0.011725819660526788,
                0.13900466200386496,
                -0.04651789799023036,
                0.16936636169153316,
                -0.27401104000880305,
                0.09639960013710852,
                -0.07782990269446464,
                -0.21287010541048215,
                0.0869412860392798,
                0.12733824168857452,
                -0.26901452315109464,
                0.006930542773066155,
                -0.18462223459516258,
                0.15982017987109237,
                0.2913263060410652,
                -0.08257925475969596
            ],
            [
                -0.1320308635173175,
                0.17143525818584116,
                -0.14338661540891423,
                0.24201960216901977,
                -0.07635296319308511,
                -0.26248551106177975,
                -0.04556680155657679,
                0.08626656459830093,
                0.16922192061592037,
                -0.004355470385862852,
                0.48331318160123904,
                0.054449173030742065,
                -0.29360197766015805,
                -0.01943491476874251,
                -0.029956831670712038,
                0.05465148500139257,
                -0.018917494882600548,
                0.17831190863578608,
                -0.09484785809371715,
                -0.11877968246487043,
                0.0016361733512374875,
                -0.25110925748644214,
                0.1730105601211252,
                -0.24042724393297568,
                0.1503505423208945,
                -0.1926320043506994,
                -0.015125763051971216,
                0.46684829032789527,
                0.3715526783733843,
                -0.027591292363474962,
                0.055256793510049466,
                0.09418430401415687,
                0.20044121868265619,
                0.19784181905475628,
                -0.15712251140081548,
                -0.18647380281293033,
                -0.3620638527324465,
                -0.08021475056642216,
                0.32405135595301193,
                0.2804234753914205,
                -0.19500260095861027,
                -0.057966420472744716,
                0.29895939900843105,
                -0.1868686023931429,
                -0.07839115684487848,
                0.08263574285991765,
                0.05239338021449512,
                -0.13645351707246425,
                -0.15650144616626643,
                -0.07463123562508699
            ],
            [
                -0.0715043079020475,
                -0.16115227402937773,
                -0.1623415357085449,
                -0.1219967665199137,
                0.08847731988501233,
                -0.3210954000617086,
                0.09337693259145613,
                0.0483093551166215,
                0.08817057048255851,
                0.1564323626444166,
                0.42345247258745505,
                0.09994118732426846,
                -0.16795338930992568,
                0.27084320140190193,
                -0.030043534993069766,
                0.02647804083542732,
                0.15863960213071066,
                0.06763665955363052,
                0.26716280601571485,
                -0.16354751572941256,
                -0.1431501435549922,
                0.2860692708358631,
                -0.12853312465798863,
                -0.16056048011648252,
                -0.26340222847579575,
                -0.013659006922977059,
                -0.46628910071162527,
                0.3197653949997987,
                -0.09450770909485254,
                0.10328906097102065,
                0.06450818462921763,
                0.15413234846623527,
                -0.026141815872434953,
                -0.10140725278687106,
                -0.08657539380167127,
                0.04486125554363652,
                -0.1197990067551218,
                -0.049571505258425366,
                -0.03197410520676771,
                0.12642564823909602,
                0.024538867432411533,
                0.0680612359368121,
                0.19967967258905597,
                -0.18059313919540676,
                -0.22440878889391677,
                -0.23774529604950834,
                0.18500857051625644,
                -0.09140774421188576,
                0.08773014344410295,
                -0.30661646799581227
            ],
            [
                0.25759654891487244,
                0.4439977723270842,
                0.2588861063830713,
                -0.17917616025076585,
                0.022266009639364703,
                0.25162903934328157,
                0.2448498343914073,
                0.0075683232794734505,
                0.12515509510622463,
                0.19593911839447245,
                0.2883772708312118,
                0.17733976390932413,
                -0.1699366315614749,
                -0.14415442339247767,
                0.4439271309982648,
                -0.028460316293234277,
                -0.021607860603625607,
                -0.21200543119788418,
                -0.007099561690336298,
                0.18996817579954145,
                -0.09795684950408887,
                0.28793483167897915,
                0.3742741200008481,
                -0.03040769972311257,
                -0.0907920636874412,
                -0.021840652957846405,
                -0.24964554927931953,
                -0.17313468946089075,
                0.08513783163844885,
                0.20441865700463357,
                0.10047816002908272,
                -0.03945217552405062,
                -0.023775584505114564,
                -0.13319975317786562,
                -0.2556841465124538,
                0.1297072844685461,
                -0.042421345451485556,
                -0.08309549808442417,
                0.21438177599889408,
                0.06673878722609486,
                0.12335174185103488,
                0.23985965738056422,
                -0.170601977472156,
                -0.19195785058057205,
                0.07563925081629128,
                0.04062820703039198,
                -0.35831058508743746,
                0.1625883374755822,
                0.21506944867884942,
                0.07363057896755565
            ],
            [
                -0.006942754832972244,
                0.12881584295315834,
                -0.10475170430745076,
                -0.11795254828933267,
                0.23585548955117439,
                0.2690454194006988,
                0.39583993195638684,
                0.27686263615972756,
                0.006360755479675889,
                0.24852770199299556,
                0.35569332565024087,
                0.0841277031068727,
                0.13526474121524015,
                0.04235619912688549,
                -0.366123715605387,
                0.09290904653157993,
                0.14696680469956344,
                -0.29931961990612355,
                -0.14810634642371354,
                -0.02730884057330056,
                -0.07044176602342771,
                -0.11719389645491644,
                -0.05690730590260533,
                -0.20297197393016986,
                0.018612359998886198,
                -0.024134097644494937,
                -0.14945704502176618,
                -0.0013951141374465626,
                0.006261861952581147,
                0.12607365581392296,
                -0.059538599364373314,
                -0.10295627825552614,
                -0.011353764227975974,
                0.22674192480002275,
                -0.04492045524439465,
                0.14724363913260385,
                -0.09528366799625647,
                -0.08895383701000645,
                -0.01524869213587429,
                -0.12108814163045893,
                -0.24774500752400758,
                -0.12391873607664029,
                -0.08114213054766498,
                -0.1996374828281764,
                -0.2785910616456888,
                -0.29262988333878537,
                -0.11617941406208038,
                -0.0015731617988099906,
                0.09636515071498458,
                -0.3378639009428685
            ],
            [
                0.014863654141971522,
                -0.23520603008483876,
                -0.31877727609471546,
                -0.09227059226017027,
                -0.038004479213545994,
                0.29917728307915537,
                0.01615775606534112,
                -0.24575637446929266,
                -0.14468461523479662,
                0.24792710649312194,
                -0.09089323636852971,
                0.11333029599706548,
                0.10511058793250821,
                0.045179574945993804,
                0.25178588254898954,
                0.02188552355543419,
                0.08644811214014937,
                0.08062161210556357,
                -0.16690739599819227,
                0.19718010115850235,
                -0.4159174821040127,
                0.3342752047853952,
                0.1028907621589154,
                0.10210599968212862,
                -0.019833302333102418,
                0.356900060548666,
                -0.018156394876213698,
                0.20331489235513314,
                -0.0036345878865263865,
                0.21333746682741228,
                -0.22229849863478,
                -0.1813748518224581,
                -0.10950257849672691,
                0.25117948629015,
                -0.060382012002745566,
                -0.021015822985505916,
                -0.0912482580571092,
                0.08728418095181668,
                -0.03208186606787927,
                0.3485322880498168,
                -0.0745360433553953,
                0.06010085932326727,
                -0.035000779232536944,
                0.36085547513691185,
                -0.2766844006003317,
                0.2656248608363264,
                0.033038771272170024,
                0.05943838395698646,
                0.11537303689611157,
                0.041699622937136
            ],
            [
                -0.45128078875902167,
                0.02751443929556315,
                0.26247688863650875,
                -0.0561883391991178,
                0.48372181257148816,
                0.09864458510900896,
                0.05219187491440821,
                0.36915130216047043,
                0.017746268785188892,
                -0.028677839867959964,
                0.22575706906091583,
                0.15829152805276317,
                -0.15760874548572423,
                -0.0009119372766688309,
                -0.1160975553761614,
                0.05063367790054168,
                -0.21869170253351217,
                0.23254531733103798,
                -0.11543048183277824,
                0.2187095118282288,
                0.12032342191692103,
                0.12259144530499157,
                -0.011732686411677509,
                -0.16795947701939654,
                -0.1979529573394971,
                -0.00197186893059667,
                -0.03345836887113571,
                -0.31623640051339036,
                -0.31444446501762185,
                0.278875469803256,
                -0.05594619575161267,
                -0.037650384343815256,
                0.10042343985418554,
                -0.2524864569108461,
                -0.10383066285807534,
                0.2715587981078013,
                0.14565995498756734,
                -0.1771708380548809,
                -0.006707564397685311,
                0.0028214447114883303,
                -0.3092317864964822,
                0.017202008565993514,
                0.07487408153385056,
                -0.24501637417097624,
                -0.08636165568162345,
                -0.05785313766202606,
                -0.04231536634720008,
                0.0673027232152382,
                0.14953986811203326,
                0.11031770191807276
            ],
            [
                -0.34537118567261227,
                -0.2556819576284928,
                0.1526033412008452,
                0.2606640491412945,
                -0.22186522558833513,
                -0.23002784021729322,
                0.02120139052018809,
                -0.3046296024522403,
                -0.045352830966257675,
                -0.4083161336804117,
                -0.16456252878174818,
                0.22632161373925158,
                -0.11905038354063008,
                0.061069847267011264,
                -0.31388069243938616,
                -0.2541717899719482,
                0.055752049009970654,
                0.11176382530778775,
                -0.2683463123753636,
                -0.28150665212186365,
                -0.15144145531538997,
                0.009200607202969698,
                0.13094780674026799,
                0.05986244040684439,
                0.29673065803495285,
                -0.08554851612571919,
                -0.08226832526123397,
                0.2175664606014414,
                0.11406654887946326,
                0.22563184498246766,
                -0.14238929345839485,
                -0.006609723795398873,
                -0.07867750440019945,
                0.3315986197305153,
                0.08737710371960979,
                -0.28737589864647123,
                0.16194550288805493,
                -0.28809118974929676,
                0.12421045484489499,
                -0.08315830478237445,
                -0.13883288099600657,
                -0.07930306089868752,
                0.04825738293451891,
                -0.17404050428050621,
                0.20760982949613274,
                0.07027028468067265,
                0.01579295439646023,
                -0.07943146483715097,
                -0.05658760503038011,
                -0.009303822821177149
            ],
            [
                -0.07559523355275555,
                0.08480482430686132,
                0.08446269454404601,
                -0.2928102414540267,
                0.11663889515533724,
                0.2208873258938886,
                -0.30371922580001404,
                -0.12714399877007437,
                -0.09252869860989381,
                0.11358188974099485,
                -0.15032274096497822,
                -0.03394743850699005,
                -0.0035931469129643883,
                0.40909867958962626,
                -0.06745172441613283,
                0.2287396223298412,
                0.17992406660721746,
                -0.07799941174686925,
                -0.16177519251886383,
                0.08678378019804486,
                0.09362422228747676,
                -0.1804250715451024,
                -0.2254792214633067,
                0.21090811492826453,
                -0.1315707229378945,
                -0.26058936181082665,
                -0.16082259242377211,
                -0.14549473268320778,
                0.047619153806266794,
                -0.023216835270717204,
                0.08914041333291886,
                0.24333690249393805,
                -0.3631574096489313,
                -0.008626670630454901,
                -0.297830406570179,
                0.31445060583174667,
                -0.22471987969674342,
                -0.12030091886303365,
                0.11677642303544084,
                0.13055922190177582,
                -0.28232687733001716,
                -0.06380555615619725,
                -0.07881542902876393,
                -0.15490168029121787,
                0.17768777501068156,
                0.127156344406026,
                -0.10706583196459558,
                0.24463742725418575,
                -0.1467940728606487,
                0.15745940498471828
            ],
            [
                0.020468623723358483,
                -0.021606911293780628,
                0.07190105698334803,
                0.05755667804246196,
                -0.03122477702679476,
                -0.23508293252277693,
                -0.04375511879761563,
                0.21262827747612348,
                0.29716868125553264,
                -0.23044103215579162,
                -0.5436842576288982,
                -0.05647888149878813,
                -0.07271479882097322,
                0.002220824907205246,
                0.018183036178392738,
                0.04302509050714088,
                -0.20630277696033153,
                0.2193027913693979,
                0.09753388237215792,
                -0.16471471001459406,
                -0.34682997376671904,
                -0.10676801274972471,
                -0.06834641552309502,
                -0.002536227399348683,
                -0.46950531779389715,
                -0.04109211012507178,
                0.04122369600534619,
                0.13690154073537242,
                -0.11435345047354348,
                0.06303643086126974,
                0.38395407712377,
                -0.33497249132551854,
                0.3086470508129505,
                -0.0007616274809709795,
                -0.08631048198021561,
                -0.018436534692526308,
                -0.008254505648696293,
                -0.20943250724898968,
                0.11582975733788545,
                0.18443158559748998,
                -0.04127419676745496,
                0.3658368703502638,
                0.05324343266840776,
                0.0392623420884985,
                0.25503467192485746,
                -0.1887521566454242,
                0.0625523500133249,
                -0.16163296451493844,
                0.08202168029814272,
                -0.011127852845905128
            ],
            [
                -0.1285608809653129,
                0.2666652917700924,
                0.14143179713521614,
                0.09687628300908865,
                0.34289265755457576,
                0.1495861131282003,
                -0.006207642896642527,
                -0.000681834093001989,
                0.30912003735191435,
                -0.0820000454952322,
                0.09504684487938551,
                -0.5026133146327697,
                0.2488818511931802,
                0.058583189498325874,
                0.06597378716408803,
                0.328514842694525,
                0.12358357312110341,
                -0.10559462903832388,
                0.045479526600341665,
                0.0694613602950372,
                0.18149759482301822,
                0.15742783275271716,
                0.05304225891091392,
                0.39644901082887646,
                0.056640374244717184,
                0.008181461465968798,
                0.0089316982319979,
                -0.2823209902177598,
                -0.13221509711207702,
                -0.022466662151788164,
                -0.38678308020974733,
                0.161635623184477,
                0.16075107906047464,
                -0.11094193648774638,
                -0.027549924958023823,
                -0.1940604223605695,
                -0.19930358707130263,
                -0.015507696599916092,
                -0.07409521859958175,
                -0.3079736247893112,
                -0.03332412394709315,
                0.11064230585471035,
                0.012746081836854332,
                0.014909764381271558,
                -0.022560398354176635,
                -0.1838560825697344,
                -0.05489785844020471,
                0.06481304970605915,
                -0.04554350597410433,
                -0.2576008306991226
            ],
            [
                -0.13277373032706424,
                0.365831275614184,
                0.12156614711855862,
                0.1870867775700996,
                0.458856206532941,
                0.1065999546561759,
                0.1413705185485287,
                -0.0131405090781515,
                -0.1762687793470828,
                -0.13296770377598,
                0.06058138211533743,
                -0.2138023659576508,
                -0.09580340257222289,
                0.13641453418243543,
                -0.06744886617012245,
                0.12761502108143255,
                0.12753761602364896,
                0.0877159236024112,
                -0.2743905613163,
                -0.11077187173338249,
                0.14408738092802711,
                -0.3305261115740917,
                0.11122467906925855,
                -0.283486956029433,
                -0.04357087905949765,
                -0.10063661237070573,
                0.4276059199862733,
                -0.1408722882076772,
                0.11771571422428194,
                -0.16331378085901618,
                -0.12100581827152494,
                -0.3950310738440326,
                0.3181385536892491,
                -0.09842116462256577,
                -0.20704164982410803,
                0.09214343821899836,
                -0.21932431377831102,
                -0.42095150431644357,
                0.007148967715773391,
                0.09535665880770856,
                0.16526370329139703,
                -0.24118252469824109,
                -0.09212085204931923,
                -0.5255552815431562,
                0.1777880103471898,
                0.018688142329286853,
                0.21646324652890667,
                0.36953812373559586,
                0.10536231582272022,
                -0.1699391340556301
            ],
            [
                0.29967058825675574,
                0.10204588100641228,
                -0.4184153700355367,
                -0.12896308610895016,
                -0.016956286650560363,
                0.1634405195389272,
                0.0008918312447131535,
                0.33041915568197067,
                0.38962392863727724,
                -0.05418594510703365,
                -0.04293274204065901,
                -0.18374352831592747,
                0.1298590977200514,
                0.05901440721120261,
                -0.2673222708778185,
                0.031294000809115666,
                0.08606575652205113,
                0.31208086449262135,
                0.14432994835941768,
                -0.07328334943104485,
                0.13777211056502933,
                0.07309667405118146,
                -0.2211804531211828,
                0.24088122769173007,
                0.10384891199529178,
                0.05970913837933753,
                0.1817936980657789,
                -0.2070997883297454,
                -0.33435767682781287,
                0.06643243074264853,
                -0.13717644335279044,
                0.15981542548525507,
                -0.19039488216921777,
                0.23948112956209053,
                0.1915414825208484,
                -0.2769991029583282,
                -0.18594660259366733,
                0.2137180378319612,
                0.2721831417169177,
                -0.28249991015832837,
                0.19733995052868036,
                -0.5041235919336717,
                0.031678981951228015,
                -0.03856293067490975,
                -0.16682345554968914,
                -0.004932019175973799,
                0.11618547803531151,
                0.10524390696548401,
                0.24865712710328938,
                0.01408990863295188
            ],
            [
                -0.32684358621986337,
                -0.1360686386091756,
                -0.11559790247454009,
                0.18366935218407315,
                0.2930818878269366,
                -0.16219935015062295,
                0.12545028898691005,
                0.06143042888952376,
                -0.045226290851642134,
                0.30403453168724165,
                0.1132827983079641,
                -0.1295550402097533,
                0.2330155897741315,
                -0.2780406784296551,
                0.2528183840069056,
                0.004113021909100926,
                0.3416003458798887,
                0.23562303899421325,
                0.23238179905504036,
                -0.18705383655836771,
                0.041054468930330545,
                -0.37308172175209375,
                0.014702343377368332,
                0.037309168648412404,
                -0.20461469928554135,
                -0.04277768822636605,
                -0.24542061563688453,
                -0.11695221038132465,
                -0.017574741271678386,
                -0.18213415221681378,
                -0.30786427715594833,
                -0.04056691797924696,
                -0.1735480207008971,
                0.05209914170705731,
                0.016219861833827755,
                -0.018771113011748233,
                0.15623005436516005,
                -0.1983415849036184,
                -0.303399119849714,
                -0.07898453703101327,
                -0.2888324834915657,
                -0.08342449235076871,
                0.12217352813262505,
                -0.09065008860428724,
                -0.3710823260752436,
                0.10902646377821858,
                0.06306316359731483,
                0.08200853705786595,
                0.2176389814628151,
                -0.05469069494155268
            ],
            [
                -0.1764034339446707,
                0.1392141906161583,
                -0.16342047805311058,
                0.1477982627494159,
                0.3699660921634724,
                0.08586419112637236,
                0.08375836041378103,
                -0.14081333947434926,
                0.3806644500045368,
                0.16057457764841634,
                -0.27884032566974637,
                0.26936842445094095,
                -0.036376351832565865,
                0.0629948315042468,
                0.08635387245712416,
                -0.042921330584697145,
                0.175747790756985,
                -0.02323970671189664,
                0.06603390553256552,
                0.222663941504886,
                0.13840064263910215,
                0.34345803933752767,
                0.06233128310497015,
                -0.02752318048150637,
                0.4262760117573165,
                -0.20319252196518287,
                0.21731682332198557,
                -0.06235439458527604,
                0.2611739683811858,
                -0.02628498455362047,
                0.25181081502782326,
                0.1113724139102226,
                -0.2631635529561856,
                -0.10819230332868193,
                -0.04173465036059683,
                0.0831056329544979,
                -0.16753925839323,
                0.05592630210412365,
                -0.0759149056970175,
                -0.12600783971868362,
                0.35530082076605257,
                -0.003130873319728971,
                -0.03377510687382596,
                -0.053376671037213386,
                -0.04488667639849194,
                0.07115419864346259,
                -0.10264100401095679,
                0.01234204053943598,
                0.1070862784828017,
                0.4036576034379577
            ],
            [
                -0.25930406698892833,
                -0.054015006653949565,
                0.05975318090273046,
                -0.10964920179894792,
                0.10109813451138362,
                0.015275385399593437,
                0.07762713736623242,
                -0.0553463535503156,
                0.06964960256454218,
                -0.3114895375181034,
                0.0857992535979257,
                0.16764137577432628,
                -0.09724347395669557,
                -0.011829542040457875,
                -0.06883806847271212,
                0.08229181969584613,
                -0.18013595294291943,
                -0.09019236830283239,
                0.35568441878827883,
                0.12763008159936037,
                -0.25060850751594704,
                -0.030491505979750193,
                0.11151759981551554,
                0.05960606335154566,
                -0.16830134074806963,
                -0.3220085269722406,
                -0.20124075629233282,
                0.1536218806209591,
                0.15820061447769843,
                0.11976231185746604,
                0.2885788246367351,
                0.1453810687435186,
                0.1377075769525219,
                0.07703282943119473,
                -0.1505251883396324,
                0.11611982167085566,
                -0.019426220091425066,
                -0.005664052923230273,
                -0.08512752509796974,
                -0.05143556265886743,
                -0.2279200020484483,
                0.1827245655249579,
                0.10067630520488648,
                -0.1383686088608961,
                -0.027052245436263035,
                -0.06178492307992934,
                0.10742556957852903,
                0.07300142172032822,
                0.2945462813907193,
                0.46844484327875435
            ],
            [
                -0.17741913966922065,
                0.2588831922370142,
                -0.023097783418629073,
                -0.10551131006653325,
                -0.02016989003001716,
                -0.08506101040083033,
                0.16713866664849983,
                -0.09695342028919067,
                -0.11780219156265195,
                0.12684678003218422,
                -0.2654604690408831,
                -0.015699707157846732,
                0.08706326538102978,
                -0.26369321125369327,
                0.1694044967892478,
                -0.009123920715415151,
                0.03276350686452343,
                0.15653184233858333,
                -0.20833650014382848,
                0.035158189203629904,
                0.12644742461604205,
                0.03188130741232264,
                -0.07143718440654707,
                -0.041669278521742466,
                0.1952094525578439,
                0.16950522362077006,
                0.21483495559358012,
                -0.1773363620866128,
                0.30925109248166527,
                0.0808457250514317,
                -0.06303155009248192,
                -0.1601726946519808,
                -0.21156333607519137,
                0.07368032411250788,
                0.0803464979169908,
                -0.026849641969199804,
                0.1833563051936841,
                0.28985139506608754,
                -0.2770107863869963,
                0.13453895880786,
                -0.20773291357359303,
                -0.21916805156841973,
                -0.05580372367690999,
                -0.0434219264598146,
                -0.1553930184794023,
                -0.48412492576433563,
                -0.12853738774111867,
                -0.22696729315852854,
                -0.04049645108266827,
                -0.015114573640707932
            ],
            [
                0.2578970448740634,
                -0.5027587830698026,
                0.06249287417606376,
                0.054441752230788044,
                -0.04041939315999598,
                -0.11182263850395169,
                0.1588647638706269,
                0.11652261185984082,
                -0.1472489365850852,
                -0.10608899339910693,
                0.11559295980995163,
                0.09418709608844583,
                0.10072706172079891,
                0.172614091368316,
                0.057261968314294406,
                0.34700939093641103,
                0.161213996080685,
                0.08330521849562596,
                0.08822368223324804,
                0.1723163056843323,
                0.15047404588473434,
                0.13101044537597584,
                -0.03296631978336294,
                -0.3498617997028145,
                -0.13514970716594046,
                -0.25000208881808345,
                0.171112384982413,
                -0.04292294317491984,
                0.15678041907629517,
                -0.11556085093982554,
                -0.013774088625227136,
                0.023735824648691086,
                0.04648974545188474,
                -0.3388965609681084,
                -0.14233372380774134,
                -0.31238981811514993,
                0.15355348658942952,
                -0.052171743823722826,
                0.3901911109986065,
                -0.02967411673919368,
                -0.05433740800832013,
                -0.0927657677345211,
                0.14336611167862312,
                -0.34399301849402586,
                -0.10434663616732606,
                -0.2717602459406074,
                0.19121984773640158,
                -0.21531445448355988,
                0.010690458300676196,
                -0.14355470098374387
            ],
            [
                0.1775432161876176,
                -0.04238648328783527,
                0.15536990374879625,
                0.21455205433585176,
                0.1554974543999474,
                -0.14377946088754492,
                0.4379670561161149,
                -0.01649145353104227,
                -0.0521998458346253,
                -0.1108475355801388,
                0.1082330790386304,
                -0.006855891790333208,
                0.008739367391001944,
                0.007129094933424438,
                0.02160105045236378,
                0.10998245678872472,
                0.1737396590278479,
                0.14428848216632198,
                0.1086874681289767,
                0.16038238423060017,
                0.4366562748006442,
                -0.0839416280826491,
                0.033488630633742626,
                0.15798855173323242,
                0.18430634875368243,
                -0.2765878485553543,
                -0.06048242682196243,
                0.29688412839733036,
                -0.05738807262193207,
                0.2136689434379335,
                -0.004358247093027277,
                0.3739101304650929,
                0.13457116754489548,
                0.3032634560563292,
                0.18825822011316418,
                -0.03342191181914918,
                0.17429680716034285,
                -0.1346816083558206,
                -0.22846691903960945,
                -0.14805551682722967,
                0.03844795803066029,
                -0.20802088125024554,
                0.2207022482644189,
                -0.017996857789714174,
                0.10719884145698325,
                -0.09954043940479172,
                -0.007113602171292226,
                0.30638070404327744,
                -0.15801308785475146,
                0.02855608654302436
            ],
            [
                -0.13069189829842623,
                0.05603154028132528,
                -0.015092269474805967,
                -0.13949583042933503,
                0.2725318129757088,
                -0.17717492620400463,
                -0.16628854448215746,
                -0.019160280504129813,
                0.080304432267072,
                0.06026500868407082,
                0.03327376640509224,
                -0.1992298126094917,
                0.10353872022433866,
                0.24545884779484545,
                0.08878308122883899,
                0.23885133408657677,
                -0.0786286251117713,
                -0.050352468553228544,
                0.01744626133018345,
                -0.1562001063149588,
                0.1270255609126721,
                0.11309062325983586,
                -0.5045094014843846,
                -0.10648546191699866,
                -0.05158356749010178,
                0.022181834724517888,
                -0.03205982172628287,
                0.27283371002285123,
                -0.009975657474357885,
                -0.07280070669512925,
                0.03606904876254614,
                -0.2848193478823506,
                -0.008697124183997353,
                -0.08657873935806651,
                -0.3009382921161349,
                -0.1769803271692197,
                0.022911830134482437,
                0.23729840306392277,
                0.02756998983685574,
                -0.0035136867060229816,
                0.07957630703313906,
                -0.1500626573500524,
                0.10651532651189288,
                0.21146893974813558,
                -0.00819585722837969,
                0.15127034175720153,
                0.057175857319467255,
                -0.11475451671438394,
                -0.3559090929269252,
                0.031918625528725486
            ],
            [
                -0.23928028780867122,
                -0.02621087865678405,
                -0.023633717535662412,
                -0.05607502962136016,
                -0.06515248963035689,
                0.3087867604361892,
                0.45908427894783593,
                -0.18582881603049126,
                -0.2617799604247281,
                0.039792900790217904,
                -0.048425123151621105,
                -0.001243164731865502,
                0.048224170233280704,
                -0.004106371586580558,
                0.12063849700621346,
                -0.2349041411134412,
                -0.0030639672714746586,
                -0.19035196809183358,
                0.2829946334931678,
                -0.10737112510333856,
                -0.06543838521936184,
                0.28663399579567383,
                0.1703908664259645,
                0.357257389399599,
                0.09268592582229761,
                -0.24761935382212175,
                -0.22829294321692362,
                0.04695334311563495,
                0.29915917143574194,
                -0.13212885967052926,
                -0.19056887763812058,
                -0.2522468578050017,
                0.012584464929092914,
                -0.014301060869595985,
                -0.0005669105786203857,
                0.2530710152736858,
                -0.009328530772633278,
                -0.12866410271057793,
                -0.09579911133884968,
                0.0561343095719884,
                -0.053049407959218406,
                -0.5613923768880004,
                0.19657242202596237,
                -0.2829068207414733,
                -0.0998433901862948,
                0.15994333764755392,
                -0.06356994666584484,
                0.06687911077317912,
                -0.644441057062272,
                -0.032994777638299985
            ],
            [
                0.27369226370628874,
                0.0736735604065829,
                0.19483124031859406,
                -0.18675662463419268,
                0.2592741431597169,
                0.10758941489647585,
                0.0682030060001023,
                -0.0033471395940242493,
                -0.099130773515057,
                0.13984084365614421,
                0.00894787100049529,
                -0.24325927917544893,
                -0.11328945027627076,
                0.13801835845326627,
                -0.33063740946540005,
                -0.013973174204438537,
                0.0033456886888771514,
                0.2932991711864635,
                0.15026241632787343,
                0.2107926121747607,
                -0.3456301392357331,
                -0.3283924691259646,
                -0.028818548713982678,
                0.14254723661809668,
                -0.1418579259279346,
                -0.11083191849145761,
                0.03859637842054405,
                -0.062461907886201255,
                0.20962065665446056,
                -0.0010590305821011779,
                -0.14136799123109692,
                -0.04233206225511086,
                0.08449184761698694,
                0.05365452134905337,
                0.051499604047852796,
                -0.10874827745794613,
                -0.4129822911842089,
                0.08336932967177545,
                0.08079512922582795,
                -0.08667988916557018,
                -0.1940663151406145,
                0.12337370142978714,
                -0.2592292207448151,
                -0.23350651147180881,
                0.11064548679079596,
                0.013488637564995154,
                0.18152853664369684,
                0.11386498781520499,
                -0.3611954922459124,
                -0.10602503047953114
            ],
            [
                0.003803483624997328,
                -0.04297373154087344,
                -0.030008743812772652,
                -0.07938272827479288,
                0.11695659535578394,
                -0.0968547074392383,
                0.22856757016505896,
                -0.1147137257317451,
                -0.02437231025462278,
                -0.08030808072268111,
                -0.12116775591727626,
                0.1593144256051593,
                -0.12938696540976674,
                -0.282740935122527,
                -0.04098567688724201,
                0.016140156930087753,
                0.02726757056933329,
                0.11858215111749093,
                0.0015489584129163446,
                0.3561910316779008,
                -0.1081412216218221,
                0.19298815346521825,
                -0.16025076265711166,
                0.1445046321349603,
                -0.08936282614798002,
                -0.03170750904237317,
                0.15950726315598843,
                0.05075503494832423,
                -0.22522237038777304,
                -0.0818754697195664,
                0.07004639759652335,
                0.05363929919946997,
                0.19484331047363265,
                -0.10480825186698094,
                0.14080053876454174,
                0.13761299628738757,
                -0.12990733175216218,
                -0.16446669681518472,
                -0.0658397481820251,
                0.0973255029736014,
                0.2548805220244462,
                -0.04239206666437059,
                -0.06426632379286075,
                -0.020573507309857436,
                -0.15581254386029034,
                -0.2599417730955026,
                -0.1937895313476019,
                -0.07926962728566937,
                -0.24092014695750433,
                0.31235216422533024
            ],
            [
                0.00255919543496586,
                -0.0790769763773891,
                0.2921346384524484,
                0.19744634381707823,
                0.1692122348362315,
                0.1505311543872751,
                0.0832883927947725,
                0.0189198083583645,
                0.0970731759701664,
                -0.0014202019009072165,
                0.10439161484560872,
                -0.09717948087133028,
                0.028406144579157622,
                0.26648640374675925,
                0.2086693832365768,
                0.14787839569383418,
                -0.23605079836450277,
                0.006477101156083847,
                0.062565897470205,
                0.052476969813475105,
                0.07487122094315786,
                0.008774549675468183,
                0.19930411000398524,
                0.22067592058946592,
                -0.11149936164646762,
                0.04493069264816545,
                0.3165104680981527,
                -0.0013750948883692123,
                -0.32619389781484753,
                -0.005998076436934714,
                -0.2190323935286155,
                -0.028905491934396406,
                -0.08375353662700236,
                0.07886292184946284,
                -0.02067323092858941,
                -0.12116400076781073,
                -0.0959761974556702,
                0.13471384168853998,
                -0.12549693748716773,
                -0.3775172625784611,
                -0.04495393089709244,
                -0.03327805266414252,
                -0.22868460817470532,
                -0.18943415475971076,
                0.062284231870929616,
                -0.2578484979980656,
                0.0233673655474688,
                -0.0013878714366355647,
                -0.09874193972395541,
                0.08395711182090533
            ],
            [
                0.19549555941526886,
                0.11442849630104093,
                0.1603735098276578,
                0.1052202329072667,
                0.12892997471394438,
                -0.012331221490646959,
                0.1777962923912524,
                -0.3081919731310611,
                -0.13432174170748373,
                -0.11357022549921603,
                0.12989631502791146,
                -0.2628957004193734,
                0.0407289675299785,
                -0.22041901543655965,
                -0.5320012986127542,
                -0.1242860064766203,
                -0.09500390829941754,
                -0.3065488432569228,
                -0.10196478243479938,
                -0.07837330727829984,
                0.01312705397999862,
                0.23925701129759808,
                0.03885771671687407,
                0.1767827809895749,
                0.19670869089429593,
                0.05686090436864098,
                0.2447373107593671,
                -0.25634204375076397,
                -0.2174873864942071,
                -0.14503020421424634,
                -0.031166992683820033,
                0.0774603935175322,
                0.027540613094313052,
                0.24961155611334984,
                0.2699967560216001,
                0.23953569779321723,
                0.340749021452391,
                -0.30629492020160515,
                0.16004116564746493,
                -0.017837472078430172,
                -0.347498130692276,
                0.2040589260297305,
                -0.013408242373270764,
                0.03401281062657243,
                -0.26892220276796797,
                -0.4299827784329838,
                -0.055638307564023,
                0.06767726247593457,
                0.18325930504367258,
                -0.35544548288222955
            ],
            [
                0.26375771902774403,
                0.1012131288188279,
                -0.05090581733142557,
                -0.37059080873444694,
                -0.02810997450024407,
                -0.07907884637687072,
                0.09556224944867427,
                -0.19050840077422987,
                0.02903456521199599,
                0.038111524560687914,
                -0.3880956484201522,
                0.3118341712636398,
                -0.2566290924907482,
                0.640500246116206,
                -0.2845927638580415,
                0.16489529207268025,
                -0.29724810482819203,
                -0.21252164628993622,
                0.1794692826221474,
                -0.1321193303029591,
                0.29841844371567366,
                0.02145079003411663,
                0.056335021024208794,
                -0.3721083296305718,
                0.07637596111112364,
                -0.1787625789813839,
                0.23967494941887002,
                -0.14758141065157948,
                -0.42675118011403135,
                0.04372702281410113,
                0.03238142797558441,
                -0.10891181917633003,
                0.07463143502576583,
                0.08223389157363842,
                -0.06238272495245917,
                -0.10326816088917445,
                -0.12796892465301252,
                0.062142288600269595,
                -0.06109841595005118,
                -0.04323915050680801,
                -0.3503392587808137,
                -0.45915494646674315,
                0.03101064408938207,
                0.10187473198899692,
                -0.3776675199552369,
                0.080427630381858,
                -0.02907084589202426,
                0.0950203886085691,
                -0.1534197633155341,
                -0.02112241340821693
            ],
            [
                -0.059335819799157384,
                -0.07853957114369767,
                0.05740115152356757,
                -0.15914519053529977,
                -0.0544935536704202,
                -0.16980508132240538,
                0.504657736051596,
                -0.13517990257409934,
                0.17213059642972153,
                0.1281134149568118,
                0.10185629482156282,
                0.16240467977435838,
                -0.13915840899323534,
                -0.03256013729779716,
                0.1720893104723168,
                0.1197295035430624,
                -0.2239587725186782,
                -0.23792300308928072,
                0.07963125877928126,
                0.1490017363342107,
                -0.182824829712332,
                -0.3162176707045949,
                0.1345035775419251,
                -0.171429612707354,
                0.14248360772938584,
                -0.24038821822753306,
                0.14431812552693243,
                0.06363452491271433,
                -0.2889978576531506,
                0.18525747790704505,
                0.08643912069833513,
                0.09166200161138693,
                0.2915218574460647,
                0.09213898097964908,
                -0.09549217976725065,
                0.3378646485996961,
                0.03444227971918066,
                -0.16780136362421325,
                -0.09385720464104838,
                0.004753069880358644,
                0.1917017367235714,
                0.011246503269416607,
                0.06805638622351327,
                0.10620080965866344,
                0.07968604198209317,
                0.14222885138641495,
                0.5073322476228921,
                -0.20862108206768726,
                0.12555162324310504,
                0.04371010638203371
            ]
        ],
        "bias": [
            9.021157707330304e-07,
            -4.143988503656582e-06,
            4.0136938662349405e-06,
            -1.304193701908821e-06,
            -0.00014336877937866268,
            2.4394913651186033e-06,
            -6.356695045800398e-05,
            6.3527815235695665e-06,
            2.8948725036211673e-06,
            5.995443108758121e-06,
            2.417333616289297e-05,
            3.068441658517446e-06,
            4.605062334647393e-06,
            2.704964448299329e-05,
            -9.382065355820564e-06,
            -3.2427761723636283e-06,
            -4.486878938708527e-06,
            9.06506048987227e-06,
            1.2807095467132761e-05,
            3.3729342771559617e-06,
            3.5143441381897995e-06,
            8.949417756981252e-06,
            -8.102313775518404e-07,
            -2.4832029480415613e-06,
            2.8208276382136393e-06,
            4.268956543360118e-06,
            -2.2489307306006663e-06,
            1.3902404945050667e-06,
            5.934777888887376e-06,
            5.775512622671215e-06,
            8.115837906113772e-06,
            1.4195089890104473e-06,
            -3.8610431632195695e-06,
            1.031575984738558e-05,
            -2.178486908478899e-06,
            -1.820427378842041e-06,
            -5.936991176451587e-06,
            -8.057589471276454e-06,
            4.8823514134794815e-06,
            1.6692589005550707e-06,
            1.4592260421597504e-06,
            -2.0978475650372718e-05,
            -1.2851192487927722e-06,
            -8.728140154702234e-06,
            5.61332788173693e-05,
            -8.018726691219132e-06,
            -5.773250183106809e-07,
            -1.081435648000021e-06,
            1.1280717257726568e-05,
            -2.524292460881443e-06
        ]
    },
    {
        "layer": "Sigmoid"
    },
    {
        "layer": "Affine",
        "weights": [
            [
                -0.010627960003235487,
                -0.11428223173346944,
                -0.1347343522846313,
                -0.26521947977664195,
                0.08247330816599133,
                0.04546113894701754,
                0.1545697582345803,
                -0.16235548561147473,
                0.1635926479069327,
                0.001272842340313066,
                0.18861940696299292,
                -0.14419529915716234,
                -0.11387467648497149,
                -0.266494805432513,
                -0.019775301709578825,
                -0.13327995192448813,
                -0.1192958430023813,
                0.03199557179980405,
                0.03819263881617169,
                -0.07701925022978745,
                0.13598093936190603,
                -0.17394652110521738,
                -0.2392627122878934,
                0.1837379539540992,
                -0.10107704038168416,
                0.008483338480469891,
                0.008433252101903425,
                0.1576077313372673,
                0.05924508862962779,
                0.1873145337821246,
                -0.03394086647934464,
                -0.09972317581315464,
                -0.08339657895159482,
                0.03478643066534162,
                0.2280390582697785,
                0.003085922793426771,
                -0.3205875628166719,
                0.09204147579390592,
                0.010182044653451416,
                -0.03483888488155983,
                -0.012647886051056588,
                0.09525267058822524,
                -0.03146323929234767,
                -0.2170273262613423,
                0.08371008865822151,
                0.028832087962022145,
                -0.02353271365235845,
                -0.16252337024792038,
                0.10866059003152108,
                -0.18207312281737092
            ],
            [
                0.32050650012187104,
                0.13827423936132716,
                0.09568253389866946,
                -0.08728119148377704,
                -0.3147427600645036,
                0.03223697184054316,
                0.08325484476387124,
                -0.039856685970058404,
                -0.2601598955233592,
                0.14448381266991744,
                0.006501729699976876,
                -0.09665446189219824,
                -0.04938766974569195,
                0.2624666635057641,
                -0.0691026367249866,
                0.020608586403802753,
                -0.3217988217230714,
                0.27462903126105165,
                -0.19039780023177413,
                0.15195306787205523,
                0.12926368803967048,
                0.09360665860251852,
                -0.11140254422265157,
                0.06486490756392482,
                0.040335821365763934,
                -0.007169803871011617,
                0.13679665155066323,
                0.2563370106504202,
                -0.2936577826343237,
                0.03432815037482214,
                -0.08941453553304085,
                0.06214731363989106,
                0.22657462251505397,
                0.0889635455190627,
                0.024907051942068433,
                -0.0962270122283662,
                -0.20421451303062502,
                -0.04590121436560352,
                -0.1509846735396453,
                -0.05392165843114905,
                0.013139032809825873,
                0.21260220620799164,
                -0.10825539516568866,
                -0.11761218273098785,
                0.09575944381039812,
                0.011164571538147037,
                -0.14614392599259246,
                -0.1378910241453585,
                -0.11757987530169063,
                -0.2932520948359566
            ],
            [
                0.14931644449833514,
                -0.20579974477030125,
                -0.3852240016629292,
                0.08562339568030017,
                0.13947095646972726,
                0.041630218745123786,
                -0.20684242488254212,
                -0.09050477985244519,
                0.035996655300011234,
                0.07343589485521648,
                -0.15444519208249796,
                0.053628188295927276,
                0.022343617719002028,
                -0.05182694725405489,
                -0.026433675082780786,
                0.09162834281105985,
                -0.0497051932082213,
                -0.28120968470209495,
                0.22039904602245494,
                -0.3499009144239102,
                0.12312723145379043,
                -0.12310234277864156,
                -0.07418811617185829,
                -0.12431815727671247,
                0.0011040257791524876,
                0.2710925602854287,
                -0.016816219125552794,
                -0.023691756873480217,
                0.007380844563331566,
                -0.11921716357702486,
                -0.06904109052603713,
                0.1559272426356369,
                0.11187400006038652,
                -0.15114181727108553,
                0.016002944144936984,
                0.12810978968014275,
                0.13060583679618798,
                0.33608859714991085,
                0.1893328550071388,
                -0.002482417755300707,
                -0.1316265804758302,
                0.16549918427964094,
                -0.11877101652772606,
                0.05920343613212449,
                -0.037777361247956005,
                0.13312326049545947,
                -0.24074679501640922,
                0.15503741303568155,
                -0.07245413869790952,
                0.005958992054749954
            ],
            [
                0.2573374518438339,
                0.14748099820772997,
                0.08768211055652521,
                -0.034299570004071855,
                0.13887293026007264,
                -0.12299376266418996,
                0.2313651169113404,
                -0.03073626042089813,
                0.05130230255379947,
                -0.26435812382704793,
                0.06424542866284093,
                -0.09015083408426934,
                0.007935253117751076,
                0.02359437583690898,
                -0.002978824539566377,
                -0.08639323414907361,
                -0.06400294268056272,
                0.03122763063397796,
                0.10639132360853433,
                -0.09275764655121835,
                0.09637923119012141,
                -0.23765316985197207,
                0.1418912859014893,
                -0.1447944382902127,
                0.14415935569224825,
                -0.13431071532293695,
                -0.11838201955426607,
                0.11561301623975939,
                -0.10530543469193714,
                0.23608854572457422,
                -0.21798338996393254,
                -0.1662973900834071,
                0.2072208003427435,
                -0.03301235924962848,
                -0.16038966465627075,
                0.08713284494829562,
                0.04106831462175507,
                -0.09842256337377243,
                -0.2484674326422392,
                0.04746323513047306,
                0.02451808020659423,
                0.1257317914680582,
                0.12745954115952482,
                0.032565476497857786,
                0.05327324215973816,
                0.09507204504558153,
                0.05378148900831135,
                -0.015066240124504929,
                -0.03306382804992634,
                -0.08858347818581881
            ],
            [
                -0.08147860827084279,
                -0.04380167414343839,
                -0.001303787778963517,
                0.229853075970823,
                -0.21191108056624938,
                -0.07219148838058896,
                -0.0661049852460023,
                -0.33870834244485687,
                -0.10935067764070701,
                -0.23134354546528993,
                -0.048253525735584106,
                0.08119210207278131,
                0.035533632546351404,
                -0.199414363348885,
                -0.02825479165686755,
                -0.1359639287297902,
                0.07919667628847087,
                0.07011008586668578,
                -0.20504597643298927,
                0.04049619763691493,
                0.05975612360538983,
                -0.06380054071823148,
                0.23376389718877866,
                -0.10532971488767576,
                0.022726659164473365,
                -0.022454900726751312,
                -0.037086852685443844,
                -0.20894073137769897,
                -0.11547746157086736,
                -0.3320597385264331,
                0.008488815670947801,
                0.13608119215512995,
                0.003587002910143904,
                -0.059295735236053033,
                -0.06545761501920172,
                0.26330311487006536,
                -0.06088841075483801,
                0.21443997885063656,
                -0.23768470447423146,
                -0.11391769772342776,
                -0.05923404407434626,
                0.010491764109879714,
                -0.0018898962953657818,
                0.08520738275624017,
                -0.03675489235255868,
                0.09786680951061043,
                -0.29615271144646577,
                0.41991005110963897,
                0.10616155559689178,
                -0.1753405644267085
            ],
            [
                -0.043820520662146326,
                0.2455702001521795,
                0.054652968581673296,
                0.25658813360827876,
                -0.05862201418198418,
                -0.08657456409327915,
                -0.07336485922726985,
                -0.10455401433553439,
                0.21132840344024048,
                -0.04098813768508627,
                -0.02097540966714634,
                -0.07645242159331507,
                0.06689615610396285,
                -0.05845354601771743,
                0.1551317333478519,
                -0.22458549985987436,
                0.00989706839502055,
                -0.07217427364172499,
                -0.01907825761309106,
                -0.014568638917624239,
                0.14516763710148337,
                -0.12728066376270394,
                -0.14234282931982556,
                -0.10682206805457396,
                -0.21517151367987974,
                0.055302963927459974,
                -0.07126082178653222,
                -0.050925274957500426,
                0.12822310202482595,
                -0.20706537712079037,
                -0.015784160736342475,
                -0.11849697696587036,
                0.025805553052833347,
                0.06768422111402676,
                0.11218975313212452,
                -0.27465521843882174,
                -0.22146872598106662,
                0.08658791882299771,
                0.149736969704709,
                -0.28536332216441623,
                0.11904869936885681,
                0.17925025440843556,
                -0.43876078929571316,
                -0.05721656069785865,
                -0.002069454811939794,
                -0.0971255361573682,
                -0.010145928574952936,
                0.1567805498250074,
                -0.15855097550969102,
                -0.165886249889887
            ],
            [
                -0.2989565304818485,
                0.016229158753755114,
                -0.12408604196410146,
                -0.10913853130356335,
                0.07186962857210948,
                -0.2267836508829937,
                0.25038127295909407,
                0.14151219647230343,
                -0.1843287574949373,
                -0.24820892880212478,
                -0.04342814277581919,
                -0.10441630867719048,
                0.042381088565359805,
                -0.060956230244893,
                -0.12016354342991638,
                -0.20536412405125998,
                0.18164636759666206,
                0.2156260828971564,
                0.06344310917653805,
                -0.10647185993520747,
                0.1478670563668029,
                -0.23953275198106413,
                0.14927530672870548,
                -0.07133244440442968,
                0.1767182232967595,
                0.11832136011234691,
                0.03910619260284348,
                0.019818249053790604,
                -0.021230535565903094,
                0.044272384288311824,
                -0.0806162528136235,
                0.10805548022440334,
                0.07776696164521643,
                -0.12046654662431583,
                -0.12605921541501025,
                -0.09297367745286808,
                0.12379503573606455,
                -0.26995768820261357,
                -0.3194661036846799,
                0.006870208134267103,
                0.02021629794150932,
                -0.1863227750828935,
                0.04711999026582682,
                -0.1149981561102404,
                0.13260352523359473,
                0.0731008995473709,
                0.03818455061031136,
                -0.1981582368508523,
                -0.0255438643263077,
                0.028014829413592273
            ],
            [
                0.27245768662917164,
                -0.06153707202915939,
                -0.06696511758721228,
                -0.10710602567604509,
                -0.10946580830317644,
                -0.08057653046809089,
                0.00016245903755090127,
                -0.02258870177686173,
                -0.027551216912635994,
                0.03715003329051229,
                0.06619491243794862,
                -0.12636798741823085,
                0.1916570022115885,
                -0.044451219505622364,
                -0.17648855641202088,
                0.08631364780939427,
                -0.043304508371647864,
                -0.023749170091747523,
                0.04997493018314144,
                -0.27059708547433364,
                0.09636653015892777,
                -0.06981784962247123,
                -0.09325983118540111,
                0.04283096891820623,
                -0.016370505449352413,
                0.06411384882785284,
                -0.07493265416357917,
                -0.0548578980813284,
                0.06414498720730454,
                0.014106760722324006,
                -0.12261471503384186,
                -0.04883853194731185,
                -0.019439125211992862,
                -0.10835419989065538,
                -0.1473687616815553,
                -0.04517325962875665,
                0.28658244397104005,
                -0.0042974661472246194,
                0.07270071188363192,
                -0.04846103701862591,
                0.0626672176524829,
                0.15786224390616405,
                0.10102259061044899,
                -0.10648754043907084,
                -0.21451271119517457,
                0.011632837210030833,
                -0.03707064941546193,
                -0.06136535494996313,
                -0.18788363886690773,
                0.05554928481154838
            ],
            [
                -0.0763343071043192,
                -0.06927782157407979,
                0.0398170274352214,
                -0.20745743281098716,
                -0.08256062102809367,
                -0.3188464460765126,
                0.3530829121653514,
                -0.1426348855604704,
                0.008245234464193282,
                0.019487507883505197,
                -0.08922009143803823,
                -0.09195444796634278,
                0.2885686454414229,
                -0.08468269665354713,
                0.058468138874032016,
                0.0613140044273635,
                0.06370298113916555,
                0.03440941778130587,
                0.06996137290575462,
                -0.30643926613890504,
                -0.031081003686159344,
                -0.014190255064256765,
                0.0346586848082427,
                0.022701895041362722,
                -0.009177430953410561,
                0.18134248033741626,
                -0.11545509388854978,
                -0.05558231467902033,
                -0.13820510175826362,
                0.08567697213118451,
                0.022815274899626502,
                0.0052755226557898265,
                0.015834959383850742,
                0.14539375255033338,
                0.0006738441638566942,
                -0.06439699914595301,
                -0.1171590051032719,
                0.12513408416577254,
                -0.005925633473709933,
                0.0927207220791708,
                0.028281212680896662,
                -0.07378901884866064,
                -0.0869822987044052,
                0.0403491270115328,
                0.17309700284893995,
                0.2044603839273816,
                -0.0642979405513556,
                0.08464500138702352,
                0.09695785405674308,
                0.018874686548806894
            ],
            [
                -0.019406956350253586,
                0.15522145028414755,
                -0.05894431554424778,
                -0.017856170715994393,
                -0.12947714047218276,
                -0.003261885582831913,
                0.07016962896121794,
                0.15202957060406094,
                -0.0010439204379336486,
                0.10168005192086105,
                -0.029805855353138313,
                -0.18334729403311492,
                0.19774705118384373,
                -0.00399408743023957,
                -0.1525326565886592,
                0.20013273943842147,
                0.00939799621111539,
                0.18988761399318427,
                0.006116205307313594,
                0.2283026783948494,
                -0.07955847978753583,
                -0.052101698713050634,
                0.09700469816733995,
                0.15019332942974162,
                0.06489349621157703,
                -0.0190347471224462,
                -0.0863652971604214,
                -0.2533293420226787,
                0.10091797245196153,
                -0.08539743770838826,
                0.03705870574158684,
                -0.3265492831295502,
                0.14388584132325236,
                0.10129166793875388,
                0.06818128733126405,
                -0.2752185566564862,
                -0.08097570655478924,
                -0.12316483581827323,
                0.34585130580384416,
                0.1888056330017972,
                -0.010118321444750795,
                0.15332940170853235,
                -0.039140904949458453,
                -0.13469680053037056,
                0.03941082407370586,
                0.10209576672786486,
                0.04239374126266422,
                -0.024195977279329064,
                0.15669239068317645,
                0.11687400728208294
            ],
            [
                0.16565418898868295,
                -0.2962087299968666,
                -0.04630726616116877,
                0.13775796436420332,
                -0.01730121627396557,
                -0.08295354666649656,
                0.17009149206644644,
                -0.14151894266454548,
                -0.13482278663789188,
                0.08068295415183624,
                0.09234240903765081,
                -0.3464415903524472,
                -0.05036057625858952,
                0.08430395100468246,
                0.24612472638350197,
                0.2317187021279724,
                0.12723457031578794,
                -0.06372324264968988,
                0.03925571739812161,
                0.03880508085220794,
                0.18957930761242686,
                -0.17923317448515264,
                -0.09776902157107972,
                -0.012543685627154301,
                -0.1282882034530691,
                -0.0033644330543386937,
                -0.1756583432075446,
                0.20017651155810257,
                0.02024522176310214,
                -0.26952434312522233,
                0.15589690633978698,
                -0.055467185603296346,
                0.07751748421030989,
                -0.07419423348814608,
                0.09217008820035098,
                -0.1683622560526116,
                -0.09575292553029112,
                -0.08235237823275342,
                0.1369695253855118,
                -0.054876149571970616,
                0.049346799580013166,
                0.05516543649361348,
                0.06326102560195226,
                0.009912822410126053,
                -0.20451363087641028,
                -0.024781363047849305,
                0.07519949073162585,
                0.013053934353392393,
                -0.04877421843961864,
                0.18426755551583987
            ],
            [
                -0.12155842433888929,
                0.11105768940105772,
                -0.04039804525777241,
                0.08479906399258415,
                0.23292142964270032,
                -0.1433913914968393,
                -0.06878847260642851,
                0.1859123646018818,
                0.1401858781785615,
                -0.0526584996881943,
                0.004774358377046162,
                0.09653931512531264,
                -0.06129687090378872,
                -0.023922096715386264,
                -0.2798893148315564,
                -0.0668910297866834,
                0.02718659108592635,
                -0.03152742480602138,
                0.054534875722788326,
                0.2216047231979381,
                0.021077505468333826,
                0.06310699363063507,
                -0.13272560398205768,
                -0.1750371418744212,
                -0.1046663314155807,
                0.01813067422311061,
                -0.046455892093102,
                -0.012802923046428006,
                -0.11314097035209632,
                0.17380330070454267,
                -0.09480710252295295,
                0.21757708034792625,
                0.2531667825293916,
                -0.0013568635340704056,
                -0.12905829277461175,
                0.026247062497269616,
                0.12762303219659818,
                0.3799793534286226,
                -0.004779709741753034,
                -0.06185952492903062,
                0.17437954956570303,
                0.06950109176787718,
                0.06436378650629035,
                0.06151571423446006,
                0.16902790927603445,
                -0.054259497444758664,
                -0.07733162352499413,
                0.135553389688489,
                0.07184156901496325,
                -0.016929613361139226
            ],
            [
                0.13226639347551938,
                -0.032319371392092705,
                -0.24506888885074385,
                -0.07830369084056409,
                0.06660193826392227,
                -0.18307389606867822,
                -0.048187009754049194,
                -0.04022067940056727,
                -0.2889920872395358,
                -0.056639377485190066,
                0.13730392935852237,
                -0.02011116533941385,
                0.02469785257289841,
                0.006575007065772442,
                0.2553261893213058,
                -0.05776373928840844,
                0.3526293093912361,
                -0.10764572300015186,
                0.26666580422655617,
                0.03434562716495738,
                0.21586346485859054,
                -0.18619309445306795,
                0.00275856658322189,
                -0.4830929460041957,
                0.020592981547737036,
                0.09101175884072638,
                -0.22634626142462777,
                -0.12116622834777607,
                -0.24628479503233439,
                -0.07457377653602112,
                0.019314878450231873,
                0.026060459188845198,
                -0.0011052519804660421,
                0.0022724710074156457,
                -0.02104351058355508,
                -0.2144755781056651,
                -0.02725317163920777,
                0.1776109299589749,
                -0.19300664398358658,
                0.021187772145501372,
                0.21889265916218584,
                0.33489579252691154,
                0.3118652190455588,
                0.14432935403501485,
                0.12491691978327674,
                -0.08840484670520674,
                -0.12048161657034627,
                -0.12292001958425675,
                -0.318309675829535,
                0.09715455954759421
            ],
            [
                0.11715428315808518,
                -0.017767881512036364,
                -0.12965352109321157,
                0.04412982679818073,
                -0.010634710062612143,
                -0.13577850187774107,
                0.13373727196217142,
                0.04230825053419494,
                0.010993412547862626,
                -0.08404118623832117,
                0.0019617573083542798,
                -0.12410596309496054,
                0.08635959801577758,
                0.2348504359116233,
                -0.0730495867620617,
                -0.2782032883648945,
                0.010485904540632862,
                -0.17750875417539133,
                0.24620376850713743,
                -0.2430510309812726,
                -0.2784383295429268,
                -0.22108591810831207,
                -0.23041064510697812,
                0.23200123200605907,
                -0.19998775853236334,
                -0.06228881497983361,
                -0.2115012802223289,
                -0.20500249736461296,
                -0.2735393614093493,
                0.2047161382940946,
                -0.07298822025293764,
                -0.1549634140154968,
                0.2495050339575059,
                0.12571597033136514,
                -0.04762777360430784,
                -0.0043255680674267934,
                0.11301599978573464,
                0.18670096328410946,
                -0.04561081038817697,
                0.30602203010065215,
                -0.36730339185603417,
                -0.1397832739884563,
                -0.11905451502278902,
                -0.18405304561072372,
                0.1778194281135079,
                0.16554017224435474,
                -0.17036360735202635,
                0.15466201032883717,
                0.016901750662062856,
                -0.17578399333395514
            ],
            [
                -0.09012330741351791,
                0.026769797251344207,
                0.09818677692267572,
                -0.04688242844870721,
                0.22845885826552828,
                0.02671928642148061,
                -0.03709579310228682,
                -0.07477144649461427,
                -0.11083118954921803,
                -0.24945619702066776,
                0.0801863162126463,
                0.061874604175858064,
                0.2603117084388847,
                -0.0235433579465621,
                0.050006128247856586,
                0.008896646667441574,
                0.15319640930692335,
                -0.08592039203129569,
                -0.15302437147683046,
                0.22547654620691004,
                -0.15560312048685376,
                0.17661785139884337,
                0.1944378712948017,
                -0.02601545904500713,
                0.06095674921910106,
                -0.2048130295993137,
                0.1567190096652869,
                0.11121221427123552,
                0.3116881213395198,
                0.1629687780001981,
                0.14567164491764284,
                0.1643791295635194,
                0.08423301886654626,
                -0.03769778454628995,
                -0.41191531507506934,
                0.022525078283077125,
                0.06165263809678237,
                -0.06430559291818462,
                0.11988851798954388,
                0.2028714026697154,
                0.15037431186763064,
                0.10085441631272225,
                -0.11002332315876732,
                0.11634288270728912,
                -0.05781966792772253,
                -0.10719463325154353,
                -0.0008294424703287583,
                0.12870716203047144,
                0.2054470701753077,
                0.041497257022797544
            ],
            [
                -0.03223870287993629,
                -0.15177380207305252,
                0.0743273632573656,
                0.003445859366838426,
                -0.04621874799792309,
                0.007589027318215989,
                -0.011812455826290912,
                -0.12752319455437952,
                0.22162081670656633,
                -0.17057492621419226,
                -0.19750502202556425,
                -0.061062252849593254,
                0.05547833656288869,
                0.00015917892798654435,
                -0.28880355939438107,
                -0.199290829210074,
                0.11069118178550393,
                -0.21822882510147124,
                -0.2330352423915937,
                0.2358743466513578,
                -0.07720982200671204,
                -0.2733594591934917,
                -0.12654865011460487,
                -0.126283127766741,
                -0.04436427877643638,
                -0.1581553406579218,
                -0.014245286323378587,
                -0.04368145604896636,
                -0.15677958338013762,
                0.16584165834558087,
                0.283805213636567,
                -0.254397403012302,
                -0.195684451318382,
                -0.07113400797446072,
                0.13748351198300646,
                0.10277735321482911,
                -0.2097377237237386,
                0.2754317073172444,
                0.20491436246687006,
                -0.08119912931312062,
                -0.05598844424011441,
                0.01762966856277419,
                0.011539372913181705,
                0.1954198408454169,
                0.19611780780155375,
                -0.1694495292795711,
                -0.05379671979980888,
                -0.09275276894581573,
                0.04664312380774066,
                -0.11244460767330387
            ],
            [
                -0.004443252646517347,
                0.10227810689348114,
                0.08668444649677436,
                0.08027735704924933,
                -0.23680152211406438,
                0.12200674764611055,
                -0.18568643447215671,
                -0.23578493559820604,
                0.02691756217685247,
                0.032989690361903155,
                0.1614054945446196,
                0.1654727191463002,
                -0.10963992271390717,
                -0.11767184866738045,
                -0.17205790953457603,
                0.10743022751846644,
                0.10236935797827937,
                -0.06871589549456981,
                0.022386107197747758,
                -0.11057754853642553,
                -0.0012664596626028475,
                0.07334745705111133,
                0.1749300228363011,
                0.11375762989595209,
                0.08332077256305796,
                0.06273806718360242,
                0.03675433944282357,
                0.3562389706682548,
                -0.0247005630040494,
                -0.08885708808522902,
                -0.04018226164432146,
                0.03627630929768454,
                0.2808290841719269,
                -0.044046293370713564,
                0.07103556157999645,
                0.09907929732057241,
                0.17229328046935144,
                0.18520881484311538,
                -0.12094120025961627,
                0.026760732220695832,
                -0.00017859734890155067,
                0.05974878097626457,
                -0.17299914668713284,
                0.020226118265835123,
                -0.10186439404909209,
                -0.06476609176557353,
                0.045652407472420393,
                -0.20977837241033992,
                -0.08727878905982192,
                -0.0004512557722983866
            ],
            [
                -0.23882415497694273,
                -0.07306732535815112,
                0.10343130907655083,
                0.06884178716180868,
                -0.24922460635866805,
                -0.10663590407984622,
                -0.09495757373024334,
                0.019081058933608383,
                0.08688301334221422,
                -0.11823945518147563,
                -0.05410301929632663,
                0.023111274033735807,
                0.1813549938936457,
                0.20025104221004505,
                -0.30885955734433174,
                0.013369922981663583,
                0.015024818495778034,
                0.07743303902874425,
                -0.12904087312465318,
                -0.05064070721615227,
                0.1348264565334084,
                -0.09333967593175599,
                -0.02684959269157069,
                -0.03737323265448287,
                -0.09307261033306162,
                0.4890014358814556,
                0.018659753381490746,
                -0.3020248950637594,
                0.36468999153297216,
                0.23478950754553493,
                -0.05502794964656522,
                -0.16839920678370945,
                -0.05596795312443097,
                -0.1996875186002391,
                -0.05813849285342341,
                -0.009076442393864308,
                0.05422732301044154,
                -0.049715233102785424,
                0.29818805026199124,
                -0.2467250491937947,
                -0.008543437172242778,
                -0.17319161258444132,
                -0.05788870575884315,
                0.07342291907686234,
                0.1779461642616968,
                0.3572238056660654,
                -0.024817631340637077,
                -0.04704877983353936,
                -0.019302025743679087,
                -0.1472007543198955
            ],
            [
                -0.047077074365455905,
                -0.11089123930430196,
                0.04735713356556764,
                -0.15192484977864146,
                0.15505695912001388,
                -0.19829724955853648,
                -0.250197920015479,
                0.092706153863343,
                -0.2888691277167465,
                0.03977076361924315,
                -0.25648248354932324,
                0.0018850818115900235,
                -0.08254431592145382,
                -0.062133228302455705,
                -0.065302625388867,
                -0.07586302266527267,
                0.10667543099327165,
                -0.031196946118694533,
                -0.15873711224629194,
                0.13170531267265834,
                -0.04494527463162588,
                -0.2783359594895984,
                -0.01163331970396949,
                0.09957064368444357,
                0.02596021704564907,
                0.09692692136590197,
                0.006501890358188063,
                0.12713459949861888,
                -0.13495319657223068,
                0.015871758941894652,
                0.014229840820940485,
                -0.18648485026511694,
                -0.03417900146491801,
                -0.0029114629820294648,
                -0.262015428761316,
                -0.04667030541842058,
                0.19591791432648503,
                0.11556093984231486,
                -0.12555162295456215,
                -0.0018968802318776973,
                -0.057317101607744995,
                -0.02122149648944784,
                -0.1526238967608087,
                -0.08123569327648007,
                -0.03390280701753106,
                0.004769174946858874,
                -0.08556433755087069,
                -0.055766635824264915,
                -0.035919362315214955,
                0.01876772055937705
            ],
            [
                0.29141709598703147,
                -0.014434828160710409,
                0.050430797795964925,
                0.11474489165157051,
                0.0387610375605391,
                0.1611563581967495,
                0.1781791909951542,
                0.3762780202498764,
                -0.10163127377392693,
                -0.08008394479499392,
                0.2513280733465714,
                -0.09320111725565865,
                0.24065244709519085,
                -0.08983837021555144,
                -0.17207880577064105,
                0.524462449241913,
                -0.30901602267068856,
                -0.13018075015766029,
                -0.048137926135230207,
                0.01739117238253197,
                -0.32335930573348953,
                0.044913019028441845,
                0.14512891953903884,
                0.13060793803691656,
                0.11408894151685926,
                -0.12673818289148844,
                -0.12840841215727597,
                -0.015411441736996866,
                -0.1537925879519116,
                -0.05490194330646435,
                0.0034853220164013576,
                -0.310066082012138,
                0.09195881782440211,
                -0.1442097719047438,
                0.11646448494906307,
                0.037823994040468045,
                0.08905885026659988,
                -0.07207998406948331,
                0.15169329794497075,
                0.004468932303909608,
                -0.06819916250250335,
                0.03468037643545021,
                -0.32426172404161985,
                0.052655866155269154,
                0.04159995127711148,
                -0.19641417663318517,
                0.07311973485031137,
                0.17542258594517926,
                0.09596142910163528,
                -0.022410099137140007
            ],
            [
                0.005585975162756467,
                0.01910892660737409,
                0.038849716111249634,
                -0.005608150966914747,
                -0.06739140179133708,
                -0.16595440906414047,
                0.008200272588088508,
                -0.15065504827142231,
                -0.05620642577895711,
                0.2938616180305806,
                -0.29882322107744436,
                0.09131096619133057,
                -0.15909309249398412,
                0.1056030161033142,
                0.22620504159880675,
                0.15520022143173226,
                -0.1477499323017615,
                0.11155117478858845,
                -0.06906632234722612,
                -0.07785642904884342,
                0.16713534667062033,
                -0.003178760184551396,
                0.062100430550614955,
                -0.0907495828541596,
                0.09485899033906918,
                -0.024235974687886037,
                -0.00670147695355698,
                0.1006382990233251,
                -0.07904964852369023,
                -0.05967335207963846,
                0.0806862638597,
                0.07872743565702058,
                0.03005258223940493,
                -0.2708278722957472,
                -0.04450329130437581,
                -0.03749822469200266,
                -0.04311896440601737,
                0.12338068978026166,
                0.07003682544785138,
                -0.12987232899900641,
                -0.0978453878075264,
                -0.17233759971659218,
                -0.0857731721064161,
                0.01909258235122208,
                -0.2907006845553343,
                0.20390870669402159,
                0.18036623193168624,
                0.1288419028891917,
                -0.022295117639614045,
                0.15780242031470554
            ],
            [
                -0.11726502573618544,
                -0.10282947792331504,
                -0.08508470119385034,
                0.05757656245137059,
                -0.06202876932868642,
                -0.014794834101677814,
                -0.12001677055144773,
                0.2712793253986149,
                0.12241688780400352,
                0.031870527004771027,
                0.01751468038518757,
                -0.0030860432858759073,
                -0.023168814998728464,
                0.17967642787350424,
                0.08237239483220513,
                -0.13056656550034026,
                -0.1741081128968139,
                0.004867501358110659,
                -0.09901991058094571,
                -0.13698992608625865,
                -0.05851798364472923,
                -0.17892636127040326,
                0.09795682708047339,
                -0.07995735655257415,
                0.023781427296776684,
                -0.27227414320445675,
                -0.046958955873405275,
                0.11275036485360145,
                -0.00047121733149763214,
