{
    "params": [
        {
            "layer": "Affine",
            "weights": [
                [
                    0.328813997048798,
                    0.22370244913621837,
                    -0.44369906021921496,
                    -0.01709233644971198,
                    0.040892986740577876,
                    -0.06952915281531877,
                    0.1504100692120303,
                    0.10257588197954624,
                    0.09233424531589887,
                    -0.14724431880395245,
                    0.20346451494921394,
                    0.3004945385358251,
                    -0.17291046862599996,
                    0.2036296838254333,
                    -0.07995494405539401,
                    0.1083268489825326,
                    -0.3450223511964645,
                    -0.05752410540727433,
                    0.4102176782697881,
                    -0.17947700465049052,
                    -0.4448088165817654,
                    -0.3080799530012744,
                    -0.08872909847794487,
                    0.46708782871361965,
                    0.2372422100638861,
                    0.37912176980696854,
                    -0.1104231838667756,
                    0.3517841297488337,
                    -0.08665990085222962,
                    -0.022965265872867388,
                    -0.1963690397028081,
                    0.04825355322174689,
                    -0.08176247720363773,
                    -0.22536279782626265,
                    0.2037128613128663,
                    -0.10818399363148291,
                    0.1730233946149439,
                    0.014766787107579246,
                    0.27554274958121644,
                    -0.17551496827711283,
                    0.2702549184123592,
                    0.02285063710628463,
                    -0.23574146236985968,
                    0.050735619508983254,
                    -0.05926915704168391,
                    0.02517078973296785,
                    -0.0026708535864397908,
                    0.1911333500960803,
                    0.2152867061113773,
                    -0.17807400162589032
                ],
                [
                    0.04113816889856367,
                    0.10821856572477756,
                    -0.20318319486382333,
                    0.11564042833737073,
                    0.10028064696710526,
                    0.07575069463705825,
                    0.49553746370372886,
                    0.2206892407287988,
                    0.039793289679198623,
                    -0.12100841715959458,
                    0.027908152001259467,
                    -0.04416525383026771,
                    0.21491270919877778,
                    -0.12421990147175113,
                    -0.07075651540217859,
                    -0.081077496933729,
                    0.10837229508119099,
                    -0.3153207550355964,
                    0.014342402235418302,
                    -0.018929451463347166,
                    0.002475754866866253,
                    0.08535632597468354,
                    -0.13584737696446306,
                    0.20056786273825167,
                    0.0789906119342531,
                    0.4967825741723659,
                    -0.35956406265656987,
                    0.17128763549078208,
                    -0.21901903584124585,
                    -0.23205614228570617,
                    0.274389870113234,
                    0.4055405375979777,
                    -0.4068863652445217,
                    -0.13560334396001406,
                    -0.036521916978128705,
                    -0.48341837096179624,
                    0.04724870285217256,
                    0.12096606021430178,
                    0.0721381504237946,
                    -0.3970442844539509,
                    0.2950622987760284,
                    0.09589826576814309,
                    -0.05303427123830722,
                    -0.05807909514564135,
                    0.1835702802674372,
                    0.20845331727256713,
                    -0.05140836606828474,
                    0.09814808366026977,
                    0.21390558208263322,
                    -0.45303261074901796
                ],
                [
                    0.10995942186247346,
                    -0.2532791392785628,
                    -0.33294484331222496,
                    0.07007762865128093,
                    -0.09977519987168475,
                    -0.009970520244496453,
                    0.05022769293035381,
                    0.23920762181135416,
                    0.22225573522454833,
                    -0.26320485623753526,
                    0.18113448387751524,
                    -0.003591606057494039,
                    0.4419851339957494,
                    -0.11848089958879232,
                    -0.18313219667042877,
                    -0.03611234773327943,
                    -0.2210581044536204,
                    -0.05764729637606198,
                    0.19239970496718076,
                    -0.2770754928400657,
                    -0.19053484310022764,
                    -0.23048012829166745,
                    0.08596551619599385,
                    0.4823875083114407,
                    0.28511328226649285,
                    0.13837900328090605,
                    0.056001879799946135,
                    0.12915766657207428,
                    0.2649052451549714,
                    -0.01530024935412676,
                    -0.1929191896555375,
                    -0.05443070487904853,
                    -0.22494975551727525,
                    -0.0836932320512576,
                    -0.2594098441613707,
                    -0.1870631587622401,
                    0.3467578488911872,
                    0.08313010580612538,
                    0.4098542837326613,
                    0.221978424012469,
                    0.09984360944518296,
                    -0.15966873972717166,
                    -0.07453027098140752,
                    0.05571783806825073,
                    0.15826336920280468,
                    0.3599487849240948,
                    -0.14477402370111248,
                    0.06592643035912506,
                    0.17645734075814737,
                    0.05312507956520531
                ],
                [
                    0.1882170933942299,
                    0.16486083445219152,
                    0.0909919140960301,
                    0.07498133558223886,
                    -0.11248451574962608,
                    0.06990339587837384,
                    -0.026489401904001557,
                    0.17927555872109716,
                    0.25892434287951177,
                    -0.6798963056671677,
                    0.35281197094607175,
                    0.06922535054713955,
                    0.0884500643083429,
                    0.13544550533363084,
                    -0.5644918265561026,
                    -0.1935093827811757,
                    -0.2068263490183256,
                    -0.2209055952914177,
                    0.1881349729035267,
                    -0.07732495783555492,
                    -0.4012017537029305,
                    0.12070020782690948,
                    0.06819420289690205,
                    0.133479562077564,
                    -0.10075398340094513,
                    0.022048840609479887,
                    -0.021844675909049566,
                    0.2045298808171312,
                    0.14923117921903048,
                    -0.18785165433474402,
                    -0.4145917593592709,
                    0.020558570512826318,
                    -0.009241131766598572,
                    0.0031261171252649654,
                    0.3738360805562295,
                    -0.11883815815819443,
                    0.1403791122943113,
                    0.04005164693269728,
                    -0.024766934955053676,
                    0.10329130458995825,
                    0.2037137295644214,
                    0.043841456438326064,
                    -0.2697751443703033,
                    0.11856580870975121,
                    0.012522674043345476,
                    0.2892237113971454,
                    0.2279513138338074,
                    -0.05716804145560767,
                    0.3331766218778404,
                    -0.25196032771943083
                ],
                [
                    -0.0006280962198179614,
                    0.23859978568075105,
                    -0.22219808833371138,
                    0.026268629329475518,
                    -0.22331178461306783,
                    -0.3423515565518542,
                    0.18401166285832302,
                    0.02152766972301746,
                    -0.12695755141922618,
                    -0.22591208606999105,
                    -0.08806386641235321,
                    0.2532594363808848,
                    0.07044222321883956,
                    -0.06294652198921347,
                    -0.04766553310048333,
                    0.02842235773574398,
                    -0.2618162425177643,
                    0.21959235733045848,
                    0.10478492473808158,
                    0.22199669258326496,
                    -0.09383653822826012,
                    0.16079063136707672,
                    0.09683054746940628,
                    -0.2736972977882594,
                    0.0389240597461068,
                    0.07712719086983248,
                    -0.1367567574483293,
                    -0.051076384336135074,
                    0.06765208942629829,
                    -0.017133425845519638,
                    -0.16523175098925508,
                    0.13235973431464024,
                    0.03439567543711079,
                    0.014156185805120484,
                    0.0054621006813131544,
                    0.058994058768621516,
                    -0.03189341999415134,
                    -0.1381039901036429,
                    -0.1427748463998986,
                    0.19046903067724114,
                    -0.3212344316724726,
                    0.12164929814633307,
                    -0.24003276275351945,
                    -0.28850517207852705,
                    -0.16567350093079805,
                    -0.029097525183758605,
                    0.1511847520538171,
                    -0.2851812131197507,
                    0.28860768861920433,
                    0.18883173204113815
                ],
                [
                    0.015119604231191202,
                    0.003984218012027227,
                    -0.2677674161647663,
                    0.10106317328921731,
                    -0.024326002963789072,
                    0.29381224938740247,
                    -0.06887752103894228,
                    0.14918402837937267,
                    0.04792043152473615,
                    -0.198392032650472,
                    0.40922183957819697,
                    0.09426952988004378,
                    0.10796589828071819,
                    -0.1796620110434845,
                    -0.17338767968851643,
                    0.03392407322136177,
                    -0.16813490824160332,
                    0.061006711288421146,
                    0.1619038347989397,
                    -0.12577356020874775,
                    -0.003232197895028843,
                    0.01152151284215379,
                    -0.10622003118039092,
                    -0.19104154951239571,
                    -0.1324542759877986,
                    0.08434191699832894,
                    0.10996500553607408,
                    -0.11985159201062716,
                    0.20198687797470102,
                    -0.0333024332037976,
                    -0.29829140250131564,
                    0.14877024425400073,
                    0.10749786378283467,
                    -0.032110674641681436,
                    0.403081257078105,
                    -0.02367240235600355,
                    0.2267288273142492,
                    0.04778929307740651,
                    0.2001312943637362,
                    -0.45761071258460617,
                    -0.061140091410334385,
                    -0.011896377077805517,
                    0.07294470768867099,
                    0.11383275945630295,
                    0.2503896849255361,
                    0.10530278102199431,
                    0.07542268668626462,
                    0.053542286738006865,
                    0.08977188178603743,
                    0.06711874898507011
                ],
                [
                    0.2390210224748758,
                    0.2536498412753038,
                    -0.2010289806667233,
                    -0.1411565034124945,
                    -0.15358748168080946,
                    0.12477437241071299,
                    0.40004953507880336,
                    0.12780382610928487,
                    0.17823194628336406,
                    -0.44663672298124685,
                    0.6233130788827869,
                    -0.12240854147822214,
                    0.33290590073177206,
                    -0.08378900816365475,
                    0.020753755267095556,
                    0.17507271457957466,
                    -0.13728567934154165,
                    -0.10845704353397642,
                    -0.027086904113971997,
                    0.010997325407257638,
                    0.10905719817770493,
                    0.07877726873691199,
                    -0.2977326011498506,
                    0.243375893349078,
                    -0.18985145972954726,
                    0.11088233310493036,
                    -0.28681021580917576,
                    -0.04446823620884932,
                    0.16274764544637885,
                    -0.21645227947222437,
                    -0.43032224020217535,
                    0.05172077406573367,
                    0.02952547958156719,
                    -0.2720513182972354,
                    0.1897598054458557,
                    0.040770100044549853,
                    0.11577556314945502,
                    0.2885876136594321,
                    0.39371088570594465,
                    -0.39980103932245137,
                    0.3549772362873331,
                    0.1952698745857883,
                    -0.12932927709937458,
                    0.27076634214140277,
                    0.15897552322223588,
                    -0.042335179199297926,
                    0.3286535802423627,
                    0.16070314679780096,
                    0.3454378626265647,
                    -0.19581239288130906
                ],
                [
                    -0.1625183888322128,
                    0.16221068357270726,
                    -0.24732646137548817,
                    -0.25081536386652464,
                    -0.40025034562225703,
                    0.19104400732185353,
                    0.3694746075933292,
                    0.36184642271267703,
                    0.21336639326542475,
                    -0.1929638045475705,
                    0.21399238247884578,
                    0.11201565176782774,
                    0.1516328838138603,
                    -0.07181790715245452,
                    -0.43693611959099976,
                    -0.00794589223855391,
                    -0.16565995749596574,
                    -0.14656096363392404,
                    0.1919572332266094,
                    0.4236528690643124,
                    0.033852721816809005,
                    -0.2426742376995037,
                    -0.060666284201756536,
                    -0.3564580256523021,
                    0.1512705213523514,
                    0.17954471851294207,
                    -0.1555544879671869,
                    -0.04970933701654672,
                    -0.22545650950993357,
                    -0.10101370503237178,
                    -0.32313789298202417,
                    0.34555852963495864,
                    -0.2575523495368594,
                    -0.24630113310576024,
                    0.09701411173515222,
                    -0.19519760606731376,
                    0.09553087079507305,
                    0.14494261021124663,
                    0.14049629738574987,
                    -0.06683250332204416,
                    0.22218177271268313,
                    0.08424446582471354,
                    -0.027185874186741076,
                    0.2432327525929405,
                    0.2026430963614935,
                    0.2265758852465329,
                    -0.1168708813985897,
                    -0.07555177947477662,
                    0.12472091176879138,
                    -0.22807983443772284
                ],
                [
                    0.06863989269217978,
                    -0.19877514935566232,
                    -0.007866504260699092,
                    0.07517371287554943,
                    -0.3199307625290797,
                    0.09460563798573281,
                    0.26654290431348826,
                    0.04437377886264154,
                    -0.1355078527695094,
                    -0.0580626171238645,
                    -0.018284977970962218,
                    -0.0826848115617432,
                    -0.5864270831818693,
                    0.2718298512355109,
                    -0.027793121885883086,
                    -0.02282494733967084,
                    0.17784327678623454,
                    0.013037958261158096,
                    -0.06793465009634844,
                    -0.013120077695094753,
                    0.09875971545954493,
                    0.10472441583403391,
                    -0.07254700095203129,
                    0.15302038871141896,
                    0.15610693622431585,
                    -0.06675945986679047,
                    -0.22232290086270748,
                    0.0793420250112078,
                    0.09164748155268201,
                    -0.10423560915237977,
                    -0.07417804752604017,
                    0.13141063116783624,
                    0.013307674747310285,
                    0.20766703822895682,
                    0.08066836385580095,
                    0.4027083428811435,
                    0.12103429321462858,
                    -0.14037674992627314,
                    -0.037777454636951154,
                    -0.03129367061489991,
                    -0.2548801445049416,
                    0.14977077436194358,
                    0.026072560168640457,
                    0.009610132687554862,
                    -0.07871220183164117,
                    -0.18138751110238124,
                    -0.019888187718858103,
                    -0.1279636051197067,
                    -0.003551019552176787,
                    -0.19784987225721573
                ],
                [
                    -0.3519298809944274,
                    -0.01623801249863789,
                    0.10000362391068798,
                    0.10950672421763952,
                    0.0438040602954089,
                    0.24248765152192953,
                    -0.17716936591381557,
                    0.1689682937865358,
                    -0.2140210678501975,
                    0.03506062123539648,
                    -0.17883058517297934,
                    -0.08802382236797153,
                    0.265266549642011,
                    -0.11516421846281757,
                    -0.05253644584645746,
                    0.13394115607925053,
                    0.12323434057227249,
                    -0.26192547619119727,
                    -0.01142510003294936,
                    0.1732095051162903,
                    0.00905299877421719,
                    0.2898036896764412,
                    0.3458624863349281,
                    -0.13945978402591397,
                    0.15130760165459384,
                    -0.4058942414749617,
                    0.07699141383442135,
                    -0.1836776605820091,
                    0.1895406218670356,
                    -0.07846229241960073,
                    0.3181854647507572,
                    -0.2105452449795496,
                    -0.012351193130820018,
                    -0.08048120164218167,
                    0.049252583030056925,
                    -0.17889151467974412,
                    0.08606116123535958,
                    -0.14919356095125486,
                    0.3640881706804857,
                    -0.02668220938861392,
                    -0.17323847319722208,
                    0.06447741525497627,
                    -0.06663466937293534,
                    0.026361445698028715,
                    -0.11493749933205874,
                    0.0701380822305038,
                    -0.0035684411807411875,
                    0.04477757846171702,
                    -0.22825720523525952,
                    -0.04783570558885286
                ],
                [
                    0.3582529749649297,
                    0.33718549616244736,
                    0.018450998513239517,
                    -0.11991542403081701,
                    0.16440511290570303,
                    -0.0026759724950908867,
                    0.07333933544128639,
                    0.26829592256463497,
                    0.0637360222470296,
                    -0.15244945121451878,
                    0.07141719264377905,
                    -0.04377361943663884,
                    -0.12269553969686357,
                    -0.05230705873146745,
                    -0.12745728027227765,
                    -0.03230512117134838,
                    -0.36135704139633046,
                    -0.10138352389701671,
                    0.09273033517846135,
                    0.027296693584373775,
                    -0.007284174826021845,
                    0.06088388195095942,
                    -0.27993827143645184,
                    -0.12146952658221699,
                    -0.061781645621174816,
                    -0.07032894844015825,
                    -0.406204552636507,
                    0.005573449970752686,
                    -0.2949860727640788,
                    -0.36284755744955344,
                    -0.3841082376781275,
                    -0.051926119164138675,
                    -0.31266190513782416,
                    -0.29449672378621006,
                    -0.07854499794192234,
                    0.011699263992387157,
                    -0.1538312792622637,
                    0.26349442800825307,
                    0.14593863722079425,
                    0.05826705954649973,
                    0.08587479775854642,
                    0.11242022575225727,
                    0.02610810738157089,
                    0.25172865972384306,
                    0.01816007505102005,
                    0.19103373242385613,
                    0.2709562051260841,
                    0.301307178838728,
                    0.24826674574929616,
                    -0.2542510159244677
                ],
                [
                    -0.03299107336702147,
                    0.020328637053258308,
                    -0.07409602837808493,
                    0.04120988307067606,
                    0.03447361775502637,
                    -0.013559057785299927,
                    -0.04464814095113775,
                    -0.013366443999342616,
                    0.0016380511058399134,
                    -0.007727211001225931,
                    -0.11107342667366885,
                    -0.0189613444097442,
                    -0.20723259150171744,
                    -0.3391752038275387,
                    0.026761772065374317,
                    -0.21501859882604588,
                    0.34002219333669254,
                    0.1318075735306832,
                    0.20688263068254706,
                    0.13236289826128436,
                    -0.03344583641593885,
                    0.09230172302410654,
                    0.10603620780826137,
                    -0.25423480617410893,
                    0.14402989088297424,
                    -0.16679408664437753,
                    -0.20919644707052992,
                    0.12397616815124564,
                    -0.10448321389708004,
                    -0.15855296829982068,
                    0.255724004648514,
                    -0.3365698398148554,
                    -0.12540771357898986,
                    0.21478900081543673,
                    0.4872049479179993,
                    0.02625648237100017,
                    0.16001969833877078,
                    -0.1851871805873798,
                    0.3649175676437098,
                    -0.10703947549262251,
                    -0.5147928872117571,
                    0.017489607421437913,
                    0.052402986950567505,
                    -0.16717003383480233,
                    0.040908803683381435,
                    0.2371928055133179,
                    -0.24703478082508595,
                    0.08025194360777711,
                    -0.21628238730780439,
                    0.28567024986428763
                ],
                [
                    0.18546773111903803,
                    -0.01738281827509764,
                    -0.08254860507830059,
                    -0.08363922496856316,
                    0.05963775518877226,
                    0.04666461945171324,
                    0.32693087896563183,
                    0.5522218282751126,
                    0.13711881254881586,
                    0.03689770233869774,
                    0.1819849051963757,
                    -0.023434477833545287,
                    0.09121485718002423,
                    0.1913865259991709,
                    0.02438845916853103,
                    0.05013026828428666,
                    -0.15309168905581494,
                    0.2682134374248947,
                    0.28862688387509217,
                    0.2674536144040759,
                    -0.19448141358416457,
                    0.2679029900579209,
                    -0.37803481942135564,
                    0.11364927790221323,
                    0.030681699065008936,
                    0.08957031966677123,
                    -0.1780967206739668,
                    0.2509341622858407,
                    0.06911010626785348,
                    -0.07971423640693648,
                    0.24154307231113953,
                    0.3158679090903292,
                    -0.058056707788629695,
                    -0.11409397215803281,
                    -0.3903614297419502,
                    -0.23727140877454483,
                    -0.004371271563476045,
                    -0.08558034803739094,
                    0.021665164610536435,
                    0.29902177335248603,
                    0.2137185976744266,
                    0.02748935093320781,
                    -0.2610711121570442,
                    0.2948846592398517,
                    0.029635632370141943,
                    0.3919531909251575,
                    0.07539698686538797,
                    0.37266185954462183,
                    0.18961243152017737,
                    -0.11308808040331221
                ],
                [
                    0.12157534398267542,
                    0.19607506903513794,
                    -0.1485563524457802,
                    -0.30064451024080674,
                    -0.4087682002080169,
                    -0.07592806135773145,
                    -0.05022566405541318,
                    0.11072464499512197,
                    0.05622800659528548,
                    -0.060883497189791316,
                    0.09043442829225982,
                    0.1782938358164987,
                    0.06727136289667336,
                    0.21368852836183905,
                    -0.3258350758466035,
                    -0.3251141510787241,
                    -0.2606830007481797,
                    0.06351967939366969,
                    0.011577789616492374,
                    -0.07283460892333359,
                    -0.3256268425928842,
                    -0.1708077279835851,
                    -0.15930754121632854,
                    -0.2903465250111224,
                    -0.0012974597545924082,
                    0.06719163038847405,
                    -0.1475793985412571,
                    0.11180995082823042,
                    -0.15264208221717218,
                    0.10524974220041054,
                    -0.013124509442099851,
                    -0.00817122284849897,
                    -0.11782492396349593,
                    -0.2440846767526665,
                    0.20321123774581584,
                    -0.154505973451026,
                    -0.13061893675681463,
                    0.221260687127639,
                    0.1616554839922602,
                    -0.07376250259979786,
                    0.029375606046462492,
                    -0.0024926951074645634,
                    -0.08953773150725662,
                    -0.05764749586292193,
                    0.4068147202850671,
                    0.040474803839924314,
                    0.4513169184630637,
                    0.03747912430416744,
                    0.08421148388522144,
                    -0.19325071787352394
                ],
                [
                    0.11113041079456076,
                    0.16316801506968812,
                    0.09143771330109943,
                    0.21220630160500228,
                    0.2266089717035754,
                    0.16921686221711876,
                    -0.11023346340709812,
                    -0.2280373303265085,
                    -0.3143500708746432,
                    -0.17397665867452097,
                    -0.11625878525136377,
                    -0.25697574286883546,
                    -0.024609279911436556,
                    0.27212522578330517,
                    0.07176049236443334,
                    -0.34790344673492457,
                    0.22250280031901662,
                    -0.029968698317311582,
                    -0.13369253416309035,
                    -0.05169979945238063,
                    -0.19716117687298063,
                    0.004534739123485307,
                    0.17124004794014389,
                    -0.1946114621102839,
                    0.1010197446590269,
                    0.09813498457724731,
                    -0.08010878346799388,
                    0.15834250628485128,
                    -0.20572256136441205,
                    0.11965758598858434,
                    0.04343069880110838,
                    -0.05087506568231998,
                    0.10498735552535118,
                    0.07125879547818158,
                    -0.35442390365239995,
                    -0.1980773714604687,
                    -0.21693481601724113,
                    -0.056712996592974414,
                    0.11644899511758848,
                    0.20091926938513327,
                    0.10411866880117994,
                    0.019068854765027926,
                    -0.13371835385156974,
                    0.1682157589431575,
                    0.0009576262525784042,
                    -0.23662889214418892,
                    -0.12100704283535128,
                    0.1920093021666322,
                    0.20079067694886898,
                    -0.13255793709790886
                ],
                [
                    0.35555194050982686,
                    0.17135091460987048,
                    0.10468185051240016,
                    -0.20879210470966655,
                    0.4000449137220944,
                    -0.009186906684994424,
                    -0.14430524721056434,
                    -0.07891873312738931,
                    -0.018175846300625683,
                    -0.12865299977523176,
                    0.08674584732851437,
                    -0.025245012796715722,
                    -0.3277842354741446,
                    -0.1494301289453867,
                    -0.14842686669631214,
                    -0.142252155207935,
                    -0.06209079482675845,
                    0.030402569405018953,
                    -0.05894029921902766,
                    -0.024032886927157986,
                    -0.10746370029570339,
                    0.13387927057688095,
                    -0.03978077272068259,
                    0.3632428060122683,
                    -0.1601894469354159,
                    -0.0035084931297783627,
                    0.23557820768087406,
                    -0.2112291485272419,
                    -0.17173033191021442,
                    -0.18802479937288663,
                    0.013865274970550174,
                    -0.050855032928913226,
                    0.05267910874148146,
                    0.20975067621974183,
                    -0.21259518944344555,
                    -0.06013540195021341,
                    0.0831179280299506,
                    -0.4561469367612501,
                    -0.11244069946684164,
                    -0.07825827210655947,
                    -0.09442288695173587,
                    0.06107920625312525,
                    0.2353062344532256,
                    -0.10565722413943521,
                    0.40317970481229787,
                    -0.12430691687346566,
                    -0.004522412816912871,
                    0.041976080797802025,
                    -0.3064041556666857,
                    0.09064220156985667
                ],
                [
                    -0.01508076607534753,
                    0.028603628198488624,
                    0.19706101440944182,
                    0.011879730844073236,
                    0.20936676454366993,
                    -0.24617078608415072,
                    -0.05378654327715686,
                    0.22704818805008084,
                    -0.018140145020865257,
                    -0.19453184617267236,
                    -0.23020042831585277,
                    -0.14307971951569665,
                    -0.24678279484749366,
                    0.09605571518546833,
                    -0.48469726521290907,
                    -0.1480611999199826,
                    -0.22914466556940405,
                    -0.24998902432801032,
                    -0.11313838440173228,
                    -0.2199842249711822,
                    0.10823409999786632,
                    -0.13950220250641213,
                    -0.0885158690710495,
                    0.15183219708867884,
                    0.04987218026194166,
                    0.022181116932648744,
                    -0.0006052030386019008,
                    -0.21077866277667948,
                    0.05780352219465942,
                    0.40026765436162454,
                    -0.021294754752512614,
                    -0.18836720278886177,
                    -0.26632828498765765,
                    -0.3424479747216249,
                    -0.06208874442180747,
                    -0.08602799193471689,
                    0.19497899692069062,
                    -0.01665086138261325,
                    0.1104462335492078,
                    0.11838395117794269,
                    0.22223907976554272,
                    -0.05409292418089982,
                    0.19935424871776442,
                    0.07512487453655432,
                    -0.19568389901501151,
                    -0.18762391833062972,
                    0.07831158984348006,
                    -0.061004840712851824,
                    -0.42670333641300845,
                    0.056752284629658714
                ],
                [
                    0.03178358585231919,
                    0.052427170816668464,
                    0.2573634850292297,
                    -0.07154098225086292,
                    -0.2860737723211982,
                    0.12476027437984223,
                    0.03435134683540234,
                    0.12076801251367014,
                    0.13154633188445178,
                    0.0574750591008657,
                    -0.10751473753001525,
                    -0.0038058902789113954,
                    -0.0367492115006102,
                    -0.07407246214070935,
                    0.061592401623124994,
                    -0.014155520387915985,
                    0.022632351857215686,
                    -0.21459074648783355,
                    -0.04054279972068148,
                    -0.2002848139221882,
                    -0.17864420147434784,
                    0.2588548863296258,
                    -0.1952121748194722,
                    0.09288385451344444,
                    -0.300443444825722,
                    -0.005924244414577235,
                    0.17146173313328789,
                    0.15296824825119412,
                    -0.13976230982982735,
                    0.1385524830286418,
                    -0.0559243847249257,
                    -0.15658578779289925,
                    -0.22351430537007722,
                    -0.3807214219899622,
                    0.07903046698062445,
                    0.13138132342103076,
                    0.3267440508909635,
                    -0.05181894801081161,
                    -0.06756585056739982,
                    -0.10514506861069761,
                    0.09084770553129538,
                    0.047715319472399036,
                    -0.2541713667015771,
                    0.0975961847211011,
                    0.11793435845847611,
                    0.05787252918712111,
                    -0.030610989138012513,
                    -0.33086690589171647,
                    0.00447963594717179,
                    -0.033757220069889994
                ],
                [
                    -0.1297714024838305,
                    7.758583299448583e-05,
                    -0.018809492768808153,
                    0.01632851121529368,
                    -0.011087634987636203,
                    -0.09469045842336374,
                    -0.22753212327267808,
                    -0.2384358834078807,
                    0.05115673836977121,
                    0.07190148790832152,
                    0.027386700133787533,
                    0.06363776990767667,
                    -0.027683256447659208,
                    0.3502415244215916,
                    -0.0033562345522901316,
                    0.011626509062080499,
                    -0.03476602837172333,
                    -0.06014902045020212,
                    -0.21873159313102766,
                    0.12337189114397862,
                    -0.06136055818591752,
                    0.1213363667730635,
                    0.21638224120594649,
                    -0.008854522158871319,
                    -0.09807554877260541,
                    0.04835114832772403,
                    0.11752233159521865,
                    0.10024288790069197,
                    -0.23916519735745406,
                    0.3038059759218386,
                    -0.10394862002536726,
                    -0.27383346432711814,
                    0.13797626075575325,
                    -0.04292255651252017,
                    0.021802647770333153,
                    0.06443191322424432,
                    0.30029213898559104,
                    0.019373552905888564,
                    0.06509803736722333,
                    -0.05687064655334821,
                    -0.1382226129642963,
                    0.14996539882050347,
                    0.14392026276139908,
                    0.24974597507417057,
                    -0.15293682915083484,
                    0.06168056137645713,
                    0.1365608497529529,
                    -0.32487977658470296,
                    -0.27742279377193807,
                    0.11671939908222387
                ],
                [
                    0.0021022236746415244,
                    -0.1291702101239687,
                    0.19574199151782198,
                    -0.15738223529781156,
                    -0.24563344486599695,
                    0.005100145407124444,
                    -0.0004959843784613678,
                    0.1589057013971044,
                    0.02568323465580316,
                    0.21617348919999324,
                    -0.22138016089926224,
                    0.1404296632129999,
                    -0.199712179765457,
                    0.1922216327146118,
                    0.03315167011173877,
                    -0.0022890576806183197,
                    -0.020106767572243996,
                    -0.013039609440575858,
                    -0.08949460714874477,
                    -0.26296913776779757,
                    -0.11209465534475523,
                    -0.10972817991100695,
                    0.08080540726133677,
                    0.09039199092696411,
                    -0.05947702004867491,
                    0.060186680323426806,
                    0.10298862032407874,
                    -0.07616909268658394,
                    -0.4371097652093535,
                    0.041939236177931834,
                    0.32307347254909274,
                    -0.12462523238505206,
                    0.16428294211787717,
                    -0.10153267933539112,
                    -0.11556308465362564,
                    0.4195132177698844,
                    -0.022746993130321806,
                    -0.18371895993734033,
                    0.18820497185302787,
                    0.06699911934697744,
                    0.05853831898235843,
                    -0.353919005823454,
                    -0.022567871183754654,
                    -0.018525536217298133,
                    -0.04272726168442046,
                    -0.19348090221051192,
                    -0.06558214144278568,
                    0.24079205595272105,
                    -0.11840761176399422,
                    0.149506711560358
                ],
                [
                    0.40845412740655357,
                    0.09486354213029684,
                    -0.23832613722009796,
                    0.19226217089067266,
                    0.11834803973991638,
                    0.20589477932854353,
                    -0.08173146277651822,
                    0.207077941344461,
                    0.1648388189220027,
                    -0.14279084079519636,
                    0.49886522974280284,
                    -0.06725982084861427,
                    0.3420623810582581,
                    -0.2898207954185069,
                    -0.4034856601352312,
                    0.04388481893576015,
                    -0.2608804695163355,
                    -0.01962658953012769,
                    0.3302298001638886,
                    -0.174591114276528,
                    -0.16078738035203863,
                    0.04834754312915684,
                    -0.4299519363779207,
                    0.004165071444601918,
                    0.038868538611531535,
                    0.16206336363479015,
                    -0.24087380854594256,
                    0.33614248915642164,
                    -0.0670420931001961,
                    -0.2226808588065891,
                    -0.504083710869381,
                    0.026158403216833187,
                    -0.2566025077347126,
                    -0.44763428893539337,
                    -0.12996343785076142,
                    -0.35794174874303947,
                    -0.47723904997419,
                    0.26270928791783604,
                    0.2905500509427916,
                    0.013426377810460202,
                    0.20489827039784425,
                    0.10276994276173962,
                    -0.5293603628888964,
                    0.1796089921192382,
                    -0.151035952084355,
                    -0.0948730871631673,
                    -0.18074616545114347,
                    0.19182838705016828,
                    0.6518824835214276,
                    -0.2914740112259405
                ],
                [
                    0.3348378230575361,
                    0.16434203860893398,
                    0.13270558995429513,
                    0.19688293233609255,
                    -0.4161852263735801,
                    0.2594624064841416,
                    0.19189742068278545,
                    -0.12968503597989597,
                    0.16396032518934098,
                    -0.3703184162832477,
                    0.15402243216583153,
                    0.28252656585713365,
                    0.059899707344503665,
                    -0.21832588258592756,
                    -0.16778545900838207,
                    0.08480960774123178,
                    0.008502613294153106,
                    -0.04442171278977626,
                    0.058251701067808116,
                    -0.0982757295006736,
                    -0.009565295287974186,
                    0.2977193257799629,
                    -0.020119699108449983,
                    -0.08739536152564058,
                    0.256947989396247,
                    0.04977423948832138,
                    0.1486757114453255,
                    0.07495576162482538,
                    0.15786761399276733,
                    -0.1889451481839517,
                    -0.17361653275232025,
                    0.39353332362543914,
                    -0.3390918942838062,
                    -0.10087227555630204,
                    -0.1392271117328077,
                    -0.09164129409505226,
                    0.10310031451012151,
                    0.49510090692907116,
                    0.12134978330722986,
                    -0.27050010409599096,
                    0.05706810735525651,
                    0.20324316441677995,
                    -0.13286106969837586,
                    0.2556330756809332,
                    0.3295303494416022,
                    0.23765268618423632,
                    -0.1502368712871497,
                    0.017389829973890387,
                    0.12849446174779833,
                    -0.47073817466746803
                ],
                [
                    0.25694368658764766,
                    0.06843581019113013,
                    -0.2360201299788866,
                    0.04362178610333712,
                    -0.2000785513254828,
                    0.3539656965302376,
                    0.272217566392591,
                    -0.13414029685974704,
                    0.1251993827414849,
                    -0.27725419765650244,
                    0.3197733357259342,
                    0.24011871796243883,
                    0.2593582538664528,
                    -0.06891281977005394,
                    -0.24050055845469565,
                    0.07571232453415548,
                    -0.12969824354055157,
                    -0.2192223882420131,
                    0.3119454125614171,
                    0.006707726326310413,
                    -0.5707000227317802,
                    -0.43012468839137036,
                    -0.3600176850784723,
                    0.3193583896605699,
                    0.2052567180877946,
                    0.1530554407777289,
                    -0.23502366311365175,
                    0.10419042246682916,
                    0.05559733944104145,
                    -0.24467243765731653,
                    0.030961138105529355,
                    0.4642208088973694,
                    0.06077047573811269,
                    -0.28612102907877934,
                    -0.06722112471596187,
                    -0.1973402308771091,
                    0.17767711455442098,
                    -0.16223558854979375,
                    0.29685827802983633,
                    -0.2157793533746316,
                    0.21297180986294725,
                    0.11652064866761618,
                    -0.1353257837540363,
                    0.39685230757769824,
                    0.17729716632680348,
                    0.24459579756727448,
                    0.21096509937925637,
                    0.04508648235909968,
                    0.41252158504979036,
                    0.021747748419582796
                ],
                [
                    -0.056075024252550364,
                    0.05893035692974923,
                    -0.24177649850252333,
                    0.039765223119154355,
                    0.0018538681178960638,
                    0.49440655459664185,
                    -0.025551896301852152,
                    0.03972254502960874,
                    0.3284236591410566,
                    0.03551537955319252,
                    0.026813517547118734,
                    0.24349983418801746,
                    -0.058401418063048646,
                    0.13217234240142273,
                    -0.07424425684009726,
                    0.3452904188348047,
                    -0.4632093884905865,
                    -0.23137300660045437,
                    0.27211040294793293,
                    -0.17598827066252462,
                    -0.21542921752996846,
                    0.18029407051444632,
                    -0.315072119921167,
                    -0.06984804697144442,
                    0.033050273328838614,
                    -0.18853712740456088,
                    0.2513225965907912,
                    -0.09201144712130448,
                    -0.39646370133363135,
                    -0.18480803325117592,
                    -0.28262264288936867,
                    0.3157534493109215,
                    0.060539960671188574,
                    -0.43352778117791235,
                    -0.23406228458488268,
                    -0.3556262995449932,
                    0.516612799877895,
                    0.06570816873195741,
                    0.35126847429859537,
                    -0.033276105401899306,
                    0.16726345905240317,
                    -0.16737478139826098,
                    -0.10097734542219271,
                    0.3598757831302948,
                    0.12304615088305099,
                    0.14697335622022617,
                    0.12715641662174876,
                    0.5998501041319759,
                    0.01044490151799574,
                    -0.03746367250591118
                ],
                [
                    0.15701674683426728,
                    0.18302121849498776,
                    0.2232949068216643,
                    -0.11378771770766791,
                    -0.1609932805577257,
                    0.06969844132554401,
                    0.16413141379151122,
                    -0.1792560032791568,
                    0.04767274929001357,
                    -0.10438935962896946,
                    0.3167740849507234,
                    0.3294462668306601,
                    0.015711520947364187,
                    0.18979200559242573,
                    -0.36218213929610166,
                    -0.062483008126343074,
                    -0.30770770896263483,
                    -0.09319383802129047,
                    0.22937524144361093,
                    -0.10214104645567579,
                    -0.044504454650034275,
                    0.3614388267000592,
                    0.0006367339516268545,
                    0.5286512358389736,
                    0.007953350048437183,
                    -0.2914242215515164,
                    0.010491379279930393,
                    0.010669696057682875,
                    -0.28893175528042697,
                    -0.22989794118192527,
                    -0.3847977049995201,
                    0.45384030820920085,
                    -0.344932344524894,
                    0.25737723139020446,
                    -0.0880952446252755,
                    -0.06593182633272394,
                    0.1116331710284499,
                    0.23188930970138516,
                    -0.2885563923408543,
                    -0.0003362226555594415,
                    -0.28170082422495896,
                    0.12324741289265766,
                    -0.1363832676580134,
                    0.010194828016994105,
                    0.2760205792938283,
                    -0.2916147834892602,
                    0.02424138889241126,
                    0.1622979545704046,
                    0.08563093509911558,
                    0.27615384080595334
                ],
                [
                    0.16160704202666248,
                    -0.1306795447385721,
                    -0.1946652064116886,
                    -0.04394964903844287,
                    0.13150704613381237,
                    0.19516810741102045,
                    0.1342247056797145,
                    0.14748115798164246,
                    0.13077976076984002,
                    -0.00809617716815701,
                    0.153629247799224,
                    0.41172206273098017,
                    0.19368813790782397,
                    0.1820332213215492,
                    0.045562294184092106,
                    0.16484462416373508,
                    -0.3595596883493616,
                    0.03439769562491975,
                    -0.04996906125617732,
                    0.34683029084771183,
                    -0.024489173586021803,
                    0.06133735699864235,
                    0.1911787191040192,
                    -0.1291828947491974,
                    -0.22752729979393804,
                    0.13169886633086447,
                    -0.0014476871503511885,
                    0.18327294419816478,
                    -0.07838202417570037,
                    -0.029430575501471677,
                    -0.20124405629276257,
                    -0.14748779541154303,
                    0.05640529286117145,
                    -0.08439301359112586,
                    -0.26981187914641475,
                    -0.3741044517449346,
                    -0.13673197352225655,
                    0.1229850819176255,
                    -0.13075184287333083,
                    0.024120942168375833,
                    -0.14431407447294808,
                    0.013934377520769176,
                    0.0298691645870387,
                    -0.05586523971176385,
                    -0.06411655099759701,
                    -0.19695760952093533,
                    0.23223559046900535,
                    0.007610164032239245,
                    0.0978160771652282,
                    -0.4329628104259242
                ],
                [
                    -0.016051675970029544,
                    0.09530100937194043,
                    -0.019350791368279774,
                    -0.0010951737898628386,
                    -0.3898198566411691,
                    0.04746774646338965,
                    0.09456105609181836,
                    0.15161941695285372,
                    0.17667178388466284,
                    -0.299998079926478,
                    0.11183561913002399,
                    0.1873119040882726,
                    0.14485712150590083,
                    -0.156067035919269,
                    -0.2767499578343137,
                    0.06850351780967938,
                    -0.20782236994999953,
                    -0.12674071698845032,
                    0.2880695109550904,
                    0.04324108071425221,
                    0.01607630226420303,
                    0.11966222845820995,
                    -0.328714870367042,
                    0.16497147663843964,
                    0.019823764863053473,
                    -0.2260317228166835,
                    -0.07414992695175374,
                    0.13466466992243362,
                    0.03137306311443217,
                    -0.21713423132377732,
                    0.03552009671696975,
                    -0.004688610419915062,
                    -0.17386861019633568,
                    0.06370019412258467,
                    0.05935501542181388,
                    -0.09381055654585393,
                    0.40798355695063304,
                    0.026963023795203565,
                    -0.2842409773701645,
                    0.002005280403095447,
                    0.05956787092094788,
                    0.013720621327741739,
                    -0.2319519654660786,
                    -0.05090281728373772,
                    -0.03562423280944755,
                    0.13090047742997316,
                    -0.16188107951164277,
                    0.21502083642422162,
                    0.022089512543946598,
                    -0.11303587174086703
                ],
                [
                    0.4329979106098432,
                    0.05798916268502968,
                    -0.21619893472162,
                    -0.051857416674141316,
                    0.06432623821800122,
                    -0.1782317604652005,
                    0.2375711662100328,
                    0.04395210625963092,
                    -0.10161753805758966,
                    -0.3878983033231929,
                    0.1152449107598981,
                    0.15415286480735596,
                    0.06011156899746283,
                    0.1672096994787226,
                    -0.3907410977592093,
                    0.025090748981938346,
                    -0.21580405684288417,
                    0.009084545586510517,
                    0.0422105526462659,
                    -0.0028981044950451102,
                    -0.42826671870751204,
                    -0.042818035004028344,
                    -0.4321357682838852,
                    -0.10397634356057207,
                    0.09791169003875315,
                    0.08642674812126849,
                    -0.3336770961441138,
                    0.3876541666929447,
                    0.10951558630669497,
                    -0.22265942408677095,
                    -0.3755424769169647,
                    0.3392543291191066,
                    -0.25900581491767444,
                    -0.25878149645779186,
                    0.04017107600459883,
                    -0.2764455064039958,
                    -0.25666222847749554,
                    0.14079846480069852,
                    0.30459234415432923,
                    -0.006425368839689004,
                    0.10828855593840132,
                    0.42169821954349834,
                    -0.34753036686229566,
                    0.5129096699517665,
                    0.062155588266287407,
                    -0.15510044263318432,
                    0.19926871936271054,
                    0.3512728154908493,
                    0.2718425507713835,
                    -0.1313314507902267
                ],
                [
                    0.24781913758329904,
                    0.1259141518870685,
                    0.12229973291562911,
                    0.07395032427141637,
                    0.09290666147652984,
                    -0.04396674101898813,
                    -0.03294960368929381,
                    -0.1279675731014017,
                    0.18857786490868678,
                    -0.15524900703650774,
                    0.009184263710490395,
                    -0.006748993215069048,
                    -0.026550320304581796,
                    -0.43240684317505806,
                    -0.26504490597159497,
                    0.0924999382517885,
                    -0.39918151344240665,
                    0.16977642314311428,
                    0.15998358237554622,
                    -0.09523679095603438,
                    -0.0800789789499022,
                    -0.02180710853391057,
                    0.03317345526843481,
                    0.07713629794236762,
                    0.22765241763785438,
                    0.33046445784094247,
                    0.13150215803555554,
                    0.015390054180952394,
                    0.0664468397082604,
                    -0.07105780503080726,
                    0.028441223069166167,
                    -0.3733598027813108,
                    -0.3549310925933613,
                    0.35540711431900424,
                    0.0647193457046254,
                    0.19046088076281306,
                    0.2512798947374174,
                    -0.06586848307305908,
                    -0.07115219279634795,
                    0.019761899417132238,
                    0.0964261021162612,
                    -0.1545358344806967,
                    -0.3530025623425739,
                    0.1752581369503911,
                    0.22020281316961504,
                    -0.24381177007586566,
                    0.027711490893257397,
                    0.47791325364562204,
                    -0.04725718060590677,
                    -0.07319899317267697
                ],
                [
                    0.03740718289992358,
                    0.29187514559744415,
                    -0.1435729993613555,
                    -0.18994210316294807,
                    0.29721233749188464,
                    0.1157616211382785,
                    -0.19388355829779486,
                    -0.07439761687891837,
                    -0.12668347458943335,
                    0.16133669870461473,
                    -0.19698832902706365,
                    0.18588191647156177,
                    0.22742564491677514,
                    0.10021086076355457,
                    -0.15643459636768717,
                    -0.021553402845065288,
                    0.2863964954359808,
                    -0.13189209861229198,
                    0.08509626225398047,
                    0.2909860337566316,
                    -0.10697229492512036,
                    0.16666854473773304,
                    0.3893081917636901,
                    0.1987294347503213,
                    0.0300825577097453,
                    0.056877024959559166,
                    -0.1816383422855106,
                    0.1440588898690023,
                    -0.02394584021740228,
                    -0.33011475445296135,
                    0.045346683193011904,
                    -0.14427272510605363,
                    0.05421182048581165,
                    0.36323117299236235,
                    -0.16764247173894406,
                    0.01205387410465876,
                    0.10496901493033482,
                    -0.051865747241546564,
                    0.20610425782298641,
                    0.15294472397237768,
                    0.010799172335327201,
                    -0.05477568337992019,
                    -0.1811319762266562,
                    0.29129740571911994,
                    0.01028595574237018,
                    0.16632056468893963,
                    -0.03749414113574231,
                    -0.0668421742606655,
                    -0.20295403575833243,
                    -0.10416751386111472
                ]
            ],
            "bias": [
                -0.22391971074819564,
                -0.05931780349816695,
                0.10507437073242089,
                0.015239835807092619,
                0.047210831575353614,
                -0.04263343594311462,
                -0.1284060616816758,
                -0.0603339294299244,
                -0.051521448975935774,
                0.39628336020562066,
                -0.23208693110658157,
                -0.07821592513311697,
                -0.020795134041694332,
                0.0024514787359641204,
                0.4429705931321031,
                -0.0032433636281744903,
                0.27932446098528296,
                0.023930538719193404,
                -0.1555910933529061,
                -0.005270317136596021,
                0.17526127599743138,
                0.008103380626512236,
                0.1099814853731281,
                -0.02364968352739823,
                -0.004055767417540066,
                -0.03608947716744168,
                0.06850625449379609,
                -0.08887568812794978,
                0.013632622413729692,
                0.1470209564042974,
                0.27865255339537026,
                -0.12335889422514092,
                0.12962179854495356,
                0.09829942553848965,
                0.006253399870980421,
                0.13018067168157313,
                -0.06066158900907604,
                -0.04013708501168441,
                -0.10334481697870615,
                0.020795415267324358,
                -0.03943506375340674,
                -0.03303959190633998,
                0.1870100742441505,
                -0.1775303239815993,
                -0.05619653662184825,
                -0.02789720980002696,
                -0.01630934362103496,
                -0.09970893345901849,
                -0.24786527930293809,
                0.13120115183783745
            ],
            "input_size": 30,
            "output_size": 50,
            "lr_rate": 0.0001
        },
        {
            "layer": "Sigmoid"
        },
        {
            "layer": "Affine",
            "weights": [
                [
                    -0.04482980510626697,
                    -0.14244649598929074,
                    0.1683761051670142,
                    0.16977162942970306,
                    0.3362633763116214,
                    0.08335621169418377,
                    0.35098591559019304,
                    -0.3033518449884148,
                    -0.3338227127989405,
                    -0.06282457837966664,
                    0.09744801260674076,
                    -0.1193297002584333,
                    0.09449570184798817,
                    0.27780187411476764,
                    -0.06338215130108966,
                    -0.10194057868355699,
                    0.013796845344757556,
                    -0.3671684126472895,
                    0.21176397158509724,
                    0.29630031481151575,
                    0.2562812056168874,
                    -0.10299851445016107,
                    0.047917957360187266,
                    -0.25669043013685855,
                    0.1569406674399953,
                    -0.1419397560248919,
                    0.08787149317709939,
                    -0.03370733621640402,
                    -0.036201526876737895,
                    0.03087091646669319,
                    0.10885256249993584,
                    -0.20603890573261843,
                    -0.3683219648059515,
                    -0.023581791306152948,
                    -0.0732741719195626,
                    0.20237519280312327,
                    0.32656983399487505,
                    0.11229854251284335,
                    0.11223406273128378,
                    -0.04579591354334118,
                    -0.07793908067992009,
                    -0.0005515713377884895,
                    -0.020856521916053365,
                    -0.0727553015525577,
                    0.17007846120961295,
                    -0.05685050733898634,
                    -0.15417555534571978,
                    0.08474153961990587,
                    -0.09739334410660053,
                    0.08580826081707076
                ],
                [
                    -0.011216601779978148,
                    -0.11371118511479236,
                    0.022891442043470513,
                    -0.06873428501337794,
                    0.10149867201065202,
                    0.19977690232333586,
                    0.12045938417445391,
                    -0.05863254348139575,
                    -0.477369725720043,
                    -0.012271392543318736,
                    0.19053264171480436,
                    0.0619907583731048,
                    -0.16922675344008137,
                    0.026161156776059732,
                    0.15451661973473435,
                    -0.1526163933496148,
                    -0.06504452116602343,
                    0.12913451082931765,
                    -0.020200276193686067,
                    -0.003461746607601536,
                    0.18518557544103165,
                    0.08892659718254135,
                    0.3019968522494633,
                    -0.034663150197251344,
                    0.28201360314523843,
                    -0.008461365343826518,
                    -0.09965617660670435,
                    -0.1533026705091659,
                    -0.23042334963649874,
                    -0.12324678242147304,
                    -0.16858502743225143,
                    0.0285925585127487,
                    -0.09419718870664365,
                    0.3380568583056794,
                    -0.17259544211557243,
                    -0.05557696829375949,
                    0.15953756636146135,
                    0.06718649815648553,
                    0.14745372433354778,
                    -0.09826555082503403,
                    0.1178557807053638,
                    -0.18691326721091586,
                    0.2350807309004483,
                    -0.15028182950960575,
                    -0.24971235925240712,
                    0.013084082339744913,
                    -0.03807153698941371,
                    -0.15785763207961598,
                    -0.043174107372232956,
                    -0.1731176922397547
                ],
                [
                    0.380885990617076,
                    0.12612465070427695,
                    0.01263038106275121,
                    0.2527733966756719,
                    -0.30833669985003714,
                    -0.19443887473234878,
                    -0.21125816115386553,
                    0.14677287465962904,
                    0.24461069927484827,
                    -0.32826586334696495,
                    0.1789054310199511,
                    -0.13104868454164897,
                    -0.19252215308590917,
                    -0.000436052074196936,
                    0.045382140297731806,
                    0.2170576032909607,
                    0.06207605378845232,
                    0.395876915871114,
                    -0.20290477038795374,
                    0.1003001542731656,
                    -0.007684483902500388,
                    0.03806881348150486,
                    0.02776852750863406,
                    -0.18179680970437972,
                    -0.041690908122090475,
                    -0.19084026290190115,
                    0.04891903573570195,
                    0.13237174006864225,
                    0.16649733974025618,
                    0.043804313008826916,
                    -0.023274729736202437,
                    0.4053283592452984,
                    0.11767366692619692,
                    -0.2073585741405552,
                    -0.015934944272984336,
                    -0.11904136936802978,
                    -0.13648106552822534,
                    0.2126363488575027,
                    -0.007136461133638295,
                    0.10043490314243608,
                    -0.15606648162607417,
                    -0.06953160943103522,
                    -0.12395450199795029,
                    -0.03505870288028438,
                    0.10898796115283417,
                    0.15289065176084488,
                    0.1048535521425715,
                    0.03374584880102097,
                    -0.3259388132081038,
                    -0.11274698124892532
                ],
                [
                    0.08140761108261722,
                    -0.09926680544317014,
                    -0.06969144643173272,
                    0.03006491657996242,
                    -0.15152477851817805,
                    0.029239385639705982,
                    0.11010999172504378,
                    -0.025227088421526794,
                    -0.015236340476505838,
                    -0.025007491399027734,
                    -0.13186648505219692,
                    -0.13807504191609501,
                    -0.14493377166556434,
                    -0.3357080650435476,
                    0.10990830642684847,
                    -0.05066711357582488,
                    0.21101154187625948,
                    0.28298386409742143,
                    -0.051726559587134305,
                    0.2920778517379778,
                    0.1263168410161213,
                    -0.2723650240583141,
                    0.0350079583900523,
                    -0.05652486673890561,
                    0.08887215373453411,
                    0.031757300182175124,
                    -0.04256036191181555,
                    0.0742937948582606,
                    0.15764290440545625,
                    -0.04581142215417587,
                    -0.39973532074139595,
                    -0.01167581360475685,
                    -0.08311329082946092,
                    0.1468278362381854,
                    -0.27207477342159386,
                    -0.26394448725966896,
                    -0.061411397875222005,
                    0.024153636547271345,
                    0.1004460560407125,
                    -0.09080290953352455,
                    -0.31617955051974383,
                    0.11482090509892373,
                    -0.07689939011104573,
                    -0.031152066357714087,
                    0.16810132526806212,
                    0.02606706145042949,
                    -0.15537564007353805,
                    0.14052246608377364,
                    -0.3073841158394532,
                    -0.03852805339957562
                ],
                [
                    0.2523956147729373,
                    0.2539185496965823,
                    0.0076049588024577055,
                    -0.028871156570150564,
                    -0.15320777009181305,
                    -0.12219555487533452,
                    0.09111568841433619,
                    0.10138641532892988,
                    0.3116229415402793,
                    -0.12299701910696635,
                    -0.0033248347201333627,
                    0.13864695032104127,
                    0.12401347603820656,
                    0.12197129191191883,
                    0.2561535490790989,
                    -0.1008436588789415,
                    0.003116880828959958,
                    0.32074243183879947,
                    -0.04373469047097283,
                    -0.08681977908609662,
                    -0.04658612608443751,
                    0.01856938592493479,
                    -0.11024084477270489,
                    -0.06539472622365569,
                    -0.11643427188567808,
                    0.05239387535011174,
                    -0.14256491375807684,
                    -0.055704789746635376,
                    0.15284245612323352,
                    -0.1367294054481139,
                    -0.2302000117034012,
                    -0.12771629907912363,
                    0.15715177274242173,
                    0.2548440125973665,
                    -0.23055322614154128,
                    0.04604406400844027,
                    -0.27752377209024853,
                    0.06226789086887878,
                    0.06541808595391863,
                    0.011459742546963407,
                    -0.02148968913392365,
                    0.2475633026164714,
                    0.10091511179284578,
                    0.17952850551821428,
                    0.0130346345327511,
                    0.039493767809924515,
                    -0.06300583286232321,
                    -0.07374402968454442,
                    -0.06654895599096791,
                    0.08633489808118158
                ],
                [
                    -0.1756042276488241,
                    0.023611959001272654,
                    -0.1110043020831451,
                    -0.16031522767684958,
                    0.1709980382933574,
                    -0.03987754192365464,
                    -0.1476637685522671,
                    0.015466646071873638,
                    0.18347279676144318,
                    -0.17260420525942688,
                    -0.03521891834929638,
                    -0.04926405498795674,
                    -0.00035770317227651696,
                    -0.22731906920005465,
                    -0.05990910532559261,
                    -0.17120672208182053,
                    0.1777129050277364,
                    -0.30453717381112955,
                    -0.06666609523455919,
                    -0.10886880393839397,
                    0.09328458961742003,
                    0.31694141360806366,
                    -0.018961880264433212,
                    0.18408574316601764,
                    -0.12254840417548342,
                    -0.03858979195205133,
                    0.06422262406106122,
                    -0.09468369290021907,
                    -0.3139743308016343,
                    0.008619279523581208,
                    0.17409122622586656,
                    -0.2084309107136025,
                    0.20886900112751944,
                    0.11903142096745323,
                    -0.10522083820944235,
                    -0.0058662586212514896,
                    0.04763738077456799,
                    -0.15253546040942387,
                    -0.026006542476872237,
                    0.0070018612950441626,
                    0.17353784566432562,
                    -0.3569174180400458,
                    -0.03892406019711254,
                    -0.1119453193496592,
                    0.08925001993789446,
                    0.07905834140806686,
                    -0.13065265052839756,
                    0.06095178843081928,
                    0.023827389328727303,
                    -0.036104810253845994
                ],
                [
                    -0.3960020704199873,
                    -0.17620945091423368,
                    0.13101489284207238,
                    -0.0032089226705490593,
                    0.10424484245869498,
                    -0.23965563300945236,
                    0.17066176749254827,
                    -0.11948608749778172,
                    -0.26359459674159985,
                    -0.0652777662142596,
                    -0.09678950092272129,
                    0.05813736999839274,
                    -0.1948773185886227,
                    0.02785150294298736,
                    -0.06371746883924537,
                    0.044630252355025546,
                    0.15250649537343122,
                    -0.36897706010681147,
                    0.3787654888347707,
                    -0.03098941228774088,
                    -0.09753863617881102,
                    0.15611181865363266,
                    0.03534974064388279,
                    -0.07583814730610788,
                    0.15055269253130235,
                    0.2475381826048512,
                    -0.0025701277770165476,
                    -0.2828836976033706,
                    0.07233920391004954,
                    -0.18555478344053217,
                    -0.06903108391441225,
                    -0.05533301178542541,
                    -0.3335263277873635,
                    0.11494959957538627,
                    -0.2778121124511255,
                    0.13805050493169907,
                    -0.04623344592879241,
                    0.012868117499239405,
                    -0.1168155294871904,
                    0.015804247431508624,
                    0.013294806772377191,
                    -0.1066642234272429,
                    -0.15948646527487406,
                    0.02612462874123315,
                    -0.2719627202646525,
                    -0.17266073761396006,
                    -0.1671982529452801,
                    -0.30448023851278316,
                    0.139675691487942,
                    0.02926364998909834
                ],
                [
                    -0.29813309811897143,
                    0.06519973683700206,
                    0.0054757521157244565,
                    -0.21303343368363395,
                    0.01035379712356966,
                    0.287524773530646,
                    0.11380159298214913,
                    0.13089306019196853,
                    -0.34847919761759766,
                    -0.23272415985698694,
                    0.035302110997928196,
                    0.1225698568911901,
                    0.04012373478977082,
                    -0.00306920465727902,
                    0.049488753558568584,
                    -0.033755462880061295,
                    -0.15051711305237891,
                    -0.07034375839787281,
                    -0.0006247980961107952,
                    -0.058966201531618016,
                    0.2397604951937361,
                    -0.06273836445395452,
                    0.0691295270710989,
                    -0.22735831390323474,
                    0.11006778728400096,
                    -0.0541566574634943,
                    -0.23753409328204422,
                    0.13466254494532198,
                    0.02256997897358413,
                    -0.07769307128092806,
                    0.005932906167008082,
                    -0.2354292187372589,
                    0.05197573159377391,
                    -0.12351652700194919,
                    0.11940780840702248,
                    0.10732257444061179,
                    -0.0011288348811897971,
                    0.29677309022744547,
                    -0.1050267008879007,
                    0.12415160791765095,
                    -0.05699230622503423,
                    -0.014268934589744285,
                    0.10607950471293512,
                    -0.03900874454973303,
                    -0.03247425000452961,
                    -0.03841215541181214,
                    -0.2168310350491292,
                    0.14387405832050562,
                    0.13138650545617467,
                    0.23099305288293787
                ],
                [
                    -0.03114558000018261,
                    -0.019870424989492895,
                    0.10340502450123676,
                    -0.2511514375045634,
                    0.008192048109255718,
                    -0.05520391208919693,
                    -0.32435512946338313,
                    -0.17898960953618454,
                    -0.03324511022753318,
                    0.0294486058408514,
                    -0.07067795339863674,
                    -0.2530035871816895,
                    0.06661478297846489,
                    -0.06814289950826487,
                    -0.01977992078191004,
                    -0.31078074677556633,
                    0.17792944285378368,
                    0.007575393730185694,
                    -0.02749156527315943,
                    -0.03983233221344501,
                    0.20351060229867302,
                    0.018217964659127995,
                    0.05156298088969447,
                    -0.2101138129726649,
                    0.2557208698660007,
                    0.24054637527409298,
                    0.026295255281747573,
                    0.16268645652446045,
                    -0.20397402990356162,
                    0.05629574710450322,
                    0.1369876266368589,
                    -0.16362429676945073,
                    -0.06329601730875271,
                    0.13641805267119805,
                    0.01583736022243926,
                    0.07157561949931136,
                    0.0165848601491852,
                    -0.0750767603220715,
                    -0.32592505088717877,
                    0.03482543075776648,
                    -0.027233319904702853,
                    0.15881631758008657,
                    0.1146264056110059,
                    0.1298516788833654,
                    -0.07563128507620076,
                    -0.02669080478519877,
                    -0.11179962205156128,
                    0.19111136619039873,
                    0.1468536808412241,
                    0.23217305649245065
                ],
                [
                    0.5239440579549227,
                    0.11967614046768742,
                    -0.10752161027795648,
                    0.0035860008216101035,
                    -0.40118883423215423,
                    -0.10194757952386184,
                    -0.032923570451798584,
                    0.685935628069858,
                    0.4097153941585329,
                    -0.08223271476151145,
                    0.0530483414923291,
                    0.05809265451592197,
                    0.07700165153024807,
                    0.16436383491230927,
                    0.26773641799257525,
                    0.05059126071341743,
                    -0.16019556298140786,
                    0.3407723672966605,
                    0.00336847708241855,
                    -0.2195055426643003,
                    -0.034830060116841706,
                    -0.06843004055868396,
                    -0.0891123498979897,
                    0.07910393044243,
                    -0.14551078821177948,
                    0.0835588771295437,
                    0.16583764046132732,
                    0.02151471746712368,
                    0.2513828103998512,
                    0.04432603356216262,
                    -0.28936404068468297,
                    0.2799449700302955,
                    0.40310741508507025,
                    -0.20812438842267364,
                    -0.13930587959609148,
                    -0.2539772773099123,
                    -0.03880642132265285,
                    -0.3428201186861624,
                    -0.06742748416907585,
                    -0.11950597383512152,
                    -0.0029046706895479303,
                    0.12955144454776144,
                    -0.296492437630201,
                    -0.16137423928182176,
                    0.05459869928989529,
                    0.24090252546322477,
                    0.42794486300151,
                    -0.01732203306501211,
                    -0.07731132765723847,
                    0.12504736790551607
                ],
                [
                    -0.4066633517330172,
                    -0.01656290065767958,
                    0.06253973353369535,
                    -0.18917308481133058,
                    0.16905537739149143,
                    0.2932762194124281,
                    -0.224902620123086,
                    -0.17150198167211772,
                    -0.10179006598053694,
                    0.31015997580486726,
                    -0.03054756451314255,
                    -0.10722258391693826,
                    -0.17287533405256036,
                    0.006887671722804198,
                    -0.2812776878569079,
                    -0.03679916285055667,
                    0.03665881649314083,
                    -0.14980213915956545,
                    0.052124350695649156,
                    0.028132995596781816,
                    0.25536040614606975,
                    -0.013719511549099232,
                    0.23694620175998787,
                    -0.18971985623496354,
                    0.1268448237003322,
                    0.05660479299916226,
                    -0.016471678405366154,
                    -0.22194936974988475,
                    -0.2517744769353802,
                    0.14362458813041107,
                    0.25246822434877,
                    -0.12623250415818682,
                    0.05503137950880601,
                    0.16707192892206038,
                    -0.046654298618188816,
                    0.0037427350506044725,
                    0.13634306603738375,
                    0.21134832956833624,
                    -0.2653357051136341,
                    0.0665185344225158,
                    0.08047287466029014,
                    0.05028274931828576,
                    0.15018395277831445,
                    -0.11019573207279193,
                    -0.21029327164742115,
                    -0.2923627226054591,
                    -0.48705205127035883,
                    0.35463685192260114,
                    0.09326200873751019,
                    0.05592401425431388
                ],
                [
                    -0.12779769285937118,
                    -0.05857587262301208,
                    0.057438843244434455,
                    -0.2031557259841691,
                    0.16423485548282493,
                    -0.005234103870784818,
                    0.06645908577782622,
                    -0.12713994019245145,
                    0.005243846718376016,
                    0.06770899354682403,
                    -0.24240174688357327,
                    -0.07731504057125314,
                    0.13671185352247847,
                    0.0010187891169356864,
                    -0.0020457705617177102,
                    -0.07552774920176257,
                    0.1515929531295201,
                    -0.18757201894253314,
                    0.17840775562460465,
                    0.022787429051643146,
                    -0.07797736195006653,
                    0.06363105967704083,
                    0.059870035315293474,
                    -0.13054480518407632,
                    -0.26988113638313854,
                    0.0876443523983748,
                    0.12332573263678998,
                    -0.008558895011234949,
                    -0.2146600998115828,
                    -0.018193739963492935,
                    0.15097189877302739,
                    -0.20893595441549334,
                    -0.1757782478702518,
                    -0.021480082074220103,
                    0.13855566398585586,
                    -0.12153832916540172,
                    -0.1856013800714985,
                    0.04721384605623595,
                    0.16006142208180738,
                    -0.1702162895499669,
                    0.10811511449286998,
                    0.05301375476100816,
                    -0.01735034330862008,
                    -0.03254038837692658,
                    0.017325388081137167,
                    -0.05831730060632878,
                    -0.21826569431611628,
                    0.22365246307602613,
                    -0.21891394462629024,
                    -0.04998454051234934
                ],
                [
                    -0.1889321516628772,
                    0.10222808543543044,
                    -0.08958268736531252,
                    0.0670702814396208,
                    0.08571402729504604,
                    -0.038132774571385177,
                    -0.2202080630908435,
                    -0.049228252386451773,
                    -0.32488018396578794,
                    0.03719665939268589,
                    -0.030501407487565597,
                    0.07951475413910283,
                    -0.09636863576144643,
                    0.0845488375233627,
                    -0.08323880446377271,
                    0.018586691925936004,
                    -0.1272915038206402,
                    0.03687554791225432,
                    0.10505637853433199,
                    0.052339197986142706,
                    0.13560918809239086,
                    -0.3522068247175426,
                    0.1095267523976151,
                    0.287486808271965,
                    -0.17058557523043807,
                    0.0762327888343046,
                    0.2621682548475055,
                    -0.04760989572109291,
                    -0.08964672982758388,
                    0.12248451482281997,
                    0.020544718026037728,
                    0.11526154710348713,
                    0.011997561356790785,
                    0.03783712174995491,
                    0.09184520363314419,
                    -0.16744141337131388,
                    -0.04205765323362247,
                    -0.1261743029797936,
                    0.06553493082035108,
                    0.051429349603497744,
                    -0.019882802618887058,
                    -0.07491309903313652,
                    -0.08727075137156803,
                    -0.04561982145993404,
                    -0.2366506305207627,
                    -0.1673378289595319,
                    -0.14630578049531273,
                    -0.155543439630974,
                    -0.0018563233644882013,
                    0.06406138184612013
                ],
                [
                    -0.04387164439929803,
                    0.2588189560484797,
                    -0.11942952719995248,
                    -0.04424778286936696,
                    -0.3643581330726244,
                    0.2229314447821903,
                    0.14784372047364885,
                    -0.22115001879648383,
                    0.1854658143253175,
                    -0.031231203735096708,
                    0.12266113720953963,
                    -0.26898366241135374,
                    -0.18623456360260002,
                    -0.12703625659507223,
                    0.10695833305432441,
                    0.07668249625549134,
                    -0.16309729628861694,
                    -0.018558738764349113,
                    -0.09441895927765835,
                    0.021993586323629136,
                    0.2234460474115064,
                    0.015443707603753527,
                    0.00471779346746329,
                    0.06981094085993024,
                    -0.05030332516086843,
                    0.2398992013855788,
                    0.09497667070233058,
                    -0.030894929189621105,
                    0.07990402596881876,
                    -0.01829787741304801,
                    0.17109575217874196,
                    -0.2536784124552267,
                    0.18290215258237058,
                    0.040334949043057476,
                    -0.057685663281945576,
                    -0.14290029451241165,
                    -0.035160515663942606,
                    -0.11867348052425832,
                    0.09119136689388418,
                    -0.11851044626932361,
                    0.49373664822850083,
                    -0.019471312653054202,
                    -0.10885626257026254,
                    -0.09023742246098265,
                    -0.07820850145940275,
                    0.10684129494486856,
                    0.16847855589853178,
                    0.033141090501849095,
                    -0.15034009253528044,
                    -0.043337558726289305
                ],
                [
                    0.4176550012488069,
                    0.33592251074613716,
                    -0.1754860897454594,
                    0.26166585928507,
                    -0.35316449074852524,
                    -0.22215779909118266,
                    -0.09238157145813992,
                    0.6521935553857635,
                    0.49887240729221216,
                    -0.17333912487325637,
                    -0.013408036748533463,
                    0.051647572969614426,
                    -0.06025182962715829,
                    -0.1241557000786164,
                    0.0023089768176910368,
                    0.1617529773885941,
                    -0.12274599245491033,
                    0.1941452033152858,
                    -0.005561627625198988,
                    -0.24861703189376919,
                    -0.10263726476987314,
                    -0.02418387245582981,
                    -0.02514781117271386,
                    0.1550129136443928,
                    -0.359666040890522,
                    0.11684373485496805,
                    -0.053810752972596784,
                    0.0671309513231892,
                    0.5714746154143976,
                    -0.16899179992458224,
                    -0.20105766108299414,
                    0.27777025775090486,
                    0.24546202873551912,
                    -0.2615392744521004,
                    0.11586162043496967,
                    0.010493577058515715,
                    -0.2698152944685937,
                    0.08620414903347706,
                    -0.0702222824157648,
                    0.11548728305014891,
                    -0.05043844547778201,
                    0.24818720632118185,
                    -0.35890458119779134,
                    -0.046667931349856306,
                    -0.15980966975053632,
                    0.08559067839179642,
                    0.4630923054848795,
                    -0.13248979591583399,
                    0.16373722183883646,
                    -0.2652764049136156
                ],
                [
                    0.04726930303195472,
                    0.08721032790062923,
                    -0.10405417761801926,
                    0.019626394817202103,
                    0.12336162817636973,
                    0.21471736280612352,
                    0.21037664708756693,
                    0.18506264983833634,
                    -0.14888235707191355,
                    0.14716420540031724,
                    -0.058553228325385606,
                    -0.09524774155102336,
                    -0.10499829428751273,
                    -0.07708529644743753,
                    -0.08140563641590498,
                    -0.29990615510852664,
                    0.10183016106456494,
                    0.21129979179209268,
                    0.14562854118597052,
                    0.10084393322130132,
                    0.07426679182089795,
                    -0.0003044513371048813,
                    0.2090085466674646,
                    0.06406452746462492,
                    0.0826386647729174,
                    -0.09928864296893503,
                    -0.05201930568778886,
                    -0.15868835861256197,
                    0.03224673048915701,
                    0.09356973617846698,
                    -0.10242307717819088,
                    0.2549733899721558,
                    0.07827934688404616,
                    -0.15402279651334172,
                    0.1462711869958341,
                    -0.10476808849129338,
                    0.047030005762359516,
                    0.0017284371713011898,
                    -0.16611728958538674,
                    -0.020253508320368884,
                    0.007119162962681973,
                    -0.05308292399728625,
                    0.2243334446520695,
                    0.013749527939411905,
                    0.2858572889259514,
                    -0.10298716113669754,
                    -0.05087612652576356,
                    -0.008833722155423355,
                    0.03476808798021082,
                    0.054956649954535565
                ],
                [
                    0.5445408964604815,
                    0.2534482694419615,
                    -0.2494405265474832,
                    0.06065223172057403,
                    -0.2221743537409304,
                    -0.17023505485640322,
                    0.0008314971509867311,
                    0.3470615105259855,
                    0.3842931342624718,
                    -0.11019379746521833,
                    0.06781788235422032,
                    0.06119770347118947,
                    -0.20948195279397885,
                    0.27781847618419403,
                    0.2577967172204019,
                    0.35826032821935316,
                    -0.17904101941559938,
                    0.5526877695316396,
                    -0.2922449556060236,
                    -0.09724355136749473,
                    -0.12501226022203146,
