{
    "params": [
        {
            "layer": "Affine",
            "weights": [
                [
                    0.32338844625391233,
                    0.22591895101382917,
                    -0.44903186514548266,
                    -0.019692557072142628,
                    0.03672250684183554,
                    -0.06663234586872133,
                    0.14904000590373326,
                    0.10688372639258971,
                    0.09640586478241084,
                    -0.1356751374387728,
                    0.20173712260877288,
                    0.3020366305481507,
                    -0.17069949677979915,
                    0.20042615878815692,
                    -0.06730180235122492,
                    0.10918439521055488,
                    -0.34002829371000054,
                    -0.06321335668193856,
                    0.40967796295585873,
                    -0.18156630856975514,
                    -0.44357591148540565,
                    -0.3098500472705354,
                    -0.09110255557511937,
                    0.46853158272587536,
                    0.23936612168157023,
                    0.38205618840599315,
                    -0.11358432538900386,
                    0.352397427005459,
                    -0.09086344547320435,
                    -0.020758219236096283,
                    -0.19176401389040876,
                    0.047098711618861346,
                    -0.07492535689372784,
                    -0.23109122063743529,
                    0.1996595197376356,
                    -0.10953916700139202,
                    0.17515941834087956,
                    0.017953375806482184,
                    0.27797105978733083,
                    -0.18060606885995587,
                    0.2762948438081949,
                    0.02557062163357395,
                    -0.22913296028775357,
                    0.0492623005991104,
                    -0.05650898774423012,
                    0.028882715290120663,
                    2.1666341411031894e-05,
                    0.19246294320536814,
                    0.2094045040293254,
                    -0.1761366710880502
                ],
                [
                    0.07084245710695425,
                    0.12699838110389822,
                    -0.2466538669198522,
                    0.10466549894975398,
                    0.06975989756908307,
                    0.09131247786519668,
                    0.5205929293376951,
                    0.24150296073801408,
                    0.06463784207083606,
                    -0.16681654231797693,
                    0.06487365474789474,
                    -0.024247675810083125,
                    0.2276354866931674,
                    -0.13562699380123813,
                    -0.12026200486579117,
                    -0.07901033721774628,
                    0.06019574592163512,
                    -0.3408758371584164,
                    0.04490097526589089,
                    -0.02741780478277824,
                    -0.03494065539507784,
                    0.0781663025565341,
                    -0.1822053303959877,
                    0.20787678659130193,
                    0.08832780049587613,
                    0.5136864622263028,
                    -0.3942860321331644,
                    0.19373814985176965,
                    -0.23618771765222854,
                    -0.273340631291058,
                    0.22560466484952701,
                    0.43623000137078516,
                    -0.43911445226127954,
                    -0.17949391395157843,
                    -0.05020392168598502,
                    -0.5281187889840898,
                    0.06120268570046744,
                    0.14337532820940238,
                    0.09503856804237902,
                    -0.4196252182747947,
                    0.3226962207797391,
                    0.11046934093024836,
                    -0.08642073462979762,
                    -0.02653447286717903,
                    0.20367376007355426,
                    0.22381153311456317,
                    -0.04186838932048101,
                    0.12754384132104557,
                    0.24927490353574389,
                    -0.49515707191017344
                ],
                [
                    0.10340808692155636,
                    -0.2516894039786049,
                    -0.3368341585752776,
                    0.06780394221190894,
                    -0.10288844358076374,
                    -0.007541442840054895,
                    0.047928420353587804,
                    0.2429596653002597,
                    0.22559596504863064,
                    -0.2497099108190369,
                    0.17802486018933436,
                    -0.002823635160731282,
                    0.44378710525502174,
                    -0.12135275357591349,
                    -0.16823918342778998,
                    -0.035304806694077186,
                    -0.214036725654522,
                    -0.06261512447956007,
                    0.19074934296221924,
                    -0.2789039765719679,
                    -0.18797081629822895,
                    -0.23202601884620602,
                    0.08502601386607014,
                    0.48361630957204005,
                    0.28695917054621933,
                    0.1408268937125342,
                    0.05400064489537653,
                    0.12899714195641326,
                    0.2611996567554957,
                    -0.011507018277716262,
                    -0.1860747089411234,
                    -0.056717344690712,
                    -0.21684996894074274,
                    -0.08823513195225406,
                    -0.2630604036034212,
                    -0.1869980005644501,
                    0.34845858962472354,
                    0.08560854639546925,
                    0.411667135223649,
                    0.21755689786653684,
                    0.1051214702534276,
                    -0.15745149892294452,
                    -0.06643233667674096,
                    0.05309373454506392,
                    0.1603869018139918,
                    0.3632513219701759,
                    -0.14236770769008364,
                    0.0662823140522257,
                    0.16921997906523192,
                    0.056424953203028455
                ],
                [
                    0.19055042590473922,
                    0.16921522115162121,
                    0.08079783643574799,
                    0.07181014027592476,
                    -0.11994325070345786,
                    0.07405569087500628,
                    -0.02282848744383674,
                    0.18500238643437494,
                    0.2652920773028206,
                    -0.6817676287834863,
                    0.3584087198521072,
                    0.07361130775926658,
                    0.09169996684885554,
                    0.13190575389335932,
                    -0.5667493289441452,
                    -0.19265906099658217,
                    -0.21279274460014277,
                    -0.22816487195700663,
                    0.1932965956481868,
                    -0.0797959075858038,
                    -0.40695124596639337,
                    0.1185292033784832,
                    0.05913094293160606,
                    0.1354329149948101,
                    -0.09801203408383585,
                    0.02642432333402667,
                    -0.029584051394061228,
                    0.20878681590728207,
                    0.1441242336155604,
                    -0.19415375153960035,
                    -0.4210282985051286,
                    0.025384201255568246,
                    -0.01143612398816369,
                    -0.007018434686509531,
                    0.36940456127668897,
                    -0.1269000259793899,
                    0.14382839071944195,
                    0.045549244949862566,
                    -0.019764210006019037,
                    0.09698187207833879,
                    0.21149238437025986,
                    0.04780736087916245,
                    -0.2724622411266952,
                    0.12334771863185562,
                    0.01736463273255632,
                    0.2937825964686267,
                    0.23099694093480286,
                    -0.05136156706047399,
                    0.33632797960953653,
                    -0.25797693899124663
                ],
                [
                    -0.004969828313242871,
                    0.24123850976747543,
                    -0.2293038219870167,
                    0.022897496364258335,
                    -0.22855936955054493,
                    -0.3391604579334764,
                    0.18276002579238285,
                    0.026790986533004348,
                    -0.12120988501249137,
                    -0.2128521889725994,
                    -0.08994162773558301,
                    0.25402600864554836,
                    0.07307618191343171,
                    -0.06704960904992659,
                    -0.03211381329585953,
                    0.029308990146284863,
                    -0.25732494996007005,
                    0.2125269757542985,
                    0.10518653500050558,
                    0.2192708130126314,
                    -0.09544034683436249,
                    0.15886079038269385,
                    0.09017484437334272,
                    -0.2717527734061252,
                    0.041773946672869655,
                    0.08152308787480037,
                    -0.14109716152851148,
                    -0.04909851086987597,
                    0.0621658325442424,
                    -0.012582456502473333,
                    -0.16026637514703884,
                    0.13249443402992606,
                    0.04068974620249334,
                    0.004157915197543044,
                    0.0005890309175761796,
                    0.055294474571429234,
                    -0.0295576583699526,
                    -0.13347116232879613,
                    -0.1394995096128509,
                    0.1843814819581471,
                    -0.31291101124242626,
                    0.12451678128002043,
                    -0.23320569562113355,
                    -0.2901301543067422,
                    -0.16240240603289777,
                    -0.024343109304004948,
                    0.15421398333790495,
                    -0.28294504001930704,
                    0.28649708705763594,
                    0.18922899555390782
                ],
                [
                    -0.01632871332503574,
                    -0.0076397115658918425,
                    -0.240698486820301,
                    0.10569609173347704,
                    -0.005670679912417336,
                    0.2858864904519479,
                    -0.09091160795730399,
                    0.1402521230855849,
                    0.03492891126625011,
                    -0.14407759285614805,
                    0.376108857817962,
                    0.07886447256254664,
                    0.10114507404897506,
                    -0.17558775689942074,
                    -0.11159852457633303,
                    0.03352192038640292,
                    -0.11869847158990042,
                    0.07193898182790973,
                    0.1361340121708065,
                    -0.12220371748072151,
                    0.028142958580614767,
                    0.014710877188745992,
                    -0.0754908740100188,
                    -0.19450464901839748,
                    -0.13664120637527827,
                    0.0759586662617143,
                    0.13284774437536037,
                    -0.13681931191780233,
                    0.20900682984996438,
                    0.004997312582369043,
                    -0.24682653222937415,
                    0.12259696935564449,
                    0.14284926957300387,
                    -0.009741115841123013,
                    0.4079573321948214,
                    0.007777770682943529,
                    0.21898975733385026,
                    0.035076786758858725,
                    0.18754251105805614,
                    -0.4477853525447309,
                    -0.07286206044041661,
                    -0.0200532097249108,
                    0.11202101374122884,
                    0.08606083682119979,
                    0.23871177060254856,
                    0.09931227662684057,
                    0.07171245907277898,
                    0.03225833559431609,
                    0.0536413470009964,
                    0.10145157237367333
                ],
                [
                    0.23615541538184565,
                    0.2552608137763842,
                    -0.20369902288219002,
                    -0.14293638676485293,
                    -0.15580981262554106,
                    0.12679101844478313,
                    0.39902635028301353,
                    0.13224383546639187,
                    0.18156705803730544,
                    -0.43977960265747584,
                    0.6215303259426395,
                    -0.12283297055122751,
                    0.33413656032251493,
                    -0.08593450390565482,
                    0.02892156185529874,
                    0.1757007404264246,
                    -0.132544912010517,
                    -0.1132537772153934,
                    -0.027889000609766675,
                    0.009728377656547936,
                    0.10991483264852599,
                    0.07760151649479842,
                    -0.30199437579174904,
                    0.24448784715447994,
                    -0.18842460151328894,
                    0.11313942159545703,
                    -0.289258324234609,
                    -0.04420460313591029,
                    0.15964244940188863,
                    -0.21386689526765698,
                    -0.4227822272477979,
                    0.0503767475509446,
                    0.033071026885848696,
                    -0.27949147906442956,
                    0.1871765148014809,
                    0.039261738022667914,
                    0.11777812480663957,
                    0.2908734991029721,
                    0.3973127658291053,
                    -0.4032078358736654,
                    0.35989465535626,
                    0.19653221984334707,
                    -0.12343807051608731,
                    0.27066357040538996,
                    0.16081353227785658,
                    -0.0393420375457703,
                    0.3303307631080015,
                    0.16231711902916232,
                    0.3418332033038674,
                    -0.1960476944699628
                ],
                [
                    -0.15137977838600292,
                    0.17066558764925746,
                    -0.2675607530210211,
                    -0.25634896077462965,
                    -0.41432531583736004,
                    0.19851390280761377,
                    0.3793089531736095,
                    0.3726391559898426,
                    0.22595865183947692,
                    -0.20691586877617174,
                    0.22880495787838545,
                    0.12002851165856451,
                    0.15743024598793975,
                    -0.07769793287605309,
                    -0.4513577427545282,
                    -0.006626250976764464,
                    -0.183733996985484,
                    -0.15968016085854098,
                    0.20520833061106622,
                    0.4194619908596853,
                    0.017297468184307375,
                    -0.24623179469351186,
                    -0.08304194486086744,
                    -0.35286069762342764,
                    0.15623600052491765,
                    0.188215257472165,
                    -0.1717134539803083,
                    -0.03946298601529997,
                    -0.2345367819945612,
                    -0.11625429232350129,
                    -0.34075887787652165,
                    0.35857503498828747,
                    -0.26907610595777604,
                    -0.26900907987196504,
                    0.089827360449532,
                    -0.2147269209921877,
                    0.10188004706918034,
                    0.15583779215101295,
                    0.15153069637143043,
                    -0.07757513217856378,
                    0.23678119397841627,
                    0.09097017372344886,
                    -0.03859942500874416,
                    0.25589845774952696,
                    0.211883646280919,
                    0.2348718565500094,
                    -0.1119439368113136,
                    -0.062378371420707464,
                    0.13988691499807607,
                    -0.24535027113946944
                ],
                [
                    0.07104790427555661,
                    -0.19269262452192368,
                    -0.021669097413562485,
                    0.07030149661794828,
                    -0.33009051842193926,
                    0.10010750555346916,
                    0.27076663962744557,
                    0.05342400259866296,
                    -0.12634422367990217,
                    -0.05648715749926198,
                    -0.012883146084212215,
                    -0.0785868160568614,
                    -0.5817689379637098,
                    0.266332151895744,
                    -0.0247985809891452,
                    -0.02174349932647824,
                    0.17270215503930084,
                    0.0022222191501457002,
                    -0.06141397068742509,
                    -0.016974878492476485,
                    0.08989425829959322,
                    0.10180936934096663,
                    -0.08818920387657296,
                    0.15605683806001136,
                    0.16009826856289286,
                    -0.06031151462927494,
                    -0.23340827173680875,
                    0.08509233862657033,
                    0.08376754030319589,
                    -0.10880677182334515,
                    -0.07932377983609051,
                    0.13843023216734646,
                    0.012154766442180097,
                    0.18960961194496717,
                    0.0740771484513007,
                    0.39060967849496425,
                    0.1252970488233091,
                    -0.13219755216990026,
                    -0.030395565546626185,
                    -0.04026776980785286,
                    -0.24280772705335182,
                    0.1548181309939779,
                    0.02517021861949438,
                    0.01392919347212375,
                    -0.07229552176610132,
                    -0.1745550288072653,
                    -0.015643243553084205,
                    -0.12025741189601379,
                    0.0029305141283565033,
                    -0.20513333638081704
                ],
                [
                    -0.3881199367506458,
                    -0.030318925266774155,
                    0.133487362278526,
                    0.11543562281025566,
                    0.0666332658419759,
                    0.23242029465627392,
                    -0.2031434382313288,
                    0.15749026510958658,
                    -0.23051980927108215,
                    0.09590903835004383,
                    -0.21809022796467983,
                    -0.106750210554487,
                    0.256821637408256,
                    -0.10987189835098414,
                    0.01674169705022938,
                    0.13314693576559644,
                    0.18051525591471354,
                    -0.2479231309000821,
                    -0.04264940239471821,
                    0.1777056654888964,
                    0.04624954553791826,
                    0.29389086667418896,
                    0.38285534685236666,
                    -0.14377232734244766,
                    0.1457857365002907,
                    -0.41656478462581886,
                    0.10516134389525443,
                    -0.20429341344184873,
                    0.19870928777248031,
                    -0.032743787200732226,
                    0.3780840199365691,
                    -0.24206599555891342,
                    0.02844829376347149,
                    -0.0527651056082859,
                    0.055810262500791935,
                    -0.14093201699010746,
                    0.07686348399202313,
                    -0.16501222188220827,
                    0.34874743636664207,
                    -0.014427739788451912,
                    -0.18855248843004438,
                    0.05428362906600015,
                    -0.02138627428243522,
                    -0.006042289356316849,
                    -0.12933450007158057,
                    0.06194617986600115,
                    -0.008579331497699476,
                    0.019050193356314683,
                    -0.270778103847728,
                    -0.007427409809162946
                ],
                [
                    0.3830274895675939,
                    0.3511508836498377,
                    -0.014893080183126454,
                    -0.1278459446873728,
                    0.1409513713386429,
                    0.00907215435844199,
                    0.09297840907385359,
                    0.2826855149714027,
                    0.08255761729509256,
                    -0.1937680499203056,
                    0.10255020329395038,
                    -0.027545069808778185,
                    -0.11327590488211614,
                    -0.06044011251424028,
                    -0.17333005959860623,
                    -0.030690455043626764,
                    -0.40249420893266763,
                    -0.12058682141199618,
                    0.11728012730641568,
                    0.021214232713198163,
                    -0.03739667211905562,
                    0.0555864873210095,
                    -0.3144798215284906,
                    -0.11593340904487968,
                    -0.05467300398572991,
                    -0.0576648069335515,
                    -0.4314235329016966,
                    0.023124018243136514,
                    -0.30746482233917954,
                    -0.39620744227915244,
                    -0.42726469083557,
                    -0.02693542839880111,
                    -0.33903577654235806,
                    -0.32584053223371195,
                    -0.08837756134628007,
                    -0.021932753278684797,
                    -0.1429647257756207,
                    0.28046886414487227,
                    0.1629574318351284,
                    0.04202291015469205,
                    0.1061949067527841,
                    0.12339506600717119,
                    -0.003371145540560859,
                    0.27790167770569013,
                    0.03318840383758948,
                    0.20154192310994806,
                    0.27777053811041086,
                    0.3241744843846852,
                    0.27745459231206776,
                    -0.2864037553518693
                ],
                [
                    -0.03302670543404285,
                    0.022399990051577234,
                    -0.07929901456394979,
                    0.03941121003021731,
                    0.031029746446891295,
                    -0.011184955818224766,
                    -0.043659068746899884,
                    -0.010347151923186117,
                    0.005024054032000225,
                    -0.007773634880543382,
                    -0.1088955977037147,
                    -0.017140757617131023,
                    -0.20531825850834848,
                    -0.34130713857449596,
                    0.027104437307652232,
                    -0.21457822939880947,
                    0.3388510392649229,
                    0.12742975201365214,
                    0.20855096625980044,
                    0.13093066284343818,
                    -0.03531979978317098,
                    0.09114130922995319,
                    0.10217047390818304,
                    -0.25310724147806585,
                    0.14549208989548829,
                    -0.1644183533009356,
                    -0.21195954804972877,
                    0.12545197909310624,
                    -0.10720103013415314,
                    -0.16050213663367358,
                    0.25463840124048737,
                    -0.33487790973809745,
                    -0.12493693521800334,
                    0.20920735989257006,
                    0.4847858379945124,
                    0.021826841904747634,
                    0.16207245645835544,
                    -0.18229260980374826,
                    0.3681427646921151,
                    -0.1109140879500338,
                    -0.5103990166421168,
                    0.01933699613820146,
                    0.052980958539998124,
                    -0.16537051459577404,
                    0.04338618152823985,
                    0.23949342900829437,
                    -0.24547923310653408,
                    0.08286640599364381,
                    -0.21623824014261864,
                    0.2827607988835751
                ],
                [
                    0.19679629652907393,
                    -0.009965389693859147,
                    -0.10059787784607124,
                    -0.08820742561033529,
                    0.04707146329425738,
                    0.05345646481767354,
                    0.33620041925795474,
                    0.5601657440395138,
                    0.14762856096487506,
                    0.017880754508804223,
                    0.19774707880441966,
                    -0.014621340351961519,
                    0.09651250176010774,
                    0.18657851280801818,
                    0.0030144580244657274,
                    0.05118673442332171,
                    -0.17283414383642096,
                    0.25696385104000213,
                    0.30073286906576085,
                    0.26393543572733535,
                    -0.2092983015796226,
                    0.2648244094531895,
                    -0.3952179794253502,
                    0.1168899769479623,
                    0.03477819110430917,
                    0.09667876570364282,
                    -0.1907190326464603,
                    0.25977684904026443,
                    0.06193091045771372,
                    -0.09630283318720716,
                    0.22080064224107396,
                    0.32802784052033274,
                    -0.06927101801766314,
                    -0.13048402103219647,
                    -0.39623534832228424,
                    -0.2545516277787333,
                    0.0018374955986193776,
                    -0.07635774282164567,
                    0.030898933505929153,
                    0.2896074069812054,
                    0.22540809587186753,
                    0.03359560984070692,
                    -0.27446867288344623,
                    0.3081067447068333,
                    0.03788099558350284,
                    0.3978225487476055,
                    0.07940993406574846,
                    0.38459695850243136,
                    0.20215637154837887,
                    -0.12893157041101233
                ],
                [
                    0.142246669621724,
                    0.20740822982335752,
                    -0.17551057884583984,
                    -0.3069568443378311,
                    -0.4276790207372969,
                    -0.06657212062096145,
                    -0.03384882455406006,
                    0.1224084878804971,
                    0.07138841744131641,
                    -0.09451480389022063,
                    0.11578785720719942,
                    0.1913861391852631,
                    0.07480548720391278,
                    0.20726215709136117,
                    -0.36301584995651953,
                    -0.323841454692611,
                    -0.29444137400173537,
                    0.04836514506934157,
                    0.03192230858244036,
                    -0.07766411740025701,
                    -0.35037874165282257,
                    -0.17502381684253263,
                    -0.18784824825789528,
                    -0.28597726801344964,
                    0.004391582016086911,
                    0.07738950842680924,
                    -0.16862518188245118,
                    0.12633531755064,
                    -0.16261907032026277,
                    0.07760885968841873,
                    -0.048274497084124936,
                    0.012473387016942348,
                    -0.1402116839906412,
                    -0.26961653888649373,
                    0.19540864105130934,
                    -0.1821018366125382,
                    -0.1220855742838462,
                    0.23499894110533934,
                    0.17528483241410137,
                    -0.08662559251008657,
                    0.04563162725928485,
                    0.006344364082954772,
                    -0.11406938008411859,
                    -0.036348792644958064,
                    0.41894224626207155,
                    0.049096503513127575,
                    0.4567687712135802,
                    0.056201729868699514,
                    0.10889721588831162,
                    -0.21994484589104016
                ],
                [
                    0.10025528263826769,
                    0.16025396992298604,
                    0.09810204408750878,
                    0.21287264756990065,
                    0.23059636085662755,
                    0.16754150273514903,
                    -0.11677776058714634,
                    -0.23011697866132472,
                    -0.31740269350626316,
                    -0.1551813754363713,
                    -0.12658075389641404,
                    -0.26057288235666,
                    -0.025888843193135086,
                    0.2723716381894892,
                    0.09142763950538323,
                    -0.34789523554508617,
                    0.2371198053234892,
                    -0.02782549241335183,
                    -0.141301099616674,
                    -0.0512643239841263,
                    -0.1863784240871032,
                    0.004954621477949173,
                    0.18039747931688893,
                    -0.19531529113845378,
                    0.1003621687453923,
                    0.09612473067782398,
                    -0.07416096525524438,
                    0.1533226022358717,
                    -0.2044186900945719,
                    0.13036109182272115,
                    0.058596091838350364,
                    -0.05841125439091984,
                    0.11625423674035362,
                    0.0784149861394277,
                    -0.35396285090658774,
                    -0.1886150276045711,
                    -0.21859992431237782,
                    -0.05940233499277751,
                    0.1124325097491435,
                    0.20234821042423187,
                    0.10160660353563741,
                    0.017496357131259837,
                    -0.12162427744170352,
                    0.1596638532111088,
                    -0.0019337494932071546,
                    -0.23781267291814448,
                    -0.12151958663278634,
                    0.18625633893355817,
                    0.1886245264206793,
                    -0.12241884802186963
                ],
                [
                    0.30872879947932946,
                    0.1515023011507461,
                    0.1520971869639829,
                    -0.19943030966885558,
                    0.4321680937371823,
                    -0.02374907406612335,
                    -0.17801388705606047,
                    -0.09701700833959771,
                    -0.04271176263399206,
                    -0.052382003359655406,
                    0.03548949538913221,
                    -0.048989861127679356,
                    -0.3399277051029883,
                    -0.1406204445398922,
                    -0.06439939683637683,
                    -0.1435416379890058,
                    0.010915061332201909,
                    0.052229189370232305,
                    -0.10004751190049556,
                    -0.016855067237943826,
                    -0.05585266135958576,
                    0.13997559730162373,
                    0.013957678027028518,
                    0.3566255864242833,
                    -0.16861446709346914,
                    -0.01988454785682097,
                    0.2746513833687219,
                    -0.23943654470239087,
                    -0.15697744869043984,
                    -0.1318482364901296,
                    0.08981275829302714,
                    -0.0920515393735979,
                    0.10370275179388605,
                    0.2538979598644717,
                    -0.2019221763601621,
                    -0.007509289018493416,
                    0.06982925520358862,
                    -0.4789725464399317,
                    -0.13569268294419376,
                    -0.05918782309365544,
                    -0.11888949175241771,
                    0.04674185296576738,
                    0.29094787443627695,
                    -0.14791316365614832,
                    0.3826056894315634,
                    -0.13737583646564108,
                    -0.012333902780226912,
                    0.007252772477026074,
                    -0.3629484279750906,
                    0.14439109453454874
                ],
                [
                    -0.036854900433883744,
                    0.019778970019737347,
                    0.2196046243060293,
                    0.016165134111982005,
                    0.22411698360155233,
                    -0.2528547059574552,
                    -0.06949119112215299,
                    0.2192574938531905,
                    -0.029622574755070154,
                    -0.16072621078497076,
                    -0.25428984070895405,
                    -0.15409921072188829,
                    -0.2524332369408305,
                    0.10007437212959955,
                    -0.4485503397361279,
                    -0.14867503458423445,
                    -0.19594407763922572,
                    -0.24035639786677182,
                    -0.13285776767457394,
                    -0.21667787843354336,
                    0.1329129527273938,
                    -0.1368512859027497,
                    -0.06355364715977918,
                    0.14883736352786078,
                    0.04586195792495931,
                    0.014393793223209227,
                    0.017514799475392466,
                    -0.22437117571650744,
                    0.06454491757171618,
                    0.42630332342634875,
                    0.014343710442035931,
                    -0.2083212812091598,
                    -0.24301915232938842,
                    -0.32238119681746524,
                    -0.05717402528693864,
                    -0.06084866500210818,
                    0.18954129272722778,
                    -0.02737207776017566,
                    0.10027032280068236,
                    0.1269865798782239,
                    0.21079803490740248,
                    -0.06066810207706131,
                    0.22532518342743457,
                    0.05638569969545761,
                    -0.2051417509347307,
                    -0.19379729083275618,
                    0.07474052598738579,
                    -0.07695386250531477,
                    -0.4543185911999588,
                    0.08184387402498641
                ],
                [
                    0.00595162491636735,
                    0.04333006533083146,
                    0.27934085498258826,
                    -0.06783661004860163,
                    -0.2715731086725059,
                    0.11857597083346798,
                    0.016569039973700267,
                    0.11319168004588817,
                    0.12065209636662313,
                    0.09899876631396747,
                    -0.1339109975529265,
                    -0.014967590949149758,
                    -0.04201148855427384,
                    -0.07091315972620758,
                    0.10609899653478393,
                    -0.014494833284873656,
                    0.06025040827328666,
                    -0.20608791203077248,
                    -0.061805124459288076,
                    -0.1974765289275828,
                    -0.15179488614720393,
                    0.261187672380833,
                    -0.1683007055005855,
                    0.09016342142389201,
                    -0.30388560384770597,
                    -0.013155942537465297,
                    0.19065878007809756,
                    0.1385170212411441,
                    -0.13390511124233684,
                    0.16780633727228733,
                    -0.016715458278190477,
                    -0.1779838449681669,
                    -0.1950957876239618,
                    -0.36017192402670606,
                    0.08289933930336008,
                    0.15802469977128736,
                    0.32129152289021423,
                    -0.062158080226938715,
                    -0.07823132141021512,
                    -0.09758665417380515,
                    0.08061054348403403,
                    0.041481652305601524,
                    -0.22384384351685466,
                    0.07606438446078177,
                    0.10857241781370632,
                    0.0522994792243096,
                    -0.0335913379226566,
                    -0.3479651556639082,
                    -0.026794013463350357,
                    -0.005528102095682198
                ],
                [
                    -0.14064155978578155,
                    -0.002641083610358144,
                    -0.012049027265214307,
                    0.01696528725713639,
                    -0.006722603148860189,
                    -0.09637290748880106,
                    -0.23387207035758248,
                    -0.23970058868021737,
                    0.048021653030883064,
                    0.09127629653643837,
                    0.0166572286281604,
                    0.05952574411102801,
                    -0.028776638785854913,
                    0.35049721452252924,
                    0.018554990213632567,
                    0.01165032588327664,
                    -0.01815404880064182,
                    -0.0584252660095477,
                    -0.22586253469247883,
                    0.12381083734072906,
                    -0.0514314992280229,
                    0.12188899454571947,
                    0.22392525659276138,
                    -0.00949053633827594,
                    -0.09881441562509187,
                    0.0462062267545907,
                    0.12297623054758851,
                    0.0951546270974275,
                    -0.238093166873023,
                    0.3147714539969849,
                    -0.08721270850646734,
                    -0.2799000332364935,
                    0.14970190014477924,
                    -0.038437098345974745,
                    0.022211907727332884,
                    0.07190999968751602,
                    0.2979583182593723,
                    0.01688187527205449,
                    0.06156888770644625,
                    -0.05516732015050784,
                    -0.14029121805149544,
                    0.14812003659571288,
                    0.15676983737402378,
                    0.23976819430595925,
                    -0.15584905576592487,
                    0.060792214849360565,
                    0.1359735194358504,
                    -0.33057165979435627,
                    -0.2875027035827955,
                    0.1272702612585336
                ],
                [
                    -0.026970973418748292,
                    -0.14154891294997102,
                    0.22605141836247322,
                    -0.15141737062030622,
                    -0.22539340082612216,
                    -0.004117943504101724,
                    -0.021540147472559827,
                    0.14774397944840933,
                    0.010009179028513587,
                    0.2625336759995953,
                    -0.2535904322674099,
                    0.1254120367957802,
                    -0.2074677480507191,
                    0.19787807693969928,
                    0.0837377315150181,
                    -0.003167876826079297,
                    0.02530418217756244,
                    0.0006582549603121789,
                    -0.11579308969496632,
                    -0.25837414452297963,
                    -0.07950398097954688,
                    -0.10589870185262668,
                    0.11474140635458653,
                    0.08619931176707071,
                    -0.06494593414805362,
                    0.049716066707566856,
                    0.1277182043998846,
                    -0.09419283217134143,
                    -0.42773064959079976,
                    0.07720098414352963,
                    0.37076682342842726,
                    -0.1509192027139456,
                    0.1958254332184029,
                    -0.07400350693200279,
                    -0.10867134182224472,
                    0.4530904011718282,
                    -0.030758767132785254,
                    -0.19830289495520853,
                    0.17411506177190764,
                    0.07898408063311527,
                    0.042850408414521646,
                    -0.3630264804867814,
                    0.01223373021762991,
                    -0.04434323808590212,
                    -0.05566252542199667,
                    -0.20197319428099472,
                    -0.0705968887646943,
                    0.2189248800628215,
                    -0.15450845762053061,
                    0.18309901095212489
                ],
                [
                    0.42489629126773254,
                    0.10720561966166087,
                    -0.2672839048215259,
                    0.1845675443388026,
                    0.09787739220237072,
                    0.21638695550637488,
                    -0.06684676656270128,
                    0.22173202852386867,
                    0.18188121028260548,
                    -0.16596191974539795,
                    0.5211752711268833,
                    -0.054586848302558194,
                    0.35049018981853103,
                    -0.2979613815220733,
                    -0.42833099747435865,
                    0.045574894596890764,
                    -0.2891828574301043,
                    -0.037410059870472155,
                    0.3492600269432041,
                    -0.18053114382754007,
                    -0.1841843371490918,
                    0.043261551452768575,
                    -0.4601995351040495,
                    0.009170597124432297,
                    0.04552255658979375,
                    0.17369897550693267,
                    -0.2640101138522304,
                    0.35059184343228433,
                    -0.07939573281145715,
                    -0.24664281429974722,
                    -0.5331553135230394,
                    0.04468204177839604,
                    -0.2736520013172205,
                    -0.47741909373642105,
                    -0.13997355810216297,
                    -0.3853709895297934,
                    -0.4680625991334666,
                    0.277717621668917,
                    0.30534584894983635,
                    -0.0019047187690237057,
                    0.22443404450241905,
                    0.11279100789367001,
                    -0.547600663471368,
                    0.19841989503170052,
                    -0.13777137214349086,
                    -0.08376264150655977,
                    -0.17377348807608545,
                    0.21041463124080498,
                    0.6724728736128234,
                    -0.3158377889547471
                ],
                [
                    0.3927552695465761,
                    0.19714246125647755,
                    0.05589139223176841,
                    0.1784386086726645,
                    -0.4691099752840081,
                    0.28572782819316567,
                    0.2382294125000177,
                    -0.09364368700551746,
                    0.20724233714561896,
                    -0.4588498377937238,
                    0.2226721030938267,
                    0.31707896452082,
                    0.08151960363759406,
                    -0.23714432729986964,
                    -0.263131302967936,
                    0.08811791946168526,
                    -0.08332842526665539,
                    -0.08737473286863393,
                    0.11525227461965502,
                    -0.11245451203663517,
                    -0.08058196595987138,
                    0.28582096339744806,
                    -0.10566824789562787,
                    -0.07500437706962866,
                    0.2727975931769267,
                    0.07910033850514782,
                    0.08601480130680755,
                    0.1162657056660193,
                    0.1287432657805854,
                    -0.2640699295313818,
                    -0.2659227723204299,
                    0.450180625961487,
                    -0.40143841995056706,
                    -0.17980164522016892,
                    -0.1618061105618207,
                    -0.17237990874875644,
                    0.12665042168755375,
                    0.5341227355453353,
                    0.1617926710365259,
                    -0.30788848064750135,
                    0.10438691248085635,
                    0.2279867471767554,
                    -0.19768022810882693,
                    0.3137656182830701,
                    0.36415905048739333,
                    0.26404209075736446,
                    -0.13435750625078488,
                    0.0703996664980489,
                    0.19931627330628524,
                    -0.5479390308631559
                ],
                [
                    0.26788944190670005,
                    0.07791710890590017,
                    -0.2583288688265444,
                    0.03742129913824361,
                    -0.21579973203643613,
                    0.3622804157592002,
                    0.28271335672373227,
                    -0.12233899445038939,
                    0.13864966678767796,
                    -0.2913116288095395,
                    0.33559515156111125,
                    0.24956687203672945,
                    0.26596836213297326,
                    -0.07555815655060219,
                    -0.2553495548699872,
                    0.07715042394479303,
                    -0.1490092753638919,
                    -0.23353286525296524,
                    0.3257113605761384,
                    0.0019181913799288567,
                    -0.5876792608228366,
                    -0.4342157222218028,
                    -0.3829257486537465,
                    0.323363643149938,
                    0.21059444971956992,
                    0.1622872596683858,
                    -0.2526675030184887,
                    0.11494587037877249,
                    0.04559106161518603,
                    -0.26151593737666656,
                    0.011374518662353698,
                    0.47739500836781207,
                    0.04991348391862504,
                    -0.3095027930526992,
                    -0.07543732337951699,
                    -0.217853093620277,
                    0.18483457123659344,
                    -0.15057108711602865,
                    0.30833405620310317,
                    -0.228062991497774,
                    0.2287243636329284,
                    0.12437092875947267,
                    -0.14690651533445195,
                    0.4102418888433025,
                    0.18760456045375629,
                    0.25363478985078375,
                    0.21666080343442118,
                    0.05902405732262048,
                    0.426299215357621,
                    0.004193869092254442
                ],
                [
                    -0.03721985224007672,
                    0.07072388535189456,
                    -0.26926736372722226,
                    0.03291500625393088,
                    -0.017545871591281223,
                    0.5040699448932666,
                    -0.009722368617013888,
                    0.05294412399720632,
                    0.34425804713167363,
                    0.007297736034669724,
                    0.05031633849955758,
                    0.256069341688782,
                    -0.050623439524032116,
                    0.12509139231017538,
                    -0.10487679338022207,
                    0.3467170036783462,
                    -0.4941034984298042,
                    -0.24738021984083025,
                    0.29180931908429525,
                    -0.18124044745131287,
                    -0.23954255658549672,
                    0.17573491497179833,
                    -0.3447789383406454,
                    -0.0653058384946446,
                    0.039071371243168784,
                    -0.17779998660540786,
                    0.22886655480820386,
                    -0.07748326540113754,
                    -0.4074568939478928,
                    -0.21061731597136224,
                    -0.31422384697981703,
                    0.3352702396958425,
                    0.040225284409188475,
                    -0.4613265752196991,
                    -0.24274962035880718,
                    -0.38304554141864716,
                    0.525201200472462,
                    0.0798707985455909,
                    0.3653406032320967,
                    -0.04699581936190985,
                    0.18482833893137837,
                    -0.1581004543666713,
                    -0.12241900136298946,
                    0.379787224683145,
                    0.13558673796144755,
                    0.15687065684614165,
                    0.13326158324263035,
                    0.6184231260960013,
                    0.033549374633128966,
                    -0.0631848149818162
                ],
                [
                    0.18507933904001675,
                    0.2014918956243147,
                    0.17929731676642388,
                    -0.12543639252864677,
                    -0.1917913060808882,
                    0.08481857521324246,
                    0.18736798725118028,
                    -0.15730840620874126,
                    0.07388207592084896,
                    -0.14091945318009344,
                    0.35061799873311467,
                    0.3470229895552771,
                    0.028201367241743384,
                    0.1775321813098606,
                    -0.40028849445649006,
                    -0.06024915288664549,
                    -0.3531583450820375,
                    -0.11936643146718373,
                    0.2595239856766048,
                    -0.11117987172661876,
                    -0.08338011589079922,
                    0.3542037493376753,
                    -0.0496888518308526,
                    0.5362376486801163,
                    0.018055220318099575,
                    -0.27325888085237093,
                    -0.025366446193490284,
                    0.03389258037724093,
                    -0.30757977520115176,
                    -0.26448899386153935,
                    -0.42954985375212784,
                    0.4834148677138708,
                    -0.3738764602363275,
                    0.20936619964628223,
                    -0.10277721911783379,
                    -0.10945139065048246,
                    0.12489944413720881,
                    0.25510233952733674,
                    -0.26613293109487063,
                    -0.0229011048839289,
                    -0.2517554914204575,
                    0.13764169122819014,
                    -0.1661645756816911,
                    0.03908361503596151,
                    0.29563932469474297,
                    -0.2747835775258956,
                    0.03428877838132342,
                    0.19127174735114408,
                    0.12325345586837703,
                    0.23639364292078643
                ],
                [
                    0.1543512140453551,
                    -0.13101731027540162,
                    -0.19384207167057552,
                    -0.04507657873508316,
                    0.13180600620090255,
                    0.19561358540898163,
                    0.13023322046097333,
                    0.14981959544427975,
                    0.1322645121345352,
                    0.008859644273230513,
                    0.14677663760324336,
                    0.4087313137155432,
                    0.1938982788588737,
                    0.18047135894052002,
                    0.06687477416434147,
                    0.165360974527887,
                    -0.34684240254425264,
                    0.031939653052822384,
                    -0.05394206228826396,
                    0.34600245205483104,
                    -0.020356528858478423,
                    0.060841333620218284,
                    0.1904473186822026,
                    -0.12863034137791127,
                    -0.22659185003470642,
                    0.13299702313501488,
                    -0.0009859956463982124,
                    0.18182726072808986,
                    -0.08052227635361361,
                    -0.02018080442528999,
                    -0.18690468331886267,
                    -0.1514324257569942,
                    0.06536034547011274,
                    -0.08854579385944107,
                    -0.27173058491829516,
                    -0.3718955362278618,
                    -0.1368349261006783,
                    0.12362901925990365,
                    -0.1302016637968338,
                    0.022496110539960743,
                    -0.1409553567330902,
                    0.013993371055030476,
                    0.04137159381911066,
                    -0.061415035412086656,
                    -0.06414824739899554,
                    -0.194648370646305,
                    0.23333129029710922,
                    0.0056401255873312585,
                    0.09124949615230604,
                    -0.4277615749915674
                ],
                [
                    -0.008550339436901167,
                    0.10219451651940271,
                    -0.034288353336040106,
                    -0.0057474390549086185,
                    -0.400484536990632,
                    0.05336371957609319,
                    0.10126039611706385,
                    0.16156525569381874,
                    0.18691264478155287,
                    -0.3082392298484444,
                    0.12137745918869343,
                    0.19228329035279568,
                    0.14941808374174653,
                    -0.16109809012403167,
                    -0.2844498025039156,
                    0.06958004164934767,
                    -0.2191363032751995,
                    -0.1379934186644539,
                    0.2967710433415582,
                    0.03973404119777666,
                    0.004460069067634782,
                    0.11670899076650926,
                    -0.3478068760963185,
                    0.16808084452744143,
                    0.02369398873057664,
                    -0.2190710380868211,
                    -0.08696955587807244,
                    0.14198756182106298,
                    0.023666134984603137,
                    -0.22636475086504407,
                    0.02716207218949291,
                    0.0033136722974451533,
                    -0.180925508550881,
                    0.04342479923111282,
                    0.053275292205238765,
                    -0.10861623010326016,
                    0.4135448688219399,
                    0.035422855389707256,
                    -0.27476469895651384,
                    -0.006992665596349438,
                    0.07197232858019992,
                    0.018872401730892246,
                    -0.23726131282163831,
                    -0.04154029972763372,
                    -0.028368240420941906,
                    0.1380591190799088,
                    -0.1577637787820926,
                    0.22524152016803065,
                    0.031215837201635416,
                    -0.12583220172402568
                ],
                [
                    0.4525713327914096,
                    0.07284048098432838,
                    -0.2511476839323473,
                    -0.061499587363385115,
                    0.04003564090879061,
                    -0.16560554257870483,
                    0.25457758271380343,
                    0.06301689631753435,
                    -0.0799388453983502,
                    -0.411654569061123,
                    0.14047295614634583,
                    0.16756753878335,
                    0.07014614962255816,
                    0.15697041316806332,
                    -0.4149281642971012,
                    0.027230252429856574,
                    -0.24772879571266232,
                    -0.013322522352699272,
                    0.06499040549210051,
                    -0.010267241938152535,
                    -0.4574816334225277,
                    -0.048915325102050926,
                    -0.4719651435855878,
                    -0.09766871261020066,
                    0.10629510331583698,
                    0.10134085937777687,
                    -0.36211330429411,
                    0.40533238463269583,
                    0.09373139987559743,
                    -0.24805490063194446,
                    -0.405651128424561,
                    0.3610325137705861,
                    -0.2784111193957569,
                    -0.29896103800657753,
                    0.027697098111730486,
                    -0.31025609130105325,
                    -0.24572991806340075,
                    0.15938105372756217,
                    0.3234562163375999,
                    -0.02498629958065719,
                    0.1335497974103043,
                    0.4332460272476291,
                    -0.3667421863659023,
                    0.5344108385378326,
                    0.07805230622813693,
                    -0.1406409796461661,
                    0.20782513000453895,
                    0.37395310708457885,
                    0.2982437106820657,
                    -0.16087329727056507
                ],
                [
                    0.2829612822965151,
                    0.1467724589270274,
                    0.07404812677491333,
                    0.06192215662840521,
                    0.05901155651334358,
                    -0.027650509279210606,
                    -0.004008375218706113,
                    -0.10422773639113742,
                    0.21614959793916716,
                    -0.2062801147141577,
                    0.050488773416703214,
                    0.013965372805687541,
                    -0.012788678475364579,
                    -0.4447406866572508,
                    -0.3185689405792875,
                    0.09467000872469607,
                    -0.4536896810580873,
                    0.14208262609566522,
                    0.19599546259435183,
                    -0.10447876073761954,
                    -0.12511427158602959,
                    -0.029345832806389208,
                    -0.023635773433201383,
                    0.0851197980651312,
                    0.23798604147298913,
                    0.3490613410844726,
                    0.09074976979976657,
                    0.041507521421970665,
                    0.04724114274683447,
                    -0.11581638524018674,
                    -0.02731960780117929,
                    -0.33599579066205587,
                    -0.39268434814059194,
                    0.30251121931925595,
                    0.04988761139142273,
                    0.13898831285799992,
                    0.2652458935847446,
                    -0.04045623068056455,
                    -0.04610629781934718,
                    -0.003699582848537139,
                    0.1273394808427986,
                    -0.13892550703698803,
                    -0.39172058480042843,
                    0.20917971914817413,
                    0.24181394277710377,
                    -0.22641172136446466,
                    0.037911338543817064,
                    0.5109614253453356,
                    -0.00023965347451371322,
                    -0.11970799672755693
                ],
                [
                    0.035705497822421814,
                    0.29349280387609805,
                    -0.14714547744114084,
                    -0.19187530356242752,
                    0.2944099834437465,
                    0.11753473402663996,
                    -0.19413944369364353,
                    -0.07033688104999823,
                    -0.12302599208151385,
                    0.16820672718106816,
                    -0.1982704354807556,
                    0.18523228398684488,
                    0.22876122425247905,
                    0.0979141900589338,
                    -0.14628487778326407,
                    -0.02104181772696966,
                    0.29063392753292666,
                    -0.13630484771779094,
                    0.08504105983085099,
                    0.28951618100381105,
                    -0.10813673933633154,
                    0.16563627281051999,
                    0.3830979716838133,
                    0.19990487211152583,
                    0.0316432244229686,
                    0.0596242501416828,
                    -0.18479631327092835,
                    0.14531569092335825,
                    -0.027265938482859037,
                    -0.3267938228884108,
                    0.05137938394796904,
                    -0.14422842763081678,
                    0.057104479681122526,
                    0.3547208751361317,
                    -0.17034026393136334,
                    0.009044241488409531,
                    0.10645259569621779,
                    -0.049133711356496385,
                    0.2091906226797645,
                    0.14942409158556738,
                    0.01617169241183359,
                    -0.05342249972419005,
                    -0.1759064908091555,
                    0.29073246404886893,
                    0.012261067619715777,
                    0.16954210175830584,
                    -0.035834354504279034,
                    -0.06526600199481955,
                    -0.20369985497210452,
                    -0.10523405489680623
                ]
            ],
            "bias": [
                -0.286356916592054,
                -0.07658975722281089,
                0.14575272076485674,
                0.019866197331013333,
                0.07428725374512542,
                -0.05316109585873853,
                -0.16935962180865471,
                -0.07191660266223952,
                -0.07051122781502323,
                0.5044509930173755,
                -0.29281890014883877,
                -0.10209916754675022,
                -0.029243737109379588,
                0.0050379244941091425,
                0.5633876623247485,
                -0.003380811760495794,
                0.3690491512609906,
                0.03665948387762902,
                -0.20278048536903204,
                -0.0022669168118438785,
                0.23247875842034968,
                0.011424805335812445,
                0.16352865361021346,
                -0.027721604142601167,
                -0.009219624238592945,
                -0.047966558005675626,
                0.10601525371637653,
                -0.1187922684494893,
                0.021047823268914155,
                0.21715313158492972,
                0.3703164387659936,
                -0.1724349571901334,
                0.2021297049820563,
                0.13374508753833328,
                0.00946222466588151,
                0.18438175835607493,
                -0.07114976392652517,
                -0.05887498464414901,
                -0.12435226830220543,
                0.03050464511283914,
                -0.0538153934321314,
                -0.04350087431330992,
                0.2629945922067811,
                -0.2285729408314869,
                -0.07328809865310107,
                -0.0350864650692264,
                -0.019496307164136892,
                -0.13605676472483058,
                -0.32122011865146266,
                0.19487955844664617
            ],
            "input_size": 30,
            "output_size": 50,
            "lr_rate": 0.0001
        },
        {
            "layer": "Sigmoid"
        },
        {
            "layer": "Affine",
            "weights": [
                [
                    -0.07292724096525553,
                    -0.1576113125483515,
                    0.18160493689624202,
                    0.15800153910101802,
                    0.3658097251567674,
                    0.09836028040246249,
                    0.35375718676078166,
                    -0.3339153266731749,
                    -0.3672022564578364,
                    -0.05566368685695667,
                    0.09433431145384105,
                    -0.12218294579344091,
                    0.09926704293248273,
                    0.274619066370574,
                    -0.07552642198477126,
                    -0.108281237810697,
                    0.024344095409298615,
                    -0.3950497614748273,
                    0.21800048408851688,
                    0.3077041838019892,
                    0.26318377106817553,
                    -0.10611539806525146,
                    0.05287670095153285,
                    -0.26759750827811546,
                    0.16830859819412475,
                    -0.1393632160438743,
                    0.09807519066665137,
                    -0.03850778149043138,
                    -0.055487547850808235,
                    0.04341648673148105,
                    0.1270578173203632,
                    -0.22387134961231495,
                    -0.3859250585680182,
                    -0.010631451727869291,
                    -0.0782313529388972,
                    0.20238797776852405,
                    0.33556997015058193,
                    0.11713340257174511,
                    0.10966996213494554,
                    -0.04646444164656502,
                    -0.07431188183182746,
                    -0.0092526077440709,
                    -0.0033634107005951295,
                    -0.07476771691924537,
                    0.17409927401261913,
                    -0.06958441192106829,
                    -0.17645342857590282,
                    0.09279571219801505,
                    -0.0861326711475253,
                    0.09516658261379768
                ],
                [
                    -0.02534012022720064,
                    -0.12385735071982347,
                    0.03249106075008585,
                    -0.07464442612906827,
                    0.11661601910289227,
                    0.2084031469203882,
                    0.12233422167145731,
                    -0.07450294891109738,
                    -0.49415238856892074,
                    -0.00866043346830168,
                    0.1885140156451803,
                    0.06103441505157209,
                    -0.1660244375819193,
                    0.02396903442430155,
                    0.147811845894968,
                    -0.15519483552835345,
                    -0.05807029127051914,
                    0.11500406564651765,
                    -0.01897111622012464,
                    0.0030615690551025194,
                    0.18826229332751107,
                    0.08695243449589961,
                    0.304673187199765,
                    -0.03967314753148789,
                    0.28689685710896273,
                    -0.006807689436358822,
                    -0.09280953083833973,
                    -0.15550039768154378,
                    -0.23974040395091126,
                    -0.11571073182632362,
                    -0.16001305086684425,
                    0.019898896999415758,
                    -0.1024490525911897,
                    0.34497112300596283,
                    -0.1752012306322143,
                    -0.055566301668920334,
                    0.16545559663951123,
                    0.07046825565271717,
                    0.1459103964099956,
                    -0.09871008914415581,
                    0.11941505834583799,
                    -0.19191894332542306,
                    0.2477895996754236,
                    -0.15161102631874912,
                    -0.24694191587622555,
                    0.007180810310185079,
                    -0.04918482270769281,
                    -0.15313725190869878,
                    -0.038851048680469596,
                    -0.16856872421687483
                ],
                [
                    0.41653135568593813,
                    0.1351646376913844,
                    0.00784091360178792,
                    0.2679553456788649,
                    -0.34506861361138547,
                    -0.20922102761981287,
                    -0.21283971955252742,
                    0.18352051295735522,
                    0.2868621039558291,
                    -0.3374579397983793,
                    0.18102595293107465,
                    -0.12534475507277187,
                    -0.19533656195474572,
                    0.0012105065685335187,
                    0.05851004576351154,
                    0.227784462634254,
                    0.05540143493756392,
                    0.43109897105634926,
                    -0.2189411287944968,
                    0.08883991649444715,
                    -0.018341391708163093,
                    0.040405240290332184,
                    0.022132586300179405,
                    -0.16572029944078723,
                    -0.05988202206843722,
                    -0.19267132952935492,
                    0.042889591773079924,
                    0.13947551155804405,
                    0.19281048014430008,
                    0.03273399300334125,
                    -0.04904762719580137,
                    0.4292328126369261,
                    0.14288272101708258,
                    -0.22240147133979735,
                    -0.01000731974793593,
                    -0.11904134987923849,
                    -0.14229156790255182,
                    0.20994013333248968,
                    -0.004883879989612487,
                    0.10084620236533304,
                    -0.16174307380462358,
                    -0.06097748247167098,
                    -0.13023892832796224,
                    -0.033767044936260496,
                    0.10692370300291139,
                    0.171385928035761,
                    0.13347455804807493,
                    0.02617874042527478,
                    -0.3460539785894897,
                    -0.12550175932746316
                ],
                [
                    0.0884229158482128,
                    -0.10103951061232821,
                    -0.0664055662177641,
                    0.03328472217677041,
                    -0.15866273731763703,
                    0.02772720606388534,
                    0.11046869534447919,
                    -0.018744779864587544,
                    -0.007056055695536094,
                    -0.02693835822106843,
                    -0.1320822678163171,
                    -0.1361547636640474,
                    -0.1443630636310161,
                    -0.33621593337741235,
                    0.11180956336739137,
                    -0.04746262192493783,
                    0.21201079637722733,
                    0.28994248220829183,
                    -0.0579155349923756,
                    0.29078238381143634,
                    0.12340381430851327,
                    -0.2724636088687073,
                    0.03407900535233341,
                    -0.05239944215651011,
                    0.08378066729965875,
                    0.03189208336327492,
                    -0.04135457307301756,
                    0.07614816113306375,
                    0.16363608697667234,
                    -0.04636576915258929,
                    -0.40590995721165,
                    -0.006399764026107229,
                    -0.07694002332714503,
                    0.14422771147576643,
                    -0.27098488605112364,
                    -0.26393898975281305,
                    -0.06061651401362481,
                    0.02482051813257028,
                    0.10055338138761799,
                    -0.09087437958213963,
                    -0.3177132621416418,
                    0.11570088641681409,
                    -0.07252684715746825,
                    -0.031324464875466626,
                    0.16876170210115155,
                    0.030697005746863768,
                    -0.14951707644715223,
                    0.13989633562556006,
                    -0.31358228407893074,
                    -0.041503185310446604
                ],
                [
                    0.2935781783494057,
                    0.26430397207145734,
                    0.0019913319344604234,
                    -0.011684482266808786,
                    -0.1957588518597771,
                    -0.13904548625578883,
                    0.08928757581357419,
                    0.14390205462083852,
                    0.36092790687504256,
                    -0.1333580754355412,
                    -0.0009104639513732198,
                    0.14503368333758407,
                    0.12079085450179904,
                    0.12386657488084733,
                    0.2710166577192658,
                    -0.08874892834780111,
                    -0.004539271146607046,
                    0.3614080981911131,
                    -0.06169925210960808,
                    -0.0998404742075205,
                    -0.05859334838014243,
                    0.021215763271051805,
                    -0.11658711591532052,
                    -0.04717701003346469,
                    -0.13702982558108984,
                    0.05029933822410633,
                    -0.14950272258863415,
                    -0.04769413044519752,
                    0.1828300052952212,
                    -0.1493377462850764,
                    -0.2596182807974571,
                    -0.10053317495402057,
                    0.18583857145377022,
                    0.2377859671295128,
                    -0.22386020501312506,
                    0.046041893592371715,
                    -0.28418694451247334,
                    0.0591773496255269,
                    0.06796300372826526,
                    0.011927671316102274,
                    -0.02785720849937354,
                    0.25726284041637915,
                    0.09352195980058306,
                    0.18100507599454224,
                    0.010660422400951143,
                    0.06042164547134824,
                    -0.0303218128377346,
                    -0.08232945348530997,
                    -0.08929519169203769,
                    0.07192025706003362
                ],
                [
                    -0.18206547660079112,
                    0.016075719768490825,
                    -0.10326279173694793,
                    -0.16308976422495186,
                    0.17805082716052834,
                    -0.03464836867665848,
                    -0.14626211451030383,
                    0.0076535680315153055,
                    0.17596529840735514,
                    -0.17089520032804126,
                    -0.036666391274074894,
                    -0.04918723280431594,
                    0.0020318927913698763,
                    -0.22900088263865884,
                    -0.06372452267538016,
                    -0.171752118302102,
                    0.18281384811771276,
                    -0.31107928007378993,
                    -0.06818785741875034,
                    -0.10496186493306792,
                    0.09429015194221797,
                    0.3155580003910509,
                    -0.01748699336536021,
                    0.18226594994903894,
                    -0.1211938263217227,
                    -0.037416887074053905,
                    0.06931371002733476,
                    -0.09549362709925835,
                    -0.3178801433035013,
                    0.01350286370982577,
                    0.17740399954379926,
                    -0.21221169683737193,
                    0.20569240861269492,
                    0.12271598525107626,
                    -0.10658480282034333,
                    -0.005857774275314356,
                    0.05194345048479521,
                    -0.1500552668041164,
                    -0.027017142340670153,
                    0.006672950809636688,
                    0.1740228475554795,
                    -0.3599809353188311,
                    -0.028669750941692475,
                    -0.1129169086358038,
                    0.09137894031982238,
                    0.07683808272373828,
                    -0.13573943034899738,
                    0.0639130325274244,
                    0.02441727791047534,
                    -0.03414625877117975
                ],
                [
                    -0.4231214908484486,
                    -0.1907392511832769,
                    0.14369244959489505,
                    -0.014485670842530945,
                    0.13274031979268766,
                    -0.22526778564625374,
                    0.17331896811221723,
                    -0.14899634590523322,
                    -0.2959252459737395,
                    -0.05843239644093186,
                    -0.0997693295514901,
                    0.05540359989185207,
                    -0.19030801592964014,
                    0.024802481715466694,
                    -0.07533269857146123,
                    0.0385602389453672,
                    0.1626114846149171,
                    -0.3959136588112802,
                    0.38472410618627,
                    -0.02005959451055927,
                    -0.09091978332002892,
                    0.15312726836133742,
                    0.04008899893210566,
                    -0.08629839354485151,
                    0.16146634844285387,
                    0.2500055694035877,
                    0.007204936639515504,
                    -0.2874794221690977,
                    0.05379792218760216,
                    -0.17353290607896504,
                    -0.05150635042774729,
                    -0.07245355259935789,
                    -0.3504646474415304,
                    0.12736695244050017,
                    -0.28255658252364096,
                    0.13806324441335027,
                    -0.03760917455944832,
                    0.017498100902622816,
                    -0.1192664248211588,
                    0.015164449025605008,
                    0.01674676997666152,
                    -0.11498964334506441,
                    -0.14270818478759034,
                    0.02419397180834453,
                    -0.26811263688990616,
                    -0.18487526649771058,
                    -0.18858745954745304,
                    -0.2967694905282187,
                    0.15048384363261993,
                    0.03822171123834963
                ],
                [
                    -0.29723930557989164,
                    0.05990117339508719,
                    0.011646586524021419,
                    -0.2130467991317767,
                    0.0098394689396688,
                    0.2897691260542258,
                    0.11480552593205436,
                    0.13082819647121952,
                    -0.34678977528337984,
                    -0.23265441936491876,
                    0.03433010719827109,
                    0.12353180238524458,
                    0.04182275460429061,
                    -0.004320410284910681,
                    0.04816390502425603,
                    -0.03254448696977826,
                    -0.1470088992787092,
                    -0.0696557346842692,
                    -0.004596915912961103,
                    -0.05732495348631397,
                    0.23895758909273107,
                    -0.06360396441954849,
                    0.0695599849653996,
                    -0.22629036457167878,
                    0.10823967209897822,
                    -0.05340706177543179,
                    -0.23393075779365508,
                    0.13505407354824944,
                    0.023590090891420733,
                    -0.07511862464886851,
                    0.004426044949969915,
                    -0.2347615328106334,
                    0.05344018487921654,
                    -0.12268456907436541,
                    0.11915127242346392,
                    0.107329663038208,
                    0.0018048277977561538,
                    0.2985733907625857,
                    -0.10557658299700162,
                    0.12392088419194358,
                    -0.05746989754833618,
                    -0.01564976874489214,
                    0.1142427885012338,
                    -0.03969105511878462,
                    -0.03089860922604588,
                    -0.0373502876640903,
                    -0.21647110053272794,
                    0.14534364146298204,
                    0.1284774629848606,
                    0.2307075795706072
                ],
                [
                    -0.04610356626078776,
                    -0.030004150396413996,
                    0.11283727085920486,
                    -0.2574468950813505,
                    0.023966651349113466,
                    -0.046311961439504744,
                    -0.3224906922942115,
                    -0.195650242652136,
                    -0.050867996851789145,
                    0.03330033555984927,
                    -0.0727130737428753,
                    -0.25414975651479355,
                    0.06981138627111108,
                    -0.07031985715278741,
                    -0.02677397319269423,
                    -0.3136896673498422,
                    0.1848990118214402,
                    -0.007247765823008758,
                    -0.02568107282826382,
                    -0.03312031130067604,
                    0.20686780372678973,
                    0.016222252264928155,
                    0.05437351105394592,
                    -0.21553172334555268,
                    0.26109662170679987,
                    0.24221188537388708,
                    0.03312038217702072,
                    0.16028553132441453,
                    -0.2139644664116179,
                    0.0639842502437496,
                    0.14622101741099228,
                    -0.17298524451534963,
                    -0.0721877608525474,
                    0.14365675264801522,
                    0.013091010511308471,
                    0.07158525583605521,
                    0.022515276477738874,
                    -0.07180664023929238,
                    -0.32750443807412827,
                    0.034380307378443116,
                    -0.025463184355619076,
                    0.1536355564405437,
                    0.1270940057882488,
                    0.1285230816007796,
                    -0.0728777707131874,
                    -0.033098055280578756,
                    -0.12372791799501814,
                    0.1959689005777598,
                    0.15177943834685104,
                    0.23705004322601367
                ],
                [
                    0.5767758707950761,
                    0.13474148685905057,
                    -0.11665691090031025,
                    0.025859318231035412,
                    -0.4559070957479417,
                    -0.12444309972770054,
                    -0.035590382226106033,
                    0.74075629541239,
                    0.4726385468421031,
                    -0.09568873477854876,
                    0.05647103362689648,
                    0.06606864732079488,
                    0.0723075565078266,
                    0.16720131855600862,
                    0.28741303994786166,
                    0.06590489053430652,
                    -0.17118142525871538,
                    0.39302958313846864,
                    -0.018716903696593425,
                    -0.2368635028359725,
                    -0.05015190331616895,
                    -0.06473167319892315,
                    -0.09747796267909381,
                    0.10238781475236017,
                    -0.1716235648827298,
                    0.08061454889772691,
                    0.15575578564266918,
                    0.03179114626353831,
                    0.2898557812275131,
                    0.027205439654349847,
                    -0.3269177958612379,
                    0.31489489654588504,
                    0.43977470748386227,
                    -0.2304767137151351,
                    -0.13054132271394564,
                    -0.25398119795581303,
                    -0.04832651174973214,
                    -0.34737420189094703,
                    -0.0639538223378491,
                    -0.11882907034354116,
                    -0.011020926175541419,
                    0.14254782348919548,
                    -0.30854271805948363,
                    -0.15925506874363923,
                    0.05104161295521668,
                    0.2676806044617836,
                    0.4700668982123529,
                    -0.028887353061891705,
                    -0.10591350883214483,
                    0.10644839257382174
                ],
                [
                    -0.43155699137901965,
                    -0.0306560533132947,
                    0.07497072408718505,
                    -0.19975935018825028,
                    0.19521343806689193,
                    0.3069406947262897,
                    -0.22232811697783894,
                    -0.19868971504437963,
                    -0.13114777841340516,
                    0.3166064504518064,
                    -0.03342993026592533,
                    -0.1097145047901225,
                    -0.16843377005784926,
                    0.003917226785897721,
                    -0.2923066149456888,
                    -0.042404725497265976,
                    0.046444617838422825,
                    -0.17455817828854908,
                    0.057399505905894994,
                    0.03852939479457881,
                    0.2615241187300591,
                    -0.016608582578524135,
                    0.2414638982263494,
                    -0.1994560739125329,
                    0.1369133879604262,
                    0.058988660936380576,
                    -0.006992524471423145,
                    -0.2262390785717896,
                    -0.2689580795950861,
                    0.1551260267562609,
                    0.26862381981402605,
                    -0.1421615805663329,
                    0.039360509095603284,
                    0.17879950252446514,
                    -0.05114402967696439,
                    0.0037540913032178165,
                    0.1446861019000501,
                    0.21585461673760886,
                    -0.2676923057894404,
                    0.06589577593040483,
                    0.0837115766904934,
                    0.04233793698005876,
                    0.16659117570019896,
                    -0.1120631389840662,
                    -0.2065394668283191,
                    -0.3037265963134718,
                    -0.5069079167337398,
                    0.3620137335157707,
                    0.103179876543154,
                    0.06431697055061894
                ],
                [
                    -0.14354943913083965,
                    -0.06945813041090647,
                    0.06764347872894866,
                    -0.20975201024261927,
                    0.18098160394743845,
                    0.004197240242539638,
                    0.06846213883077329,
                    -0.1447760061049644,
                    -0.013508608166892106,
                    0.07171538516339251,
                    -0.2445676092873141,
                    -0.0784616865585127,
                    0.14014640043314283,
                    -0.0013211829474556191,
                    -0.009393683768769152,
                    -0.07849737084150654,
                    0.15907691109312944,
                    -0.20333132605998255,
                    0.1801036864791178,
                    0.029930884229594265,
                    -0.07445843421887954,
                    0.06148951379747924,
                    0.06283464287431721,
                    -0.13628123328087866,
                    -0.2642525104559384,
                    0.0894313998237801,
                    0.13065620570495626,
                    -0.011038238675007209,
                    -0.22511732168373064,
                    -0.009999773282532357,
                    0.16065470979442928,
                    -0.21868772960944993,
                    -0.1851227953045585,
                    -0.013817796838220243,
                    0.1356593918430551,
                    -0.1215276989347254,
                    -0.1792480780142622,
                    0.0507272719301561,
                    0.158387647582604,
                    -0.17069449298754902,
                    0.10991752267553144,
                    0.047546111032055166,
                    -0.0038647211726790033,
                    -0.033960029580905514,
                    0.020288766314418345,
                    -0.06500421403329179,
                    -0.230578116557927,
                    0.22879897614387543,
                    -0.21376162581778266,
                    -0.044898758665888425
                ],
                [
                    -0.19771759346787093,
                    0.0941454701267347,
                    -0.08158229266883246,
                    0.06331088049369238,
                    0.09505021330113513,
                    -0.03195987792452682,
                    -0.2187146049147334,
                    -0.05943051389531007,
                    -0.3351272771632441,
                    0.03949743439759077,
                    -0.032079478141014105,
                    0.07920137329133443,
                    -0.09381014572590948,
                    0.08277245887352454,
                    -0.08789157086703962,
                    0.017333456689301342,
                    -0.1217928527494377,
                    0.02803903228220004,
                    0.10460992461397634,
                    0.05697487403257643,
                    0.13731352924108428,
                    -0.35373868913466433,
                    0.11136960512016343,
                    0.28461682206778915,
                    -0.16803059709191184,
                    0.07751769275009097,
                    0.26761109038956,
                    -0.04888181296233513,
                    -0.09526477154933252,
                    0.12806661253606774,
                    0.025550792591272388,
                    0.10991245433021202,
                    0.007139527627017612,
                    0.04250456774861569,
                    0.09010773858814797,
                    -0.16743321818011675,
                    -0.03739936015565107,
                    -0.1235345669958945,
                    0.0643847884529318,
                    0.051074855406764194,
                    -0.019019416888164716,
                    -0.07850882783619423,
                    -0.07669214172949029,
                    -0.046668323268255596,
                    -0.23440281860032774,
                    -0.17077070076020753,
                    -0.15323749457630093,
                    -0.15209294718421024,
                    6.802936329320424e-05,
                    0.0668378927084108
                ],
                [
                    -0.02269446924228327,
                    0.2616447058781993,
                    -0.11939825370462874,
                    -0.03545974859801009,
                    -0.38598913190743445,
                    0.21538490443138186,
                    0.14737909569947727,
                    -0.19979452472085207,
                    0.2108919714360239,
                    -0.0365053813398721,
                    0.12344518337343902,
                    -0.2652560375338578,
                    -0.18709115541254714,
                    -0.12664518458991245,
                    0.11395251138633981,
                    0.08346282367394368,
                    -0.16537021639025654,
                    0.002287158480603256,
                    -0.10546063591571372,
                    0.01612776790776403,
                    0.21689670287062063,
                    0.016395586763957453,
                    0.0016649285738190931,
                    0.07957541187795089,
                    -0.06166480071561338,
                    0.2391796851184873,
                    0.09311160111612862,
                    -0.02657748289507484,
                    0.09563570042789812,
                    -0.023537487725046127,
                    0.15544748237976627,
                    -0.23952740427442956,
                    0.19822576852445184,
                    0.03201704861830289,
                    -0.05437611178378758,
                    -0.14289780126200358,
                    -0.03719881598302655,
                    -0.11941679364920789,
                    0.09224240654629265,
                    -0.1183792868641659,
                    0.4902566674162849,
                    -0.01514468753716843,
                    -0.10882448265996003,
                    -0.08978698638876738,
                    -0.0786854143481561,
                    0.11803340403858546,
                    0.1852469624295643,
                    0.029433287155970392,
                    -0.16332344571887236,
                    -0.05086208584625038
                ],
                [
                    0.4720036528559243,
                    0.35150603656339274,
                    -0.18498107515352638,
                    0.2846013770028823,
                    -0.4095081847301735,
                    -0.245349408839709,
                    -0.09514251674097435,
                    0.7086068642523506,
                    0.5636202267118678,
                    -0.18718999093134595,
                    -0.00987374414104105,
                    0.059847667919868244,
                    -0.06510800716621955,
                    -0.12121833849216829,
                    0.022581331924142543,
                    0.17750665034929977,
                    -0.13410732880262743,
                    0.24792413221782775,
                    -0.02824691583667578,
                    -0.2665199940837889,
                    -0.11841515191391844,
                    -0.020364986035550106,
                    -0.0337698804258096,
                    0.17900551708543858,
                    -0.38655068787688507,
                    0.11380076838457674,
                    -0.06424259186940232,
                    0.07770565549971141,
                    0.6110601312438537,
                    -0.1866559645571976,
                    -0.2397127257137152,
                    0.3137349514751137,
                    0.2832087974484746,
                    -0.2845708441232449,
                    0.1248900363572346,
                    0.010489265850681408,
                    -0.27965696050258787,
                    0.08149183974473062,
                    -0.06664130006556876,
                    0.11618743149569989,
                    -0.058793287894672405,
                    0.2615870061165677,
                    -0.37141507252837647,
                    -0.04447860307658015,
                    -0.16349296072582187,
                    0.11314922610603466,
                    0.5064019428058648,
                    -0.14442002250567174,
                    0.134301660685949,
                    -0.2844275407325103
                ],
                [
                    0.05248427874721942,
                    0.08453918063938028,
                    -0.10009450674485286,
                    0.021821762614883597,
                    0.11819341608413528,
                    0.21428146616475854,
                    0.21089841106661464,
                    0.1896459751045504,
                    -0.14261728412868455,
                    0.14583681778866392,
                    -0.05895783099721219,
                    -0.09366263632199592,
                    -0.10413743286136119,
                    -0.07777728361019093,
                    -0.08043865188157782,
                    -0.297389984500499,
                    0.1034819176923265,
                    0.2163573593701695,
                    0.14027611094820322,
                    0.10041134900901001,
                    0.07210694113410931,
                    -0.0006163565402610867,
                    0.20850315551963705,
                    0.06710197022155653,
                    0.07869583127369043,
                    -0.09898482730667123,
                    -0.05020173654271363,
                    -0.1573183786677528,
                    0.036669165206893464,
                    0.09389609111328824,
                    -0.1070762126311735,
                    0.2588208930161304,
                    0.08287663894442204,
                    -0.15556166346634082,
                    0.14693995844782393,
                    -0.10476241467895023,
                    0.04837776223910719,
                    0.0026805090113158525,
                    -0.1661893493678998,
                    -0.020366237250765497,
                    0.0059427566207888635,
                    -0.0528533272225296,
                    0.22955625198570107,
                    0.01344532439457349,
                    0.2867430081131925,
                    -0.09953507265786367,
                    -0.04657439795827438,
                    -0.008857641709503547,
                    0.029828598259191513,
                    0.05284759290649245
                ],
                [
                    0.594882853571945,
                    0.26760295782736343,
                    -0.2578844010300181,
                    0.08196107360510756,
                    -0.27431395887012927,
                    -0.191635128609281,
                    -0.0016696045726727765,
                    0.3992573430945516,
                    0.4441935908429915,
                    -0.12307724570388076,
                    0.07104963560851099,
                    0.0688941162998735,
                    -0.2138923326605378,
                    0.2804688736133942,
                    0.2765651534724563,
                    0.3729688432435598,
                    -0.1893784253895958,
                    0.6024631130659939,
                    -0.3135879454665454,
                    -0.1137854828119441,
                    -0.13971685825142613,
                    -0.13461032361415715,
                    0.14629453709935789,
                    0.3210206642586038,
